svm_type c_svc
kernel_type rbf
gamma 0.030303030303030304
nr_class 2
total_sv 259
rho 0.8735195540967029
label 1 -1
nr_sv 51 208
SV
1 2:40 3:2 4:125 5:1 11:1 15:10 16:5 17:5 18:5 19:5 20:5 21:3 22:5 23:5 24:5 25:1 26:4 27:5 28:3 29:5 30:5 31:5 32:5 33:5 
1 2:25 3:3 4:125 5:1 10:1 15:8 16:5 17:3 18:5 19:5 20:4 21:4 22:5 23:5 24:5 25:1 26:3 27:2 28:5 29:5 30:3 31:1 32:3 33:5 
1 2:30 3:5 4:250 5:1 9:1 15:9 16:4 17:5 18:5 19:4 20:5 21:5 22:4 23:5 24:5 25:3 26:4 27:4 28:4 29:4 30:4 31:4 32:5 33:5 
1 2:20 3:1 4:125 5:1 9:1 15:9 16:4 17:4 18:5 19:5 20:5 21:5 22:5 23:4 24:5 25:4 26:4 27:4 28:4 29:4 30:4 31:4 32:5 33:5 
1 2:25 4:125 5:1 9:1 15:8 16:4 17:5 18:5 19:5 20:5 21:4 22:4 23:2 24:3 25:4 26:4 27:4 28:4 29:4 30:3 31:5 32:4 33:4 
1 2:30 3:3 4:150 6:1 9:1 15:9 16:4 17:5 18:5 19:5 20:4 21:4 22:4 23:3 24:4 25:3 26:4 27:4 28:4 29:3 30:3 31:4 32:4 33:5 
1 2:30 3:2 4:125 6:1 11:1 15:9 16:4 17:4 18:5 19:5 20:4 21:4 22:5 23:4 24:3 25:3 26:3 27:4 28:5 29:4 30:4 31:3 32:5 33:5 
1 2:30 3:5 4:250 6:1 11:1 15:10 16:4 17:5 18:4 19:5 20:5 21:4 22:5 23:4 24:4 25:3 26:3 27:4 28:4 29:4 30:4 31:5 32:5 33:5 
1 2:20 3:3 4:250 5:1 9:1 15:8 16:2 17:3 18:5 19:2 20:5 21:3 22:5 23:5 24:5 25:2 26:5 27:2 28:5 29:5 30:3 31:3 32:4 33:5 
1 2:30 3:2 4:150 6:1 11:1 15:9 16:5 17:5 18:5 19:4 20:5 21:5 22:4 23:5 24:5 25:2 26:4 27:4 28:4 29:3 30:4 31:5 32:5 33:4 
1 2:18 4:125 5:1 11:1 15:10 16:2 17:2 18:1 19:5 20:5 21:1 22:3 23:3 24:1 25:1 26:1 27:3 28:5 29:5 30:5 31:5 32:5 33:5 
1 2:30 3:3 4:250 5:1 9:1 15:10 16:5 17:5 18:5 19:5 20:5 21:5 22:3 23:5 24:3 25:5 26:3 27:5 28:5 29:5 30:5 31:5 32:5 33:5 
1 2:20 3:4 4:125 5:1 13:1 15:8 16:2 17:4 18:4 19:5 20:3 21:1 22:4 23:4 24:5 25:1 26:1 27:1 28:2 29:3 30:2 31:5 32:2 33:4 
1 2:30 3:4 4:150 5:1 10:1 15:9 16:1 17:4 18:5 19:4 20:5 21:5 22:5 23:4 24:4 25:2 26:2 27:4 28:4 29:4 30:4 31:3 32:4 33:5 
1 2:30 3:4 4:150 7:1 11:1 15:9 16:1 17:5 18:5 19:5 20:5 21:4 22:5 23:5 24:5 25:3 26:4 27:4 28:5 29:5 30:3 31:5 32:5 33:5 
1 2:20 3:1 4:125 6:1 9:1 15:9 16:4 17:3 18:4 19:4 20:5 21:5 22:5 23:5 24:5 25:4 26:4 27:5 28:5 29:5 30:5 31:3 32:5 33:5 
1 2:40 4:125 6:1 9:1 15:8 16:5 17:3 18:5 19:4 20:5 21:4 22:5 23:5 24:5 25:5 26:2 27:5 28:4 29:5 30:5 31:5 32:5 33:5 
1 2:20 4:125 5:1 10:1 15:8 16:4 17:5 18:5 19:5 20:4 21:3 22:4 23:4 24:3 25:3 26:3 27:2 28:2 29:4 30:3 31:3 32:4 33:4 
1 2:40 4:250 6:1 8:1 15:9 16:4 17:5 18:5 19:3 20:5 21:5 22:5 23:2 24:4 25:2 26:4 27:4 28:4 29:2 30:2 31:3 32:4 33:5 
1 2:18 3:2 4:125 6:1 8:1 15:9 16:5 17:3 18:5 19:5 20:5 21:4 22:5 23:5 24:3 25:3 26:4 27:4 28:4 29:1 30:1 31:4 32:4 33:3 
1 2:25 4:250 6:1 9:1 15:8 16:3 17:3 18:4 19:3 20:4 21:4 22:4 23:2 24:3 25:5 26:5 27:5 28:5 29:2 30:2 31:4 32:4 33:4 
1 2:25 4:125 6:1 8:1 15:8 16:5 17:3 18:5 19:5 20:5 21:5 22:2 23:2 24:3 25:1 26:5 27:5 28:5 29:2 30:2 31:5 32:4 33:4 
1 2:40 3:5 4:125 6:1 10:1 15:9 16:4 17:4 18:4 19:4 20:4 21:4 22:4 23:3 24:3 25:3 26:4 27:4 28:2 29:2 30:3 31:4 32:4 33:4 
1 2:30 3:4 4:250 6:1 10:1 15:8 16:4 17:4 18:4 19:4 20:4 21:3 22:4 23:4 24:4 25:4 26:4 27:3 28:4 29:4 30:4 31:3 32:4 33:4 
1 2:25 3:3 4:125 6:1 8:1 15:8 16:4 17:5 18:5 19:5 20:4 21:3 22:4 23:4 24:4 25:4 26:4 27:3 28:3 29:3 30:3 31:3 32:4 33:4 
1 2:20 3:2 4:150 5:1 8:1 15:9 16:3 17:4 18:5 19:4 20:3 21:1 22:4 23:4 24:4 25:2 26:4 27:5 28:4 29:4 30:4 31:2 32:3 33:4 
1 2:40 3:5 4:250 5:1 9:1 15:9 16:3 17:4 18:5 19:3 20:2 21:2 22:3 23:4 24:4 25:3 26:4 27:3 28:3 29:4 30:4 31:2 32:4 33:4 
1 2:20 3:2 4:125 5:1 9:1 15:8 16:3 17:4 18:5 19:5 20:5 21:3 22:5 23:4 24:4 25:5 26:5 27:4 28:4 29:4 30:4 31:5 32:5 33:5 
1 2:25 3:2 4:125 6:1 12:1 15:8 16:4 17:4 18:5 19:4 20:5 21:5 22:3 23:5 24:5 25:2 26:4 27:5 28:5 29:5 30:5 31:3 32:5 33:5 
1 2:30 3:3 4:150 5:1 8:1 15:8 16:4 17:4 18:4 19:5 20:5 21:4 22:3 23:3 24:2 25:1 26:3 27:4 28:2 29:5 30:3 31:5 32:4 33:4 
1 2:20 3:2 4:125 6:1 14:1 15:9 16:1 17:3 18:4 19:4 20:3 21:3 22:3 23:4 24:4 25:1 26:2 27:4 28:2 29:3 30:4 31:5 32:3 33:4 
1 2:30 3:2 4:100 6:1 12:1 15:10 16:2 17:2 18:5 19:5 20:5 21:3 22:4 23:4 24:3 25:3 26:5 27:2 28:4 29:2 30:2 31:3 32:4 33:5 
1 2:18 4:100 5:1 12:1 15:8 16:3 17:3 18:4 19:4 20:4 21:4 22:4 23:4 24:4 25:3 26:3 27:3 28:3 29:4 30:4 31:4 32:4 33:4 
1 2:20 3:2 4:100 7:1 8:1 15:10 16:2 17:4 18:5 19:5 20:5 21:5 22:4 23:5 24:4 25:5 26:4 27:3 28:4 29:1 30:2 31:1 32:3 33:4 
1 2:30 3:1 4:100 6:1 9:1 15:8 16:2 17:5 18:5 19:5 20:4 21:4 22:5 23:4 24:5 25:5 26:5 27:4 28:4 29:5 30:5 31:5 32:5 33:5 
1 2:40 3:3 4:100 5:1 9:1 15:10 16:3 17:5 18:5 19:5 20:4 21:4 22:4 23:3 24:4 25:3 26:3 27:3 28:3 29:3 30:4 31:3 32:4 33:4 
1 2:20 4:100 6:1 10:1 15:9 16:1 17:1 18:4 19:5 20:4 21:3 22:5 23:5 24:4 25:1 26:1 27:1 28:4 29:5 30:3 31:1 32:5 33:5 
1 2:30 3:2 4:100 5:1 11:1 15:5 16:5 17:5 18:5 19:5 20:5 21:5 22:1 23:4 24:5 25:1 26:5 27:1 28:1 29:3 30:3 31:1 32:1 33:5 
1 2:20 4:100 5:1 8:1 15:7 16:1 17:5 18:4 19:4 20:4 21:4 22:3 23:4 24:4 25:1 26:3 27:3 28:1 29:4 30:3 31:3 32:5 33:3 
1 2:30 3:3 4:100 6:1 10:1 15:9 16:4 17:3 18:3 19:3 20:4 21:4 22:3 23:3 24:3 25:2 26:2 27:4 28:2 29:2 30:2 31:4 32:4 33:4 
1 2:20 4:100 6:1 10:1 15:10 16:2 17:3 18:5 19:5 20:4 21:3 22:5 23:4 24:4 25:4 26:4 27:4 28:3 29:3 30:3 31:5 32:4 33:5 
1 2:30 3:2 4:100 5:1 10:1 15:9 16:3 17:5 18:5 19:4 20:4 21:4 22:5 23:3 24:3 25:5 26:3 27:3 28:4 29:3 30:3 31:5 32:5 33:4 
1 2:16 4:100 6:1 10:1 15:10 16:1 17:4 18:5 19:5 20:5 21:5 22:4 23:4 24:3 25:5 26:5 27:1 28:1 29:1 30:2 31:2 32:5 33:5 
1 2:40 3:1 4:100 6:1 9:1 15:6 16:5 17:4 18:5 19:4 20:4 21:4 22:5 23:5 24:5 25:5 26:5 27:5 28:5 29:4 30:4 31:5 32:5 33:5 
1 2:30 3:1 4:100 6:1 12:1 15:7 16:1 17:3 18:5 19:5 20:5 21:5 22:5 23:3 24:5 25:5 26:3 27:3 28:5 29:4 30:4 31:4 32:4 33:3 
1 2:40 3:3 4:100 6:1 10:1 15:6 16:3 17:4 18:5 19:5 20:3 21:3 22:3 23:3 24:5 25:1 26:3 27:1 28:1 29:1 30:1 31:3 32:4 33:3 
1 2:20 4:100 6:1 11:1 15:7 16:4 17:2 18:3 19:5 20:4 21:3 22:1 23:3 24:3 25:1 26:1 27:1 28:2 29:2 30:2 31:1 32:1 33:3 
1 2:50 4:100 6:1 11:1 15:8 16:4 17:1 18:4 19:4 20:4 21:3 22:5 23:4 24:4 25:4 26:3 27:3 28:3 29:3 30:3 31:5 32:5 33:5 
1 2:20 3:2 4:100 6:1 10:1 15:8 16:5 17:4 18:5 19:5 20:4 21:2 22:5 23:4 24:3 25:4 26:3 27:3 28:4 29:1 30:1 31:2 32:4 33:5 
1 2:25 3:2 4:100 5:1 8:1 15:9 16:4 17:5 18:5 19:5 20:5 21:4 22:5 23:3 24:3 25:3 26:4 27:4 28:4 29:2 30:2 31:3 32:4 33:4 
1 2:30 3:3 4:100 6:1 8:1 15:10 16:5 17:5 18:5 19:5 20:5 21:2 22:5 23:2 24:5 25:2 26:5 27:4 28:4 29:2 30:2 31:3 32:5 33:4 
-0.10694438113613743 2:50 3:5 4:150 6:1 13:1 15:9 16:1 17:1 18:4 19:1 20:5 21:3 22:4 23:4 24:3 25:2 26:4 27:4 28:3 29:4 30:2 31:1 32:1 33:3 
-0.16347513160783442 2:40 3:3 4:250 7:1 14:1 15:5 16:4 17:4 18:5 19:4 20:3 21:1 22:2 23:4 24:5 25:1 26:1 27:1 28:2 29:5 30:4 31:5 32:5 33:5 
-0.62565926412268968 2:30 3:3 4:150 5:1 11:1 15:8 16:1 17:5 18:4 19:5 20:5 21:5 22:5 23:3 24:5 25:1 26:1 27:2 28:2 29:3 30:3 31:3 32:4 33:4 
-0.096412491177024509 2:30 3:4 4:125 7:1 12:1 15:4 16:4 17:4 18:4 19:4 20:4 21:3 22:4 23:4 24:4 25:3 26:3 27:3 28:4 29:4 30:3 31:1 32:2 33:3 
-0.045436137883621948 2:25 4:250 5:1 8:1 15:7 16:5 17:5 18:5 19:3 20:4 21:3 22:2 23:3 24:5 25:1 26:3 27:4 28:4 29:5 30:4 31:4 32:4 33:5 
-0.2777067633947593 2:20 3:1 4:125 5:1 10:1 15:10 16:1 17:5 18:3 19:2 20:3 21:2 22:3 23:3 24:4 25:1 26:2 27:1 28:1 29:5 30:4 31:2 32:3 33:3 
-0.14580437303559007 2:20 4:150 5:1 11:1 15:7 16:1 17:5 18:5 19:1 20:3 21:1 22:5 23:5 24:1 25:1 26:4 27:1 28:5 29:5 30:5 31:5 32:5 33:5 
-0.037619394345506908 2:40 3:1 4:150 5:1 14:1 15:10 16:5 17:5 18:5 19:5 20:5 21:5 22:5 23:5 24:5 25:4 26:5 27:5 28:5 29:5 30:5 31:5 32:5 33:5 
-0.64048469740889979 2:25 4:125 5:1 10:1 15:8 16:3 17:4 18:5 19:5 20:5 21:4 22:4 23:5 24:5 25:3 26:4 27:5 28:4 29:4 30:4 31:4 32:4 33:5 
-0.37819078853181504 2:30 3:5 4:150 5:1 10:1 15:8 16:3 17:4 18:5 19:5 20:5 21:4 22:5 23:5 24:5 25:4 26:4 27:4 28:4 29:4 30:4 31:4 32:5 33:5 
-0.093222858258681707 2:25 3:4 4:150 5:1 9:1 15:9 16:4 17:5 18:5 19:5 20:5 21:4 22:5 23:5 24:5 25:4 26:5 27:5 28:5 29:5 30:5 31:4 32:4 33:5 
-0.25244669323224611 2:40 3:3 4:125 5:1 9:1 15:8 16:3 17:4 18:4 19:4 20:5 21:4 22:5 23:5 24:5 25:3 26:4 27:4 28:4 29:4 30:4 31:4 32:4 33:5 
-0.032187930993672911 2:50 3:5 4:250 5:1 14:1 15:10 16:3 17:4 18:5 19:3 20:5 21:4 22:5 23:5 24:5 25:4 26:4 27:4 28:5 29:5 30:5 31:5 32:5 33:5 
-0.01433621154941038 2:50 3:4 4:250 6:1 11:1 15:8 16:3 17:4 18:5 19:5 20:5 21:4 22:4 23:5 24:4 25:5 26:4 27:5 28:5 29:4 30:4 31:4 32:4 33:4 
-0.61392463086049776 2:25 3:4 4:125 5:1 12:1 15:9 16:4 17:5 18:5 19:5 20:4 21:4 22:5 23:5 24:4 25:4 26:4 27:4 28:4 29:5 30:4 31:4 32:5 33:4 
-1 2:20 4:125 5:1 10:1 15:8 16:4 17:5 18:5 19:5 20:4 21:4 22:4 23:5 24:5 25:4 26:5 27:4 28:4 29:4 30:4 31:4 32:5 33:4 
-0.08036142079820556 2:25 4:150 5:1 9:1 15:9 16:4 17:5 18:5 19:5 20:4 21:4 22:4 23:5 24:5 25:4 26:4 27:4 28:5 29:4 30:4 31:4 32:4 33:5 
-0.024312788684477282 2:50 3:4 4:250 5:1 10:1 15:9 16:5 17:5 18:4 19:5 20:5 21:4 22:4 23:5 24:4 25:4 26:4 27:5 28:5 29:5 30:2 31:4 32:4 33:5 
-0.17813966070286374 2:30 3:1 4:250 5:1 9:1 15:8 16:5 17:5 18:5 19:5 20:4 21:4 22:4 23:5 24:5 25:3 26:5 27:4 28:5 29:3 30:5 31:4 32:5 33:5 
-0.00079500012689692756 2:25 3:2 4:250 6:1 10:1 15:8 16:5 17:4 18:5 19:5 20:5 21:4 22:4 23:5 24:5 25:3 26:5 27:5 28:4 29:4 30:4 31:4 32:3 33:5 
-0.085086816458971454 2:40 3:4 4:250 6:1 12:1 15:9 16:5 17:4 18:4 19:5 20:5 21:4 22:5 23:5 24:4 25:3 26:3 27:3 28:5 29:5 30:5 31:5 32:5 33:5 
-0.22160207440944316 2:25 3:5 4:125 6:1 11:1 15:8 16:4 17:5 18:4 19:5 20:5 21:3 22:5 23:5 24:4 25:3 26:4 27:3 28:5 29:4 30:4 31:4 32:5 33:5 
-0.10990673058174844 2:16 4:125 6:1 14:1 15:5 16:1 17:3 18:4 19:4 20:3 21:1 22:3 23:5 24:5 25:1 26:3 27:1 28:4 29:4 30:5 31:1 32:2 33:4 
-0.39459977419034864 2:40 3:4 4:125 5:1 10:1 15:9 16:5 17:5 18:4 19:5 20:5 21:4 22:5 23:5 24:4 25:3 26:2 27:4 28:5 29:5 30:4 31:4 32:5 33:5 
-0.020125877046493754 2:50 3:5 4:250 6:1 11:1 15:10 16:4 17:4 18:5 19:5 20:5 21:4 22:5 23:5 24:5 25:2 26:3 27:5 28:5 29:5 30:5 31:5 32:5 33:5 
-0.72739002773062711 2:40 3:3 4:125 5:1 10:1 15:8 16:5 17:3 18:5 19:3 20:4 21:4 22:5 23:4 24:5 25:2 26:5 27:5 28:4 29:5 30:5 31:5 32:5 33:5 
-0.15279454278182514 2:40 3:3 4:125 6:1 12:1 15:6 16:1 17:1 18:4 19:1 20:1 21:1 22:1 23:2 24:4 25:1 26:1 27:3 28:2 29:2 30:3 31:5 32:2 33:5 
-0.059253541839107811 2:40 3:4 4:150 5:1 12:1 15:10 16:1 17:5 18:5 19:2 20:5 21:5 22:4 23:5 24:5 25:1 26:5 27:3 28:2 29:5 30:5 31:5 32:5 33:5 
-0.6568152727258908 2:30 3:3 4:250 6:1 11:1 15:10 16:5 17:4 18:5 19:5 20:5 21:5 22:5 23:5 24:3 25:5 26:5 27:5 28:3 29:5 30:5 31:4 32:4 33:5 
-0.24278815800737527 2:30 3:3 4:250 7:1 9:1 15:9 16:4 17:4 18:5 19:5 20:5 21:5 22:5 23:5 24:4 25:3 26:4 27:5 28:5 29:5 30:5 31:4 32:4 33:5 
-0.023194787747462906 2:40 3:3 4:150 6:1 9:1 15:8 16:5 17:5 18:5 19:5 20:5 21:5 22:5 23:5 24:5 25:2 26:3 27:5 28:5 29:3 30:5 31:4 32:5 33:5 
-0.44286300432201142 2:25 3:3 4:125 6:1 9:1 15:8 16:3 17:5 18:5 19:5 20:5 21:5 22:5 23:5 24:4 25:2 26:3 27:4 28:3 29:5 30:4 31:4 32:4 33:5 
-0.06414103991706141 2:50 3:5 4:250 5:1 12:1 15:8 16:4 17:4 18:3 19:4 20:4 21:2 22:3 23:4 24:4 25:2 26:2 27:5 28:4 29:4 30:4 31:5 32:4 33:4 
-0.070573615451959462 2:40 3:3 4:125 5:1 9:1 15:8 16:2 17:5 18:5 19:2 20:5 21:5 22:4 23:5 24:5 25:2 26:4 27:4 28:4 29:5 30:3 31:5 32:4 33:5 
-0.55656402560508533 2:30 3:3 4:150 5:1 9:1 15:10 16:4 17:4 18:5 19:5 20:3 21:1 22:3 23:4 24:4 25:1 26:3 27:4 28:4 29:4 30:4 31:5 32:5 33:5 
-0.26643793797682547 2:25 3:5 4:125 5:1 11:1 15:7 16:1 17:4 18:1 19:5 20:3 21:1 22:5 23:4 24:4 25:1 26:2 27:1 28:5 29:5 30:1 31:3 32:1 33:4 
-0.083471271882378892 2:25 4:150 5:1 9:1 15:5 16:4 17:4 18:2 19:5 20:3 21:2 22:3 23:3 24:3 25:1 26:1 27:3 28:3 29:2 30:1 31:4 32:2 33:2 
-0.30189963648871121 2:25 3:5 4:250 5:1 10:1 15:9 16:5 17:5 18:5 19:5 20:5 21:4 22:5 23:5 24:5 25:2 26:3 27:5 28:5 29:5 30:3 31:5 32:5 33:5 
-0.18001055120966319 2:30 3:4 4:250 5:1 12:1 15:9 16:1 17:3 18:4 19:4 20:5 21:3 22:3 23:4 24:5 25:5 26:3 27:3 28:3 29:2 30:2 31:1 32:1 33:4 
-0.15361315170471515 2:40 3:3 4:250 5:1 10:1 15:8 16:4 17:4 18:4 19:3 20:5 21:4 22:5 23:5 24:5 25:2 26:4 27:2 28:2 29:4 30:4 31:2 32:3 33:5 
-0.28360442464259367 2:30 3:4 4:250 6:1 10:1 15:9 16:3 17:5 18:3 19:2 20:3 21:5 22:2 23:3 24:5 25:4 26:3 27:5 28:4 29:5 30:3 31:5 32:3 33:5 
-0.18288685185441475 2:40 3:5 4:250 5:1 9:1 15:9 16:1 17:4 18:5 19:3 20:5 21:2 22:2 23:4 24:5 25:2 26:5 27:2 28:4 29:2 30:2 31:4 32:2 33:4 
-0.47483787433249325 2:20 4:125 5:1 12:1 15:8 16:3 17:2 18:4 19:4 20:4 21:4 22:5 23:4 24:4 25:2 26:4 27:3 28:2 29:4 30:3 31:2 32:4 33:4 
-0.12528716695263503 2:16 4:125 5:1 9:1 15:8 16:1 17:5 18:5 19:4 20:4 21:4 22:5 23:5 24:5 25:5 26:5 27:1 28:5 29:5 30:5 31:1 32:5 33:5 
-0.073132018001589222 2:40 3:3 4:250 5:1 9:1 15:10 16:5 17:5 18:5 19:5 20:5 21:5 22:5 23:5 24:5 25:1 26:5 27:5 28:5 29:5 30:5 31:3 32:3 33:4 
-0.040454081569386492 2:25 3:2 4:250 5:1 11:1 15:8 16:3 17:4 18:3 19:5 20:5 21:2 22:4 23:5 24:5 25:4 26:3 27:4 28:5 29:5 30:5 31:5 32:5 33:5 
-0.48642672056828662 2:30 3:5 4:150 5:1 9:1 15:8 16:2 17:4 18:5 19:5 20:4 21:4 22:4 23:5 24:4 25:4 26:5 27:4 28:4 29:4 30:3 31:3 32:5 33:5 
-0.74675602435190958 2:30 3:4 4:250 5:1 14:1 15:9 16:4 17:5 18:5 19:5 20:5 21:5 22:5 23:5 24:5 25:3 26:5 27:5 28:5 29:5 30:5 31:4 32:5 33:5 
-0.083407365640312925 2:30 3:2 4:250 6:1 10:1 15:10 16:1 17:5 18:5 19:1 20:5 21:2 22:2 23:5 24:5 25:5 26:5 27:5 28:1 29:5 30:5 31:3 32:3 33:4 
-0.094674078946614462 2:30 3:3 4:125 6:1 11:1 15:7 16:5 17:5 18:4 19:5 20:4 21:3 22:4 23:4 24:4 25:1 26:1 27:1 28:4 29:5 30:4 31:1 32:1 33:3 
-0.022494547855338672 2:30 3:2 4:250 6:1 14:1 15:10 16:5 17:5 18:5 19:3 20:5 21:5 22:5 23:5 24:5 25:1 26:1 27:5 28:3 29:5 30:5 31:5 32:5 33:5 
-0.1138996903834996 2:30 3:2 4:125 6:1 11:1 15:8 16:5 17:4 18:4 19:5 20:5 21:3 22:5 23:5 24:5 25:1 26:3 27:4 28:5 29:5 30:5 31:5 32:5 33:5 
-0.30894352228990507 2:30 3:5 4:150 6:1 11:1 15:7 16:2 17:3 18:3 19:5 20:5 21:3 22:3 23:3 24:4 25:2 26:2 27:3 28:3 29:5 30:3 31:3 32:3 33:3 
-0.011670867278284425 2:30 3:2 4:250 6:1 11:1 15:9 16:1 17:5 18:5 19:1 20:5 21:5 22:4 23:5 24:4 25:1 26:1 27:2 28:5 29:4 30:3 31:2 32:2 33:3 
-0.045212109579373036 2:30 3:2 4:250 6:1 9:1 15:8 16:2 17:4 18:5 19:2 20:4 21:3 22:4 23:2 24:5 25:1 26:2 27:2 28:3 29:4 30:3 31:4 32:3 33:4 
-0.88724364654507171 2:30 3:3 4:250 5:1 12:1 15:9 16:3 17:5 18:4 19:4 20:5 21:5 22:3 23:4 24:4 25:4 26:2 27:4 28:4 29:4 30:4 31:5 32:4 33:5 
-0.58249189161757131 2:18 4:125 6:1 12:1 15:9 16:2 17:3 18:4 19:5 20:5 21:4 22:4 23:5 24:3 25:2 26:3 27:3 28:4 29:5 30:5 31:3 32:4 33:4 
-0.77498272668547863 2:20 3:5 4:125 6:1 11:1 15:8 16:5 17:5 18:5 19:5 20:4 21:4 22:5 23:4 24:5 25:3 26:4 27:5 28:5 29:5 30:4 31:5 32:5 33:5 
-0.36187803614154795 2:25 3:2 4:250 6:1 12:1 15:7 16:3 17:4 18:4 19:4 20:4 21:3 22:5 23:5 24:4 25:3 26:3 27:3 28:4 29:4 30:4 31:4 32:5 33:5 
-0.078061759100197581 2:50 3:5 4:125 6:1 9:1 15:8 16:5 17:4 18:4 19:5 20:5 21:5 22:4 23:5 24:4 25:1 26:3 27:1 28:4 29:4 30:4 31:1 32:2 33:3 
-0.23539367304277631 2:20 4:150 5:1 10:1 15:8 16:2 17:4 18:4 19:3 20:5 21:4 22:4 23:5 24:4 25:3 26:3 27:4 28:4 29:4 30:4 31:3 32:5 33:5 
-0.041067580005600866 2:50 3:5 4:150 6:1 12:1 15:9 16:3 17:5 18:5 19:5 20:4 21:4 22:4 23:5 24:5 25:3 26:4 27:4 28:4 29:4 30:4 31:4 32:4 33:4 
-0.39891271895443087 2:30 3:3 4:250 6:1 10:1 15:9 16:4 17:5 18:5 19:5 20:5 21:5 22:5 23:3 24:5 25:3 26:4 27:4 28:4 29:3 30:3 31:2 32:5 33:5 
-0.81088435261652303 2:25 3:2 4:125 6:1 9:1 15:10 16:5 17:5 18:5 19:5 20:5 21:4 22:5 23:3 24:5 25:2 26:4 27:4 28:4 29:2 30:2 31:3 32:5 33:5 
-0.15550286158012822 2:25 3:3 4:150 5:1 9:1 15:7 16:4 17:4 18:5 19:5 20:4 21:4 22:5 23:4 24:4 25:2 26:4 27:4 28:4 29:2 30:3 31:2 32:5 33:5 
-0.071311063023987153 2:50 3:3 4:125 5:1 8:1 15:8 16:3 17:4 18:5 19:5 20:5 21:4 22:5 23:2 24:5 25:2 26:3 27:3 28:3 29:2 30:2 31:3 32:5 33:5 
-0.20275437110848404 2:30 3:3 4:250 5:1 10:1 15:10 16:4 17:5 18:5 19:5 20:5 21:4 22:5 23:2 24:5 25:2 26:3 27:3 28:4 29:2 30:2 31:3 32:5 33:5 
-0.99223158110648557 2:18 4:125 6:1 10:1 15:10 16:5 17:5 18:5 19:5 20:5 21:4 22:4 23:4 24:4 25:3 26:4 27:4 28:4 29:3 30:3 31:3 32:4 33:4 
-0.047861815259004209 2:50 4:250 6:1 10:1 15:8 16:5 17:5 18:5 19:3 20:5 21:4 22:5 23:3 24:5 25:3 26:4 27:4 28:4 29:5 30:5 31:2 32:4 33:5 
-0.077327281318028407 2:30 3:2 4:150 5:1 11:1 15:6 16:1 17:1 18:1 19:5 20:1 21:1 22:1 23:1 24:5 25:1 26:1 27:1 28:1 29:5 30:1 31:5 32:5 33:5 
-0.1167232570335543 2:30 3:2 4:125 5:1 9:1 15:10 16:1 17:2 18:4 19:5 20:4 21:4 22:4 23:3 24:5 25:5 26:3 27:2 28:2 29:5 30:3 31:1 32:4 33:5 
-0.33954318288321916 2:30 3:3 4:150 7:1 12:1 15:8 16:2 17:5 18:4 19:2 20:5 21:5 22:3 23:4 24:4 25:2 26:3 27:1 28:3 29:4 30:4 31:4 32:5 33:5 
-0.051211215076004457 2:30 3:2 4:250 5:1 9:1 15:8 16:1 17:1 18:3 19:1 20:5 21:4 22:1 23:5 24:5 25:1 26:3 27:5 28:5 29:5 30:5 31:5 32:5 33:5 
-0.054051980198463467 2:40 3:2 4:150 6:1 9:1 15:7 16:1 17:5 18:5 19:5 20:5 21:5 22:4 23:4 24:5 25:5 26:5 27:4 28:5 29:5 30:5 31:5 32:5 33:5 
-0.46753020230459474 2:25 4:125 5:1 8:1 15:8 16:2 17:3 18:5 19:3 20:4 21:4 22:3 23:4 24:4 25:4 26:4 27:4 28:4 29:5 30:5 31:4 32:4 33:5 
-0.064122839584855151 2:50 3:1 4:250 6:1 8:1 15:8 16:3 17:3 18:4 19:5 20:5 21:3 22:4 23:4 24:5 25:3 26:4 27:2 28:2 29:4 30:4 31:1 32:4 33:5 
-0.62389168156032515 2:20 3:1 4:125 5:1 12:1 15:9 16:3 17:4 18:5 19:5 20:5 21:5 22:3 23:3 24:5 25:2 26:4 27:4 28:5 29:5 30:3 31:3 32:5 33:5 
-0.65441797061592855 2:40 3:2 4:250 5:1 12:1 15:9 16:4 17:5 18:5 19:3 20:4 21:4 22:4 23:4 24:4 25:4 26:4 27:4 28:4 29:2 30:3 31:2 32:3 33:5 
-0.051108061343988577 2:40 3:2 4:250 6:1 9:1 15:10 16:5 17:5 18:5 19:4 20:5 21:5 22:3 23:5 24:5 25:5 26:2 27:2 28:4 29:5 30:5 31:5 32:5 33:5 
-0.030893966542658212 2:40 3:4 4:150 5:1 10:1 15:8 16:2 17:2 18:5 19:5 20:4 21:5 22:5 23:5 24:3 25:5 26:4 27:5 28:5 29:4 30:4 31:5 32:5 33:5 
-0.83317858365084951 2:30 3:2 4:150 5:1 10:1 15:8 16:4 17:4 18:4 19:4 20:4 21:4 22:4 23:5 24:4 25:2 26:3 27:4 28:4 29:4 30:4 31:4 32:4 33:5 
-0.043724943383498797 2:40 3:4 4:150 5:1 9:1 15:9 16:2 17:2 18:4 19:3 20:4 21:5 22:5 23:5 24:4 25:2 26:2 27:2 28:4 29:5 30:2 31:4 32:5 33:5 
-0.86688449325636152 2:25 3:1 4:125 6:1 12:1 15:8 16:4 17:3 18:4 19:3 20:4 21:3 22:4 23:4 24:3 25:2 26:3 27:4 28:4 29:3 30:3 31:4 32:3 33:4 
-0.34561909921026129 2:30 3:3 4:250 5:1 12:1 15:10 16:3 17:4 18:5 19:4 20:4 21:3 22:5 23:4 24:3 25:2 26:3 27:4 28:3 29:5 30:3 31:4 32:5 33:4 
-0.12189761008194361 2:30 3:2 4:150 5:1 11:1 15:8 16:3 17:4 18:4 19:3 20:4 21:3 22:5 23:5 24:3 25:2 26:5 27:2 28:2 29:5 30:3 31:3 32:4 33:4 
-0.091728554476381327 2:20 3:2 4:150 5:1 9:1 15:6 16:1 17:5 18:1 19:1 20:3 21:3 22:2 23:4 24:5 25:1 26:1 27:2 28:3 29:4 30:4 31:2 32:4 33:3 
-0.31244711823733462 2:20 4:250 6:1 10:1 15:10 16:1 17:3 18:5 19:1 20:5 21:5 22:5 23:5 24:5 25:1 26:3 27:2 28:2 29:5 30:5 31:1 32:5 33:5 
-0.42701745819257264 2:30 3:3 4:125 6:1 10:1 15:8 16:5 17:3 18:5 19:5 20:5 21:5 22:5 23:4 24:4 25:1 26:5 27:1 28:4 29:4 30:4 31:1 32:4 33:5 
-0.22662368393421178 2:40 3:2 4:250 6:1 9:1 15:8 16:1 17:4 18:5 19:1 20:3 21:5 22:3 23:3 24:4 25:2 26:5 27:2 28:4 29:4 30:5 31:5 32:5 33:5 
-0.070150770712552546 2:40 3:3 4:150 7:1 9:1 15:8 16:5 17:5 18:5 19:2 20:3 21:3 22:4 23:5 24:5 25:1 26:4 27:1 28:3 29:5 30:5 31:1 32:5 33:5 
-0.061306966808279059 2:30 3:3 4:150 6:1 9:1 15:10 16:5 17:4 18:4 19:4 20:5 21:5 22:5 23:5 24:5 25:3 26:5 27:5 28:5 29:5 30:5 31:1 32:5 33:5 
-0.17960770716057317 2:20 3:1 4:125 5:1 9:1 15:9 16:1 17:1 18:5 19:5 20:5 21:5 22:4 23:3 24:5 25:1 26:1 27:1 28:5 29:5 30:5 31:2 32:5 33:5 
-0.031459255311652112 2:40 3:3 4:250 7:1 9:1 15:8 16:5 17:5 18:5 19:5 20:5 21:5 22:5 23:5 24:5 25:2 26:5 27:4 28:5 29:5 30:5 31:2 32:5 33:5 
-0.11860312379026502 2:30 3:2 4:125 5:1 9:1 15:9 16:5 17:5 18:4 19:3 20:4 21:2 22:5 23:4 24:5 25:1 26:1 27:4 28:5 29:5 30:4 31:3 32:4 33:5 
-0.067413959735473386 2:30 3:2 4:125 5:1 12:1 15:5 16:2 17:3 18:5 19:3 20:1 21:1 22:3 23:4 24:5 25:4 26:3 27:4 28:5 29:5 30:1 31:5 32:5 33:5 
-0.053183689962325593 2:50 3:4 4:125 6:1 11:1 15:8 16:3 17:3 18:4 19:3 20:3 21:3 22:4 23:2 24:4 25:3 26:2 27:3 28:4 29:4 30:4 31:4 32:4 33:4 
-0.15577094856580342 2:30 3:2 4:125 5:1 9:1 15:8 16:1 17:5 18:5 19:5 20:4 21:5 22:5 23:3 24:3 25:3 26:4 27:5 28:2 29:5 30:2 31:5 32:5 33:3 
-0.45548339615764294 2:40 3:4 4:125 6:1 8:1 15:8 16:4 17:5 18:4 19:5 20:5 21:4 22:5 23:4 24:5 25:5 26:3 27:4 28:4 29:3 30:4 31:4 32:4 33:4 
-0.34687014143139822 2:20 3:2 4:150 6:1 8:1 15:8 16:3 17:4 18:5 19:4 20:4 21:3 22:2 23:4 24:3 25:3 26:2 27:3 28:4 29:2 30:3 31:3 32:4 33:3 
-0.29722587639304343 2:40 3:4 4:250 6:1 9:1 15:9 16:2 17:3 18:4 19:2 20:3 21:1 22:2 23:2 24:3 25:3 26:4 27:3 28:2 29:4 30:1 31:1 32:1 33:4 
-0.031501005713535778 2:20 4:125 5:1 9:1 15:10 16:2 17:3 18:5 19:1 20:3 21:2 22:3 23:4 24:5 25:2 26:4 27:4 28:2 29:5 30:5 31:2 32:3 33:4 
-0.39359626033491746 2:25 3:1 4:125 5:1 10:1 15:8 16:5 17:5 18:5 19:5 20:5 21:2 22:3 23:2 24:4 25:2 26:1 27:1 28:2 29:5 30:1 31:2 32:2 33:4 
-0.40019414508124901 2:20 4:125 5:1 12:1 15:8 16:2 17:5 18:5 19:5 20:4 21:2 22:4 23:3 24:3 25:1 26:1 27:3 28:2 29:5 30:2 31:2 32:3 33:4 
-0.0052997983479297619 2:40 3:3 4:150 5:1 9:1 15:8 16:4 17:5 18:5 19:4 20:4 21:4 22:3 23:5 24:5 25:4 26:4 27:4 28:5 29:2 30:4 31:5 32:4 33:5 
-0.11219702065211962 2:40 3:3 4:125 5:1 8:1 15:7 16:4 17:4 18:3 19:2 20:4 21:3 22:4 23:5 24:3 25:5 26:4 27:3 28:2 29:4 30:4 31:2 32:4 33:4 
-0.062838203950299903 2:30 3:5 4:125 5:1 11:1 15:7 16:2 17:2 18:3 19:5 20:4 21:4 22:4 23:5 24:3 25:2 26:1 27:1 28:4 29:5 30:4 31:3 32:4 33:5 
-0.083650425679597851 2:25 3:4 4:150 5:1 9:1 15:7 16:4 17:4 18:5 19:5 20:5 21:1 22:5 23:3 24:5 25:3 26:3 27:4 28:4 29:4 30:4 31:5 32:5 33:5 
-0.054454332153876996 2:50 3:5 4:125 5:1 9:1 15:8 16:4 17:5 18:5 19:5 20:5 21:1 22:4 23:4 24:4 25:3 26:4 27:4 28:3 29:5 30:5 31:4 32:5 33:5 
-0.060369717903878177 2:30 3:3 4:250 5:1 9:1 15:7 16:3 17:5 18:5 19:3 20:5 21:5 22:5 23:5 24:5 25:1 26:5 27:3 28:5 29:5 30:5 31:1 32:5 33:5 
-0.30096721394598047 2:40 3:4 4:125 5:1 10:1 15:10 16:4 17:4 18:4 19:5 20:4 21:2 22:5 23:5 24:4 25:3 26:4 27:2 28:2 29:3 30:3 31:1 32:4 33:5 
-0.062393979814314271 2:50 4:150 6:1 9:1 15:8 16:5 17:4 18:4 19:5 20:4 21:4 22:5 23:5 24:4 25:4 26:4 27:5 28:4 29:5 30:4 31:5 32:4 33:5 
-0.066149734215256217 2:50 3:5 4:125 6:1 12:1 15:8 16:5 17:5 18:5 19:5 20:5 21:5 22:4 23:5 24:4 25:4 26:5 27:5 28:5 29:5 30:5 31:5 32:4 33:4 
-0.1899586723937966 2:30 3:1 4:125 5:1 12:1 15:10 16:5 17:5 18:3 19:5 20:5 21:4 22:4 23:5 24:3 25:3 26:3 27:4 28:5 29:5 30:5 31:5 32:3 33:4 
-0.42710403485684861 2:20 3:1 4:250 6:1 14:1 15:8 16:4 17:4 18:5 19:4 20:4 21:3 22:4 23:4 24:4 25:5 26:4 27:4 28:5 29:4 30:5 31:4 32:3 33:4 
-0.016660996249019403 2:50 3:2 4:150 5:1 14:1 15:8 16:4 17:5 18:4 19:4 20:5 21:3 22:4 23:4 24:5 25:3 26:5 27:4 28:4 29:5 30:5 31:5 32:5 33:4 
-0.084146581336304177 2:40 3:4 4:150 5:1 9:1 15:7 16:4 17:2 18:2 19:4 20:5 21:5 22:4 23:4 24:2 25:1 26:4 27:4 28:1 29:3 30:4 31:5 32:4 33:5 
-0.066590537576019446 2:50 4:150 6:1 14:1 15:8 16:2 17:5 18:5 19:2 20:4 21:5 22:3 23:4 24:5 25:3 26:4 27:4 28:2 29:4 30:4 31:3 32:3 33:4 
-1 2:30 3:3 4:150 6:1 11:1 15:9 16:4 17:4 18:4 19:4 20:5 21:5 22:4 23:5 24:5 25:4 26:4 27:5 28:5 29:4 30:4 31:5 32:5 33:5 
-0.17841372665358893 2:40 3:5 4:250 5:1 9:1 15:6 16:1 17:3 18:5 19:2 20:2 21:5 22:3 23:5 24:5 25:1 26:5 27:5 28:3 29:5 30:3 31:3 32:2 33:4 
-0.032335623089912842 2:40 3:3 4:150 5:1 9:1 15:10 16:5 17:5 18:5 19:5 20:5 21:4 22:5 23:5 24:5 25:1 26:5 27:5 28:5 29:5 30:5 31:5 32:4 33:5 
-0.45572850281957761 2:25 3:3 4:125 6:1 9:1 15:8 16:3 17:3 18:5 19:4 20:5 21:5 22:4 23:5 24:5 25:3 26:5 27:5 28:5 29:2 30:4 31:5 32:5 33:5 
-0.03523794372017601 2:30 3:2 4:125 5:1 11:1 15:6 16:2 17:5 18:4 19:5 20:4 21:5 22:5 23:5 24:5 25:4 26:3 27:1 28:5 29:4 30:4 31:5 32:5 33:5 
-0.10616018359071747 2:30 3:1 4:150 6:1 10:1 15:8 16:2 17:5 18:4 19:4 20:5 21:3 22:5 23:4 24:5 25:5 26:4 27:3 28:3 29:4 30:4 31:3 32:4 33:4 
-0.58905708407480928 2:20 4:125 5:1 8:1 15:8 16:4 17:3 18:4 19:3 20:4 21:4 22:4 23:2 24:2 25:1 26:2 27:2 28:2 29:4 30:4 31:4 32:4 33:4 
-0.049830571283104148 2:50 3:3 4:250 5:1 12:1 15:9 16:5 17:5 18:5 19:4 20:5 21:5 22:5 23:4 24:5 25:1 26:5 27:1 28:5 29:5 30:5 31:4 32:5 33:5 
-0.045476857239348578 2:50 3:3 4:150 6:1 9:1 15:7 16:3 17:5 18:5 19:5 20:5 21:3 22:5 23:5 24:5 25:1 26:3 27:4 28:4 29:4 30:5 31:4 32:5 33:5 
-0.11918317155099556 2:40 3:1 4:250 5:1 9:1 15:8 16:4 17:5 18:5 19:5 20:5 21:3 22:4 23:4 24:5 25:3 26:4 27:4 28:4 29:5 30:5 31:4 32:5 33:5 
-0.018275803258615265 2:50 4:250 6:1 12:1 15:9 16:4 17:4 18:4 19:4 20:4 21:2 22:5 23:4 24:4 25:3 26:4 27:4 28:4 29:4 30:4 31:4 32:4 33:4 
-0.32547947775647484 2:18 4:100 6:1 14:1 15:10 16:3 17:4 18:5 19:5 20:5 21:5 22:4 23:5 24:5 25:1 26:3 27:4 28:4 29:5 30:4 31:4 32:5 33:5 
-0.35552096737347155 2:18 4:100 6:1 10:1 15:9 16:4 17:4 18:4 19:5 20:4 21:4 22:5 23:5 24:4 25:4 26:5 27:4 28:4 29:4 30:4 31:5 32:5 33:5 
-1 2:30 3:3 4:100 6:1 12:1 15:9 16:1 17:4 18:5 19:5 20:5 21:5 22:5 23:3 24:5 25:5 26:5 27:3 28:5 29:4 30:4 31:4 32:2 33:4 
-0.39668904237171615 2:30 3:5 4:100 5:1 9:1 15:8 16:2 17:2 18:4 19:4 20:4 21:4 22:3 23:4 24:3 25:4 26:4 27:4 28:4 29:2 30:3 31:5 32:5 33:3 
-0.26032382991352659 2:30 3:2 4:100 5:1 9:1 15:9 16:5 17:4 18:5 19:4 20:5 21:4 22:3 23:4 24:4 25:4 26:4 27:4 28:4 29:5 30:5 31:4 32:4 33:5 
-0.61994035952946158 2:30 4:100 6:1 12:1 15:8 16:1 17:5 18:4 19:5 20:5 21:5 22:5 23:5 24:5 25:5 26:5 27:5 28:5 29:5 30:5 31:5 32:5 33:5 
-0.36708020932150354 2:20 4:100 7:1 11:1 15:8 16:5 17:4 18:5 19:5 20:5 21:5 22:5 23:5 24:4 25:4 26:2 27:4 28:4 29:2 30:2 31:5 32:5 33:4 
-0.16148469536071058 2:40 3:2 4:100 6:1 11:1 15:8 16:4 17:4 18:3 19:4 20:5 21:4 22:5 23:4 24:4 25:4 26:4 27:4 28:4 29:4 30:4 31:3 32:2 33:4 
-0.62357663342777714 2:30 3:1 4:100 5:1 10:1 15:8 16:4 17:4 18:5 19:5 20:5 21:5 22:4 23:4 24:4 25:5 26:5 27:5 28:5 29:2 30:2 31:5 32:5 33:3 
-0.55165106674093478 2:20 4:100 7:1 9:1 15:8 16:2 17:3 18:5 19:5 20:5 21:2 22:5 23:3 24:3 25:4 26:4 27:3 28:4 29:2 30:4 31:4 32:3 33:2 
-0.21971970971449689 2:25 3:1 4:100 6:1 9:1 15:10 16:4 17:3 18:5 19:5 20:4 21:3 22:4 23:3 24:5 25:3 26:3 27:3 28:4 29:4 30:4 31:1 32:4 33:4 
-0.061410074804046325 2:40 3:3 4:100 5:1 8:1 15:8 16:5 17:5 18:5 19:3 20:4 21:3 22:4 23:5 24:4 25:4 26:2 27:4 28:3 29:4 30:3 31:5 32:4 33:5 
-0.30255113116086729 2:30 3:3 4:100 5:1 10:1 15:7 16:2 17:4 18:4 19:4 20:3 21:1 22:4 23:3 24:2 25:4 26:3 27:3 28:3 29:2 30:2 31:4 32:3 33:3 
-0.083373737455124941 2:40 3:3 4:100 5:1 10:1 15:8 16:5 17:2 18:5 19:3 20:4 21:1 22:4 23:5 24:4 25:4 26:3 27:2 28:3 29:1 30:3 31:1 32:5 33:4 
-0.083012525349277097 2:30 3:1 4:100 5:1 10:1 15:10 16:2 17:4 18:4 19:4 20:2 21:1 22:4 23:4 24:4 25:4 26:4 27:1 28:2 29:4 30:2 31:1 32:5 33:5 
-0.12495140106978919 2:50 3:1 4:100 5:1 9:1 15:7 16:3 17:1 18:1 19:5 20:1 21:1 22:1 23:1 24:1 25:1 26:1 27:1 28:1 29:1 30:1 31:4 32:4 33:2 
-0.088711809807409434 2:40 3:2 4:100 5:1 12:1 15:9 16:3 17:1 18:5 19:4 20:4 21:3 22:5 23:5 24:5 25:5 26:4 27:5 28:4 29:1 30:4 31:4 32:5 33:4 
-0.64295193149626617 2:30 3:2 4:100 5:1 9:1 15:8 16:5 17:4 18:5 19:5 20:4 21:3 22:1 23:1 24:2 25:2 26:4 27:3 28:3 29:2 30:2 31:2 32:5 33:5 
-0.34259136688672831 2:30 3:1 4:100 5:1 10:1 15:10 16:5 17:5 18:5 19:5 20:4 21:4 22:4 23:5 24:5 25:5 26:4 27:5 28:3 29:4 30:4 31:5 32:5 33:5 
-0.30763191044912391 2:20 4:100 5:1 12:1 15:6 16:2 17:4 18:4 19:5 20:3 21:2 22:3 23:4 24:5 25:2 26:2 27:3 28:3 29:4 30:3 31:4 32:4 33:4 
-0.28261929865364638 2:30 3:2 4:125 6:1 10:1 15:8 16:5 17:4 18:5 19:5 20:5 21:4 22:5 23:4 24:5 25:4 26:5 27:5 28:5 29:4 30:4 31:5 32:5 33:5 
-0.071276625755720302 2:30 3:5 4:100 5:1 10:1 15:6 16:5 17:1 18:5 19:5 20:1 21:1 22:1 23:1 24:4 25:4 26:4 27:1 28:1 29:5 30:1 31:1 32:1 33:1 
-0.28377743613592732 2:30 3:1 4:100 5:1 12:1 15:7 16:5 17:5 18:5 19:5 20:5 21:5 22:5 23:5 24:5 25:5 26:1 27:1 28:5 29:5 30:3 31:5 32:5 33:5 
-0.51255819285691639 2:18 4:100 6:1 11:1 15:8 16:3 17:3 18:4 19:4 20:4 21:3 22:4 23:3 24:4 25:4 26:3 27:2 28:3 29:4 30:4 31:2 32:5 33:5 
-0.37481556184880904 2:25 3:1 4:100 7:1 10:1 15:9 16:4 17:3 18:4 19:4 20:3 21:2 22:4 23:4 24:4 25:2 26:3 27:2 28:2 29:2 30:2 31:1 32:2 33:4 
-0.35560215648809196 2:50 4:100 6:1 11:1 15:8 16:2 17:4 18:5 19:4 20:4 21:4 22:5 23:4 24:5 25:1 26:3 27:1 28:4 29:4 30:3 31:5 32:5 33:5 
-0.0591221320163672 2:40 3:3 4:100 5:1 11:1 15:9 16:5 17:5 18:3 19:5 20:3 21:3 22:5 23:4 24:3 25:5 26:3 27:5 28:3 29:3 30:3 31:5 32:5 33:5 
-0.043484795859982439 2:50 3:2 4:100 5:1 9:1 15:8 16:5 17:5 18:5 19:5 20:5 21:4 22:5 23:5 24:4 25:5 26:4 27:3 28:5 29:5 30:2 31:2 32:4 33:4 
-0.019876872543613932 2:20 3:2 4:100 6:1 11:1 15:8 16:3 17:5 18:5 19:5 20:5 21:5 22:4 23:4 24:5 25:4 26:4 27:3 28:4 29:3 30:4 31:5 32:5 33:5 
-0.14737135231916643 2:30 3:2 4:100 5:1 11:1 15:8 16:1 17:2 18:5 19:5 20:4 21:4 22:3 23:5 24:5 25:4 26:2 27:1 28:2 29:5 30:4 31:1 32:2 33:3 
-0.16567422902027185 2:20 4:100 5:1 14:1 15:9 16:5 17:5 18:5 19:5 20:4 21:3 22:5 23:5 24:5 25:5 26:5 27:1 28:3 29:3 30:3 31:4 32:5 33:5 
-0.28788769116015517 2:25 3:3 4:100 6:1 12:1 15:9 16:1 17:1 18:5 19:5 20:3 21:3 22:5 23:5 24:4 25:5 26:3 27:1 28:3 29:2 30:3 31:1 32:5 33:5 
-0.52663675867111248 2:20 3:1 4:100 5:1 12:1 15:8 16:3 17:5 18:5 19:5 20:4 21:4 22:3 23:4 24:5 25:3 26:3 27:3 28:3 29:3 30:3 31:1 32:5 33:5 
-0.14840160175884637 2:20 4:100 6:1 9:1 15:8 16:2 17:4 18:5 19:4 20:2 21:1 22:4 23:2 24:4 25:2 26:3 27:1 28:4 29:5 30:1 31:1 32:3 33:4 
-0.50079017901167955 2:20 4:100 5:1 10:1 15:8 16:4 17:4 18:5 19:5 20:3 21:3 22:4 23:5 24:2 25:5 26:1 27:1 28:2 29:2 30:2 31:1 32:4 33:4 
-0.012345513461244113 2:30 3:1 4:100 5:1 14:1 15:6 16:5 17:2 18:3 19:4 20:4 21:2 22:2 23:5 24:2 25:2 26:1 27:2 28:3 29:2 30:2 31:3 32:4 33:4 
-0.071482551745062101 2:30 3:2 4:100 7:1 9:1 15:7 16:3 17:2 18:4 19:4 20:3 21:2 22:2 23:2 24:3 25:2 26:3 27:3 28:3 29:3 30:3 31:4 32:4 33:4 
-0.42146474032881104 2:18 4:100 5:1 11:1 15:8 16:1 17:5 18:3 19:4 20:3 21:3 22:5 23:5 24:5 25:1 26:1 27:2 28:3 29:5 30:2 31:5 32:5 33:5 
-0.043539012429694518 2:40 3:3 4:100 5:1 9:1 15:7 16:5 17:3 18:4 19:5 20:5 21:3 22:5 23:5 24:4 25:2 26:2 27:5 28:3 29:4 30:3 31:5 32:5 33:5 
-0.36545142851489593 2:20 4:100 6:1 10:1 15:7 16:2 17:4 18:5 19:4 20:5 21:3 22:4 23:2 24:4 25:4 26:1 27:4 28:2 29:2 30:3 31:4 32:4 33:3 
-0.088084631243027955 2:18 4:100 6:1 9:1 15:8 16:3 17:4 18:5 19:4 20:4 21:5 22:3 23:4 24:5 25:3 26:3 27:4 28:3 29:4 30:4 31:5 32:5 33:5 
-0.1598313631649988 2:40 3:3 4:100 5:1 9:1 15:7 16:3 17:4 18:5 19:4 20:5 21:5 22:5 23:2 24:2 25:5 26:4 27:5 28:5 29:2 30:2 31:5 32:5 33:5 
-0.063655223182684739 2:50 3:1 4:100 5:1 8:1 15:9 16:5 17:5 18:5 19:5 20:4 21:4 22:4 23:5 24:5 25:5 26:5 27:4 28:4 29:3 30:4 31:5 32:4 33:4 
-0.26374136063386822 2:40 4:100 6:1 12:1 15:7 16:3 17:4 18:5 19:5 20:3 21:3 22:5 23:4 24:3 25:2 26:3 27:3 28:3 29:4 30:3 31:4 32:5 33:5 
-0.23873535798707102 2:30 3:5 4:100 5:1 11:1 15:9 16:5 17:5 18:5 19:5 20:4 21:2 22:5 23:5 24:5 25:1 26:1 27:1 28:5 29:5 30:2 31:3 32:5 33:5 
-0.078165325217779261 2:40 3:3 4:100 5:1 10:1 15:4 16:1 17:2 18:5 19:3 20:5 21:4 22:5 23:1 24:4 25:5 26:4 27:5 28:5 29:4 30:4 31:5 32:5 33:5 
-0.053420821730750613 2:30 3:4 4:100 5:1 11:1 15:2 16:1 17:3 18:4 19:5 20:5 21:5 22:5 23:5 24:1 25:5 26:5 27:5 28:5 29:4 30:5 31:5 32:5 33:5 
-0.16158568423184713 2:16 4:100 6:1 10:1 15:7 16:2 17:5 18:5 19:5 20:5 21:5 22:4 23:4 24:4 25:5 26:5 27:4 28:4 29:4 30:4 31:4 32:4 33:3 
-0.31002973348215523 2:25 3:4 4:100 5:1 11:1 15:7 16:4 17:3 18:5 19:5 20:4 21:4 22:2 23:2 24:3 25:1 26:1 27:2 28:1 29:3 30:1 31:5 32:4 33:5 
-0.16196095739363772 2:40 3:5 4:100 5:1 10:1 15:8 16:2 17:3 18:4 19:4 20:3 21:3 22:4 23:3 24:4 25:3 26:2 27:2 28:2 29:3 30:2 31:1 32:1 33:4 
-0.28915604609188145 2:40 3:4 4:100 6:1 12:1 15:7 16:4 17:4 18:5 19:4 20:5 21:3 22:4 23:5 24:5 25:4 26:3 27:3 28:3 29:3 30:3 31:4 32:5 33:5 
-0.12188229381241077 2:50 4:100 6:1 12:1 15:6 16:1 17:3 18:2 19:4 20:3 21:1 22:2 23:2 24:3 25:3 26:1 27:1 28:1 29:2 30:2 31:1 32:2 33:3 
-0.36911445627784534 2:40 3:3 4:100 6:1 11:1 15:7 16:3 17:4 18:5 19:5 20:3 21:2 22:5 23:3 24:4 25:3 26:4 27:2 28:2 29:3 30:2 31:1 32:3 33:4 
-0.096442849425122296 2:30 3:1 4:100 5:1 10:1 15:9 16:5 17:5 18:3 19:3 20:5 21:5 22:5 23:5 24:5 25:5 26:3 27:2 28:4 29:5 30:5 31:1 32:4 33:5 
-0.042717614785367897 2:30 3:4 4:100 7:1 12:1 15:7 16:4 17:4 18:4 19:5 20:4 21:2 22:2 23:4 24:2 25:4 26:2 27:4 28:4 29:4 30:2 31:4 32:4 33:4 
-0.25955121560656713 2:40 3:2 4:100 6:1 9:1 15:8 16:2 17:2 18:5 19:5 20:4 21:4 22:4 23:2 24:2 25:2 26:2 27:2 28:2 29:2 30:2 31:1 32:2 33:2 
-0.27938741001853701 2:30 3:2 4:100 5:1 11:1 15:6 16:4 17:3 18:4 19:4 20:4 21:4 22:4 23:4 24:3 25:1 26:3 27:4 28:4 29:4 30:2 31:4 32:4 33:4 
-0.017507889541232623 2:50 3:2 4:100 5:1 12:1 15:4 16:3 17:4 18:4 19:5 20:5 21:5 22:5 23:4 24:4 25:4 26:4 27:4 28:4 29:4 30:4 31:5 32:4 33:1 
-0.3568522951106477 2:25 3:2 4:100 5:1 9:1 15:7 16:2 17:4 18:5 19:5 20:4 21:4 22:5 23:4 24:4 25:4 26:4 27:4 28:4 29:4 30:4 31:5 32:5 33:5 
-0.16915581589563825 2:20 3:3 4:100 7:1 9:1 15:9 16:3 17:4 18:5 19:5 20:4 21:4 22:5 23:5 24:5 25:5 26:5 27:4 28:4 29:5 30:3 31:5 32:5 33:5 
-0.28182006768377027 2:40 3:2 4:100 5:1 11:1 15:9 16:3 17:4 18:5 19:5 20:5 21:4 22:3 23:4 24:4 25:4 26:5 27:5 28:4 29:4 30:4 31:5 32:5 33:5 
-0.1229969081200098 2:30 4:100 6:1 12:1 15:5 16:4 17:4 18:4 19:4 20:5 21:5 22:5 23:5 24:4 25:4 26:4 27:4 28:4 29:4 30:4 31:5 32:3 33:5 
-0.16720714587260854 2:50 4:100 6:1 12:1 15:6 16:4 17:4 18:4 19:4 20:4 21:4 22:5 23:5 24:5 25:4 26:5 27:5 28:5 29:4 30:4 31:5 32:3 33:5 
-0.2898520300374553 2:40 3:2 4:100 5:1 8:1 15:9 16:5 17:5 18:5 19:5 20:5 21:3 22:4 23:5 24:4 25:5 26:4 27:4 28:3 29:4 30:4 31:5 32:5 33:5 
-0.35254704746683774 2:50 3:2 4:100 5:1 11:1 15:7 16:4 17:4 18:3 19:4 20:5 21:3 22:4 23:4 24:5 25:5 26:4 27:4 28:4 29:3 30:3 31:5 32:5 33:4 
-0.087896214947583581 2:40 3:2 4:100 5:1 12:1 15:5 16:2 17:1 18:3 19:5 20:3 21:3 22:5 23:5 24:5 25:5 26:2 27:5 28:5 29:5 30:4 31:5 32:5 33:5 
-0.040693080849822809 2:30 3:1 4:100 5:1 10:1 15:8 16:1 17:1 18:4 19:5 20:4 21:2 22:2 23:4 24:5 25:3 26:4 27:4 28:4 29:2 30:2 31:1 32:5 33:5 
-0.010788986489541132 2:50 3:3 4:100 5:1 12:1 15:7 16:5 17:5 18:4 19:4 20:4 21:4 22:3 23:3 24:4 25:3 26:3 27:4 28:4 29:3 30:2 31:4 32:4 33:5 
-0.26415427634672772 2:25 4:100 6:1 10:1 15:8 16:4 17:5 18:5 19:4 20:4 21:4 22:2 23:4 24:4 25:3 26:4 27:5 28:2 29:3 30:3 31:1 32:2 33:4 
-0.043972709826937004 2:20 4:100 6:1 11:1 15:8 16:1 17:4 18:5 19:3 20:3 21:3 22:2 23:4 24:5 25:3 26:4 27:2 28:4 29:5 30:3 31:1 32:3 33:4 
-0.19547589915840097 2:20 4:100 6:1 10:1 15:8 16:1 17:4 18:4 19:4 20:5 21:5 22:4 23:4 24:4 25:5 26:5 27:4 28:3 29:5 30:5 31:4 32:4 33:1 
-0.033545984264999155 2:40 3:2 4:100 5:1 11:1 15:7 16:1 17:2 18:3 19:5 20:4 21:4 22:5 23:5 24:2 25:1 26:1 27:4 28:5 29:4 30:1 31:5 32:1 33:2 
-0.79191892355670912 2:30 3:1 4:100 5:1 10:1 15:9 16:2 17:3 18:5 19:3 20:3 21:2 22:5 23:4 24:4 25:4 26:4 27:4 28:4 29:3 30:2 31:4 32:5 33:5 
-0.13209360267987205 2:25 3:3 4:100 6:1 12:1 15:6 16:1 17:1 18:5 19:5 20:5 21:1 22:5 23:1 24:5 25:1 26:5 27:5 28:5 29:5 30:1 31:1 32:5 33:5 
-0.32936529124905767 2:30 3:2 4:100 5:1 8:1 15:8 16:4 17:1 18:5 19:5 20:4 21:2 22:5 23:3 24:4 25:1 26:2 27:2 28:3 29:1 30:1 31:1 32:2 33:3 
-0.39606865356252974 2:20 3:1 4:100 5:1 10:1 15:9 16:5 17:4 18:4 19:4 20:4 21:5 22:4 23:5 24:4 25:4 26:3 27:3 28:5 29:4 30:2 31:1 32:4 33:4 
-0.52944840109246549 2:20 4:100 6:1 10:1 15:8 16:2 17:3 18:4 19:5 20:4 21:2 22:4 23:5 24:4 25:4 26:2 27:2 28:4 29:3 30:4 31:1 32:3 33:5 
-0.07571955657307447 2:40 3:2 4:100 5:1 11:1 15:7 16:2 17:2 18:5 19:5 20:4 21:4 22:5 23:5 24:4 25:4 26:5 27:5 28:5 29:4 30:4 31:4 32:4 33:4 
-0.15819823058327681 2:40 3:2 4:100 6:1 11:1 15:7 16:1 17:4 18:3 19:5 20:4 21:3 22:3 23:1 24:3 25:3 26:1 27:2 28:2 29:3 30:3 31:1 32:5 33:5 
-0.46277961087423364 2:18 4:100 6:1 8:1 15:10 16:2 17:5 18:5 19:3 20:5 21:2 22:4 23:1 24:5 25:1 26:5 27:4 28:3 29:1 30:1 31:3 32:5 33:5 
