svm_type c_svc
kernel_type rbf
gamma 0.030303030303030304
nr_class 2
total_sv 100
rho 0.84142449976252176
label 1 -1
nr_sv 20 80
SV
1 2:25 3:2 4:125 5:1 8:1 15:8 16:5 17:3 18:5 19:4 20:5 21:4 22:4 23:3 24:4 25:5 26:4 27:5 28:4 29:3 30:3 31:3 32:4 33:4 
1 2:30 3:2 4:150 5:1 12:1 15:9 16:2 17:4 18:5 19:4 20:4 21:4 22:5 23:1 24:4 25:1 26:3 27:3 28:3 29:3 30:3 31:3 32:3 33:5 
1 2:30 3:2 4:125 5:1 12:1 15:10 16:5 17:4 18:4 19:4 20:5 21:5 22:4 23:3 24:4 25:1 26:3 27:3 28:3 29:3 30:3 31:2 32:3 33:5 
1 2:25 3:2 4:125 5:1 12:1 15:10 16:4 17:4 18:4 19:4 20:5 21:4 22:3 23:2 24:3 25:2 26:3 27:3 28:3 29:3 30:3 31:3 32:4 33:4 
1 2:30 3:2 4:250 5:1 10:1 15:10 16:2 17:3 18:3 19:3 20:5 21:4 22:2 23:4 24:3 25:1 26:2 27:3 28:3 29:3 30:3 31:2 32:4 33:5 
1 2:20 4:125 6:1 12:1 15:9 16:4 17:4 18:5 19:4 20:4 21:4 22:4 23:3 24:3 25:2 26:3 27:3 28:3 29:3 30:3 31:2 32:3 33:4 
1 2:25 3:4 4:150 6:1 13:1 15:10 16:3 17:5 18:4 19:4 20:5 21:5 22:4 23:5 24:4 25:3 26:3 27:3 28:5 29:5 30:5 31:1 32:4 33:5 
1 2:25 3:5 4:150 6:1 9:1 15:7 16:3 17:3 18:4 19:3 20:4 21:4 22:3 23:4 24:4 25:3 26:4 27:3 28:4 29:4 30:4 31:4 32:4 33:5 
1 2:20 4:125 6:1 10:1 15:9 16:5 17:5 18:4 19:5 20:4 21:3 22:5 23:4 24:4 25:4 26:4 27:4 28:4 29:4 30:4 31:4 32:4 33:5 
1 2:30 3:3 4:125 6:1 12:1 15:8 16:4 17:5 18:5 19:5 20:5 21:4 22:5 23:4 24:4 25:3 26:4 27:4 28:3 29:3 30:3 31:4 32:4 33:4 
1 2:18 4:125 6:1 8:1 15:9 16:3 17:5 18:5 19:5 20:5 21:4 22:5 23:5 24:4 25:4 26:5 27:5 28:5 29:4 30:3 31:3 32:4 33:4 
1 2:18 4:125 6:1 8:1 15:9 16:4 17:5 18:5 19:5 20:5 21:5 22:5 23:5 24:4 25:4 26:4 27:4 28:4 29:4 30:4 31:4 32:4 33:5 
1 2:16 4:125 6:1 12:1 15:10 16:2 17:5 18:5 19:2 20:5 21:3 22:4 23:5 24:3 25:5 26:5 27:2 28:4 29:2 30:1 31:3 32:4 33:4 
1 2:25 4:150 5:1 9:1 15:10 16:2 17:5 18:3 19:4 20:5 21:4 22:4 23:5 24:3 25:5 26:4 27:4 28:4 29:3 30:3 31:4 32:4 33:5 
1 2:25 3:1 4:125 6:1 8:1 15:9 16:2 17:5 18:4 19:4 20:4 21:4 22:4 23:4 24:4 25:3 26:4 27:4 28:4 29:5 30:4 31:4 32:4 33:4 
1 2:18 4:125 6:1 12:1 15:8 16:3 17:4 18:5 19:3 20:4 21:4 22:5 23:4 24:2 25:2 26:3 27:2 28:3 29:2 30:3 31:2 32:3 33:3 
1 2:18 4:125 5:1 9:1 15:9 16:4 17:4 18:4 19:5 20:5 21:4 22:5 23:4 24:4 25:4 26:4 27:5 28:4 29:4 30:4 31:5 32:4 33:4 
1 2:25 3:5 4:150 5:1 8:1 15:10 16:5 17:4 18:5 19:5 20:5 21:4 22:4 23:5 24:5 25:4 26:5 27:4 28:5 29:4 30:4 31:5 32:4 33:5 
1 2:25 3:3 4:150 5:1 10:1 15:8 16:4 17:5 18:5 19:5 20:4 21:4 22:4 23:2 24:4 25:3 26:4 27:4 28:4 29:2 30:2 31:4 32:4 33:5 
1 2:40 4:150 6:1 13:1 15:8 16:4 17:4 18:5 19:3 20:5 21:1 22:4 23:5 24:5 25:2 26:5 27:3 28:5 29:3 30:3 31:1 32:3 33:5 
-0.23698872649393449 2:30 3:3 4:150 5:1 9:1 15:10 16:4 17:4 18:5 19:3 20:4 21:4 22:4 23:4 24:5 25:2 26:3 27:5 28:5 29:5 30:5 31:4 32:5 33:5 
-0.18909622490482134 2:25 3:2 4:150 5:1 10:1 15:8 16:2 17:4 18:5 19:4 20:4 21:4 22:3 23:4 24:4 25:3 26:2 27:2 28:4 29:5 30:3 31:1 32:4 33:5 
-0.58260598531534546 2:30 3:1 4:125 5:1 9:1 15:8 16:4 17:4 18:4 19:4 20:3 21:2 22:4 23:5 24:4 25:2 26:2 27:4 28:4 29:3 30:2 31:2 32:3 33:4 
-0.031360906889659465 2:40 3:3 4:250 5:1 9:1 15:9 16:3 17:3 18:4 19:4 20:4 21:2 22:3 23:4 24:5 25:3 26:4 27:4 28:4 29:5 30:5 31:5 32:5 33:5 
-0.046042358450924505 2:30 3:4 4:250 5:1 11:1 15:9 16:5 17:3 18:4 19:3 20:4 21:4 22:4 23:5 24:4 25:4 26:3 27:3 28:4 29:4 30:4 31:5 32:5 33:5 
-0.058085462795028138 2:25 3:3 4:250 5:1 10:1 15:7 16:3 17:3 18:5 19:5 20:5 21:4 22:3 23:5 24:4 25:3 26:3 27:3 28:3 29:5 30:5 31:5 32:5 33:4 
-0.40583353393169536 2:25 3:2 4:150 5:1 12:1 15:9 16:1 17:5 18:5 19:3 20:5 21:3 22:3 23:5 24:4 25:5 26:4 27:3 28:3 29:3 30:2 31:4 32:5 33:5 
-0.034001656298314725 2:50 3:4 4:250 5:1 9:1 15:9 16:3 17:4 18:4 19:5 20:5 21:3 22:5 23:5 24:5 25:3 26:4 27:3 28:3 29:5 30:5 31:3 32:3 33:5 
-0.26850931990372673 2:25 3:2 4:150 5:1 9:1 15:7 16:3 17:4 18:3 19:4 20:5 21:4 22:4 23:4 24:4 25:3 26:3 27:3 28:3 29:4 30:4 31:3 32:4 33:5 
-0.01155001778154118 2:20 3:2 4:125 5:1 10:1 15:8 16:2 17:5 18:4 19:5 20:4 21:2 22:4 23:5 24:5 25:1 26:4 27:3 28:3 29:5 30:5 31:3 32:3 33:5 
-0.84410904517055707 2:18 4:125 6:1 9:1 15:10 16:4 17:5 18:4 19:3 20:5 21:5 22:4 23:4 24:4 25:2 26:3 27:3 28:3 29:4 30:4 31:2 32:4 33:5 
-0.060519587935272436 2:40 3:4 4:250 6:1 9:1 15:10 16:1 17:4 18:4 19:4 20:5 21:5 22:5 23:5 24:5 25:4 26:4 27:3 28:5 29:5 30:5 31:4 32:4 33:5 
-0.10097949523296715 2:30 3:4 4:150 5:1 9:1 15:10 16:2 17:5 18:5 19:5 20:4 21:2 22:4 23:5 24:5 25:2 26:4 27:4 28:3 29:5 30:5 31:4 32:3 33:5 
-0.072341202202527599 2:50 3:4 4:250 6:1 12:1 15:10 16:4 17:4 18:4 19:3 20:5 21:5 22:4 23:4 24:3 25:2 26:1 27:2 28:4 29:4 30:4 31:3 32:4 33:5 
-0.080253192988014754 2:50 3:2 4:150 5:1 12:1 15:9 16:4 17:4 18:2 19:4 20:5 21:2 22:3 23:3 24:3 25:3 26:2 27:2 28:3 29:3 30:3 31:3 32:4 33:5 
-0.088945040781206783 2:40 3:2 4:150 5:1 12:1 15:7 16:3 17:2 18:2 19:4 20:4 21:4 22:3 23:3 24:3 25:1 26:2 27:3 28:3 29:3 30:3 31:3 32:3 33:4 
-0.34149059186700148 2:25 3:2 4:150 5:1 9:1 15:8 16:5 17:5 18:3 19:4 20:5 21:3 22:3 23:4 24:3 25:3 26:3 27:3 28:3 29:3 30:3 31:2 32:3 33:4 
-1 2:18 4:125 6:1 12:1 15:8 16:2 17:4 18:4 19:3 20:4 21:4 22:4 23:5 24:4 25:2 26:3 27:3 28:3 29:3 30:3 31:2 32:3 33:4 
-0.029777507712504286 2:50 3:5 4:250 5:1 12:1 15:10 16:3 17:5 18:4 19:3 20:5 21:4 22:4 23:3 24:3 25:3 26:3 27:3 28:3 29:3 30:4 31:3 32:4 33:5 
-0.26352116295331701 2:30 3:5 4:150 5:1 9:1 15:9 16:4 17:5 18:3 19:1 20:5 21:5 22:4 23:4 24:4 25:3 26:3 27:3 28:3 29:4 30:4 31:2 32:3 33:4 
-0.41704660801858462 2:25 3:3 4:125 6:1 9:1 15:5 16:4 17:4 18:4 19:5 20:4 21:2 22:2 23:4 24:4 25:1 26:2 27:2 28:3 29:3 30:3 31:2 32:4 33:4 
-0.17821313389801755 2:25 3:1 4:150 6:1 12:1 15:7 16:1 17:3 18:3 19:5 20:3 21:2 22:3 23:3 24:4 25:2 26:2 27:2 28:2 29:2 30:2 31:4 32:3 33:4 
-0.15009299681472796 2:40 3:3 4:125 6:1 8:1 15:7 16:1 17:3 18:5 19:1 20:4 21:3 22:1 23:3 24:5 25:1 26:5 27:3 28:3 29:1 30:1 31:3 32:3 33:4 
-0.26673260948186261 2:40 3:2 4:150 6:1 10:1 15:8 16:3 17:3 18:3 19:4 20:4 21:4 22:5 23:5 24:4 25:3 26:3 27:3 28:4 29:4 30:4 31:3 32:4 33:5 
-0.0158255550473765 2:25 3:2 4:250 5:1 8:1 15:9 16:3 17:4 18:4 19:3 20:4 21:4 22:4 23:4 24:4 25:2 26:4 27:3 28:4 29:4 30:4 31:3 32:3 33:4 
-0.79539383010846854 2:30 3:4 4:125 5:1 9:1 15:8 16:4 17:3 18:4 19:4 20:4 21:3 22:4 23:4 24:4 25:3 26:4 27:4 28:4 29:3 30:3 31:4 32:4 33:4 
-0.1647160986277322 2:30 3:2 4:250 6:1 8:1 15:10 16:3 17:4 18:5 19:2 20:5 21:5 22:3 23:4 24:5 25:2 26:5 27:3 28:2 29:4 30:2 31:2 32:2 33:4 
-0.31810114527829531 2:18 4:125 6:1 11:1 15:6 16:1 17:2 18:3 19:4 20:4 21:2 22:3 23:3 24:4 25:2 26:2 27:2 28:3 29:1 30:1 31:2 32:2 33:2 
-0.063841528791201918 2:16 4:125 6:1 12:1 15:8 16:3 17:3 18:4 19:5 20:3 21:2 22:1 23:4 24:3 25:2 26:2 27:1 28:3 29:3 30:4 31:3 32:2 33:4 
-0.07560977754305051 2:50 3:4 4:150 5:1 11:1 15:8 16:2 17:4 18:4 19:4 20:4 21:3 22:5 23:4 24:4 25:2 26:2 27:2 28:2 29:3 30:3 31:2 32:4 33:5 
-0.044647473414578864 2:40 3:4 4:250 5:1 12:1 15:8 16:3 17:4 18:2 19:3 20:3 21:3 22:2 23:4 24:4 25:3 26:4 27:2 28:2 29:3 30:3 31:3 32:4 33:3 
-0.11110885540734183 2:40 3:2 4:250 5:1 9:1 15:9 16:2 17:4 18:3 19:3 20:4 21:3 22:2 23:3 24:3 25:2 26:2 27:1 28:2 29:3 30:2 31:3 32:2 33:3 
-0.066274324487760383 2:50 3:3 4:250 6:1 9:1 15:8 16:2 17:4 18:4 19:5 20:5 21:4 22:3 23:5 24:5 25:5 26:4 27:5 28:5 29:5 30:5 31:4 32:5 33:5 
-0.28430575988464113 2:25 3:3 4:150 5:1 9:1 15:9 16:3 17:4 18:3 19:4 20:2 21:3 22:3 23:2 24:4 25:4 26:2 27:3 28:3 29:4 30:3 31:3 32:2 33:3 
-1 2:25 3:2 4:125 5:1 14:1 15:7 16:4 17:5 18:4 19:5 20:4 21:4 22:4 23:5 24:5 25:4 26:4 27:3 28:5 29:4 30:4 31:4 32:3 33:4 
-0.037048417060814409 2:40 3:2 4:250 5:1 10:1 15:7 16:3 17:4 18:3 19:5 20:4 21:4 22:3 23:5 24:4 25:4 26:4 27:5 28:4 29:3 30:4 31:3 32:4 33:4 
-0.26797377346769335 2:30 3:4 4:150 6:1 10:1 15:9 16:1 17:5 18:5 19:5 20:5 21:4 22:5 23:5 24:5 25:1 26:5 27:2 28:5 29:5 30:5 31:3 32:5 33:5 
-0.29782578191105008 2:30 3:3 4:125 6:1 11:1 15:10 16:5 17:5 18:5 19:5 20:5 21:4 22:5 23:5 24:5 25:4 26:5 27:5 28:5 29:4 30:4 31:5 32:5 33:5 
-0.10954937427643188 2:25 3:1 4:150 5:1 11:1 15:8 16:4 17:4 18:5 19:5 20:5 21:5 22:4 23:5 24:4 25:4 26:4 27:4 28:4 29:5 30:5 31:4 32:5 33:5 
-0.096453992534805605 2:30 3:3 4:150 6:1 10:1 15:8 16:4 17:4 18:4 19:5 20:4 21:3 22:4 23:4 24:5 25:4 26:4 27:4 28:4 29:4 30:4 31:4 32:4 33:4 
-0.058867247533019182 2:40 3:4 4:250 5:1 9:1 15:9 16:4 17:5 18:5 19:5 20:5 21:4 22:5 23:5 24:5 25:4 26:5 27:5 28:4 29:5 30:5 31:5 32:5 33:5 
-0.080831689403364076 2:25 3:3 4:125 6:1 8:1 15:7 16:1 17:5 18:5 19:5 20:5 21:5 22:4 23:5 24:5 25:5 26:5 27:3 28:4 29:5 30:5 31:3 32:5 33:5 
-0.27495174133423811 2:30 3:3 4:250 5:1 9:1 15:8 16:3 17:4 18:4 19:4 20:5 21:4 22:3 23:4 24:4 25:3 26:3 27:3 28:3 29:4 30:3 31:3 32:4 33:4 
-0.045963621193929986 2:30 4:150 5:1 10:1 15:8 16:3 17:4 18:4 19:5 20:5 21:4 22:4 23:4 24:3 25:4 26:3 27:4 28:4 29:5 30:5 31:4 32:3 33:4 
-0.34285448291178167 2:30 3:5 4:125 6:1 10:1 15:8 16:4 17:5 18:5 19:5 20:5 21:5 22:5 23:5 24:5 25:4 26:4 27:3 28:3 29:4 30:4 31:3 32:4 33:5 
-0.19359284931687229 2:30 3:1 4:150 5:1 12:1 15:9 16:4 17:5 18:5 19:5 20:5 21:5 22:4 23:5 24:5 25:3 26:3 27:3 28:4 29:4 30:4 31:4 32:4 33:4 
-0.03323361290547721 2:25 4:250 6:1 12:1 15:9 16:4 17:5 18:5 19:4 20:5 21:5 22:4 23:4 24:4 25:4 26:4 27:3 28:4 29:4 30:4 31:3 32:4 33:5 
-0.024723895740509594 2:25 3:4 4:250 6:1 11:1 15:10 16:3 17:4 18:4 19:4 20:5 21:5 22:5 23:5 24:5 25:4 26:4 27:4 28:4 29:5 30:5 31:5 32:4 33:5 
-0.33025100513379896 2:25 3:4 4:125 6:1 11:1 15:8 16:3 17:5 18:5 19:4 20:5 21:5 22:5 23:5 24:5 25:5 26:5 27:5 28:4 29:5 30:5 31:4 32:4 33:4 
-0.8415767004425122 2:18 4:125 6:1 9:1 15:10 16:2 17:5 18:4 19:3 20:5 21:4 22:4 23:5 24:4 25:4 26:5 27:4 28:4 29:4 30:4 31:4 32:5 33:5 
-0.57936841930764849 2:25 3:3 4:125 5:1 10:1 15:10 16:2 17:5 18:4 19:3 20:5 21:3 22:4 23:5 24:5 25:5 26:4 27:4 28:4 29:5 30:5 31:4 32:4 33:5 
-1 2:25 3:5 4:150 5:1 8:1 15:9 16:3 17:4 18:5 19:4 20:5 21:5 22:4 23:5 24:5 25:5 26:4 27:5 28:4 29:5 30:5 31:4 32:5 33:5 
-0.067440962948735542 2:50 3:4 4:150 5:1 9:1 15:10 16:3 17:4 18:4 19:4 20:5 21:4 22:4 23:5 24:5 25:5 26:4 27:4 28:3 29:4 30:4 31:4 32:5 33:5 
-0.050380774314419979 2:30 3:3 4:250 6:1 8:1 15:10 16:5 17:5 18:4 19:3 20:5 21:4 22:4 23:5 24:5 25:1 26:5 27:5 28:2 29:5 30:5 31:3 32:4 33:5 
-0.23818095097302933 2:30 3:3 4:250 5:1 8:1 15:8 16:2 17:4 18:3 19:3 20:4 21:4 22:3 23:4 24:4 25:3 26:4 27:4 28:3 29:3 30:4 31:2 32:3 33:4 
-0.033587142943419399 2:25 3:2 4:150 5:1 12:1 15:9 16:3 17:4 18:4 19:3 20:3 21:3 22:4 23:5 24:5 25:4 26:5 27:4 28:4 29:4 30:5 31:3 32:3 33:4 
-0.095682099930374603 2:16 3:1 4:250 6:1 14:1 15:8 16:1 17:4 18:4 19:4 20:4 21:4 22:4 23:4 24:4 25:3 26:4 27:3 28:3 29:3 30:4 31:2 32:3 33:4 
-1 2:18 4:125 6:1 8:1 15:9 16:4 17:4 18:5 19:5 20:4 21:3 22:4 23:4 24:4 25:3 26:5 27:3 28:4 29:4 30:4 31:4 32:4 33:5 
-0.17284835083263522 2:40 3:3 4:150 5:1 9:1 15:6 16:4 17:4 18:5 19:5 20:5 21:4 22:4 23:4 24:3 25:4 26:5 27:4 28:4 29:4 30:4 31:4 32:3 33:4 
-1 2:18 4:125 5:1 8:1 15:10 16:4 17:5 18:5 19:4 20:4 21:5 22:5 23:5 24:4 25:4 26:4 27:4 28:5 29:4 30:4 31:4 32:5 33:4 
-0.72880409129997825 2:16 4:125 5:1 9:1 15:8 16:4 17:5 18:4 19:4 20:5 21:4 22:4 23:4 24:5 25:4 26:4 27:4 28:5 29:4 30:4 31:4 32:4 33:4 
-0.07938556801878914 2:50 3:2 4:150 5:1 9:1 15:7 16:5 17:4 18:4 19:5 20:4 21:4 22:4 23:4 24:5 25:4 26:4 27:4 28:4 29:4 30:5 31:4 32:5 33:4 
-0.45578751905166176 2:25 3:2 4:150 5:1 8:1 15:6 16:4 17:4 18:4 19:5 20:4 21:4 22:4 23:4 24:4 25:4 26:4 27:4 28:4 29:4 30:4 31:5 32:4 33:4 
-0.081651326081181461 2:20 4:150 6:1 9:1 15:7 16:4 17:4 18:4 19:4 20:4 21:4 22:5 23:4 24:4 25:4 26:4 27:4 28:4 29:4 30:4 31:4 32:4 33:4 
-0.055769019175112948 2:50 3:5 4:250 6:1 14:1 15:8 16:5 17:4 18:5 19:4 20:5 21:4 22:4 23:5 24:4 25:4 26:4 27:4 28:5 29:4 30:4 31:5 32:4 33:4 
-0.17321466576402503 2:30 3:3 4:125 5:1 10:1 15:8 16:5 17:5 18:5 19:5 20:5 21:5 22:5 23:5 24:4 25:4 26:4 27:5 28:4 29:5 30:5 31:4 32:4 33:5 
-0.011001114692610579 2:30 3:5 4:150 5:1 10:1 15:10 16:3 17:5 18:5 19:4 20:5 21:5 22:5 23:4 24:5 25:5 26:5 27:5 28:5 29:5 30:5 31:4 32:4 33:5 
-0.039488023453676635 2:40 3:2 4:250 5:1 12:1 15:9 16:4 17:5 18:4 19:4 20:5 21:5 22:4 23:5 24:4 25:4 26:4 27:4 28:4 29:4 30:4 31:2 32:2 33:5 
-0.11200053629933769 2:20 4:150 6:1 13:1 15:8 16:4 17:5 18:5 19:4 20:5 21:4 22:5 23:5 24:5 25:5 26:5 27:4 28:4 29:5 30:5 31:3 32:4 33:5 
-0.17357074131366107 2:40 3:2 4:150 6:1 8:1 15:8 16:1 17:5 18:4 19:3 20:3 21:3 22:4 23:4 24:4 25:1 26:3 27:3 28:3 29:5 30:3 31:4 32:4 33:4 
-0.14114006512904712 2:40 3:3 4:125 5:1 9:1 15:8 16:4 17:5 18:5 19:5 20:5 21:5 22:5 23:4 24:5 25:5 26:5 27:5 28:4 29:4 30:4 31:5 32:5 33:5 
-0.096736100121503243 2:50 3:1 4:250 5:1 8:1 15:10 16:2 17:5 18:5 19:3 20:5 21:5 22:5 23:5 24:5 25:2 26:5 27:5 28:5 29:3 30:3 31:2 32:4 33:5 
-0.44209186397966915 2:20 4:125 5:1 8:1 15:7 16:2 17:5 18:4 19:5 20:4 21:4 22:4 23:5 24:4 25:2 26:3 27:2 28:4 29:5 30:4 31:4 32:4 33:4 
-0.15617214836166357 2:50 3:4 4:125 6:1 13:1 15:8 16:4 17:4 18:4 19:5 20:5 21:2 22:4 23:5 24:3 25:3 26:2 27:2 28:3 29:3 30:3 31:3 32:4 33:5 
-0.050015220435938132 2:20 4:250 6:1 14:1 15:8 16:3 17:4 18:4 19:3 20:3 21:3 22:5 23:5 24:5 25:3 26:3 27:4 28:3 29:4 30:3 31:2 32:4 33:4 
-0.91040662456646948 2:25 3:3 4:150 5:1 10:1 15:9 16:3 17:4 18:4 19:4 20:4 21:3 22:5 23:5 24:4 25:4 26:4 27:3 28:4 29:3 30:3 31:2 32:4 33:5 
-0.013398833542321383 2:25 3:3 4:250 6:1 14:1 15:9 16:3 17:4 18:5 19:5 20:5 21:4 22:4 23:5 24:5 25:4 26:5 27:4 28:4 29:4 30:4 31:1 32:4 33:5 
-0.024030688674665696 2:18 4:250 6:1 14:1 15:8 16:3 17:4 18:5 19:4 20:5 21:4 22:4 23:5 24:5 25:4 26:4 27:5 28:4 29:4 30:4 31:1 32:4 33:5 
-0.069806453277510838 2:18 4:250 6:1 14:1 15:8 16:4 17:5 18:5 19:4 20:5 21:4 22:5 23:5 24:5 25:5 26:4 27:2 28:4 29:4 30:4 31:2 32:5 33:5 
-0.21442179393261571 2:30 3:2 4:250 5:1 9:1 15:9 16:1 17:5 18:5 19:2 20:4 21:3 22:3 23:3 24:3 25:1 26:4 27:3 28:4 29:4 30:4 31:5 32:3 33:5 
