svm_type c_svc
kernel_type rbf
gamma 0.030303030303030304
nr_class 7
total_sv 116
rho 0.089585634487760926 -0.29240182090804878 -0.71111531463553068 -0.82486918482828331 -0.58677791126777323 -0.75874411023849408 -0.49152100724317616 -0.77323450511516212 -0.77942290670335856 -0.5685030743702012 -0.73192533736694909 -0.52591512916479888 -0.52299319981499637 -0.40934084035895762 -0.54641405903114471 -0.27076588031841109 -0.24140304421525452 -0.27503290759604637 0.29332059073669969 -0.39884072078832222 -0.52285505332765947
label 25 30 40 50 20 18 16
nr_sv 31 30 18 13 7 12 5
SV
1 0.52355748275716674 0.1431364879113374 0.09903659176201518 1 0.37090802731837114 2:1 3:2 4:125 5:1 8:1 15:8 16:5 17:3 18:5 19:4 20:5 21:4 22:4 23:3 24:4 25:5 26:4 27:5 28:4 29:3 30:3 31:3 32:4 33:4 
0.50593421073250877 0.53381195085420419 0.089747148709234392 0 0 0 3:2 4:150 5:1 10:1 15:8 16:2 17:4 18:5 19:4 20:4 21:4 22:3 23:4 24:4 25:3 26:2 27:2 28:4 29:5 30:3 31:1 32:4 33:5 
1 1 1 0.092665346410646277 0.25685238060126975 0.13828927942498759 3:3 4:250 5:1 10:1 15:7 16:3 17:3 18:5 19:5 20:5 21:4 22:3 23:5 24:4 25:3 26:3 27:3 28:3 29:5 30:5 31:5 32:5 33:4 
0.25983298720717796 0.35984373198486158 0.25803435169010602 0 0.094550129427126817 0.054712287172288897 3:2 4:150 5:1 12:1 15:9 16:1 17:5 18:5 19:3 20:5 21:3 22:3 23:5 24:4 25:5 26:4 27:3 28:3 29:3 30:2 31:4 32:5 33:5 
0.15765627584128 0.64021838964854971 0.88121832408732259 0 0 0 3:2 4:150 5:1 9:1 15:7 16:3 17:4 18:3 19:4 20:5 21:4 22:4 23:4 24:4 25:3 26:3 27:3 28:3 29:4 30:4 31:3 32:4 33:5 
1 0.4163763414918486 0.34217627722589383 0.84807516611195011 1 0.48642292195002834 2:1 3:2 4:125 5:1 12:1 15:10 16:4 17:4 18:4 19:4 20:5 21:4 22:3 23:2 24:3 25:2 26:3 27:3 28:3 29:3 30:3 31:3 32:4 33:4 
0.32039614824782803 0.25642799487788659 0.69381418619951152 0.038260289308770692 0.01169186020438465 0.0062414558384951257 3:2 4:150 5:1 9:1 15:8 16:5 17:5 18:3 19:4 20:5 21:3 22:3 23:4 24:3 25:3 26:3 27:3 28:3 29:3 30:3 31:2 32:3 33:4 
1 0.61325451309755596 0.57222531817076228 0.48599859392764688 0.69716285034875092 0.51420487766983114 3:3 4:125 6:1 9:1 15:5 16:4 17:4 18:4 19:5 20:4 21:2 22:2 23:4 24:4 25:1 26:2 27:2 28:3 29:3 30:3 31:2 32:4 33:4 
0.78428722116606986 1 0.46117795572585907 0.12193499381327498 0.24819905654456409 0.14517133497089046 3:1 4:150 6:1 12:1 15:7 16:1 17:3 18:3 19:5 20:3 21:2 22:3 23:3 24:4 25:2 26:2 27:2 28:2 29:2 30:2 31:4 32:3 33:4 
1 0.36048002021945119 0.10898036464732001 0.039782759265234113 0.13969990116679754 0.082025566417198076 2:1 3:4 4:150 6:1 13:1 15:10 16:3 17:5 18:4 19:4 20:5 21:5 22:4 23:5 24:4 25:3 26:3 27:3 28:5 29:5 30:5 31:1 32:4 33:5 
1 1 1 0.4108372396295758 0.10003371434380598 0.46385911774379646 3:2 4:250 5:1 8:1 15:9 16:3 17:4 18:4 19:3 20:4 21:4 22:4 23:4 24:4 25:2 26:4 27:3 28:4 29:4 30:4 31:3 32:3 33:4 
0.73711961395870784 0.86386048422826767 0.4773211179650762 0 0.053118017367001752 0.030594426098508598 2:1 3:5 4:150 6:1 9:1 15:7 16:3 17:3 18:4 19:3 20:4 21:4 22:3 23:4 24:4 25:3 26:4 27:3 28:4 29:4 30:4 31:4 32:4 33:5 
0.7817520310387317 0.35129106259422543 0.48172106523663333 0.0035061951992963881 0.14229817967573252 0.08281344477694462 3:3 4:150 5:1 9:1 15:9 16:3 17:4 18:3 19:4 20:2 21:3 22:3 23:2 24:4 25:4 26:2 27:3 28:3 29:4 30:3 31:3 32:2 33:3 
1 0.20442257534325797 0.16066524541681962 0.95641822034045709 1 0.49763714835641076 3:2 4:125 5:1 14:1 15:7 16:4 17:5 18:4 19:5 20:4 21:4 22:4 23:5 24:5 25:4 26:4 27:3 28:5 29:4 30:4 31:4 32:3 33:4 
1 0 0.26189901481823685 0.53984986967831194 0 0 3:1 4:150 5:1 11:1 15:8 16:4 17:4 18:5 19:5 20:5 21:5 22:4 23:5 24:4 25:4 26:4 27:4 28:4 29:5 30:5 31:4 32:5 33:5 
0.99645447872802639 0.34845634350727439 0.15138197805009937 0.079016609474171093 0.41803281850006646 0 3:3 4:125 6:1 8:1 15:7 16:1 17:5 18:5 19:5 20:5 21:5 22:4 23:5 24:5 25:5 26:5 27:3 28:4 29:5 30:5 31:3 32:5 33:5 
1 1 0.63176572251045182 0.28225797854859297 1 0.24180170772063711 4:250 6:1 12:1 15:9 16:4 17:5 18:5 19:4 20:5 21:5 22:4 23:4 24:4 25:4 26:4 27:3 28:4 29:4 30:4 31:3 32:4 33:5 
1 1 1 0 0 0 3:4 4:250 6:1 11:1 15:10 16:3 17:4 18:4 19:4 20:5 21:5 22:5 23:5 24:5 25:4 26:4 27:4 28:4 29:5 30:5 31:5 32:4 33:5 
1 0.64483486326501704 0.060825297345056588 0 0.11600763993981564 0 3:4 4:125 6:1 11:1 15:8 16:3 17:5 18:5 19:4 20:5 21:5 22:5 23:5 24:5 25:5 26:5 27:5 28:4 29:5 30:5 31:4 32:4 33:4 
1 0.29683055487970494 0.20790231442873602 0.14453128890195951 0.98000535733018046 0.26944478185029147 3:3 4:125 5:1 10:1 15:10 16:2 17:5 18:4 19:3 20:5 21:3 22:4 23:5 24:5 25:5 26:4 27:4 28:4 29:5 30:5 31:4 32:4 33:5 
0.60590840098058307 0.278449436527622 0 0.32714200392610265 0.12067095056277903 0.07091645989144417 2:1 4:150 5:1 9:1 15:10 16:2 17:5 18:3 19:4 20:5 21:4 22:4 23:5 24:3 25:5 26:4 27:4 28:4 29:3 30:3 31:4 32:4 33:5 
1 0.16466416197393857 0.53279317268099335 0 0.09608470308977303 0.055978333211627117 3:5 4:150 5:1 8:1 15:9 16:3 17:4 18:5 19:4 20:5 21:5 22:4 23:5 24:5 25:5 26:4 27:5 28:4 29:5 30:5 31:4 32:5 33:5 
1 0.039880747637702947 0 1 1 0.82581457967126937 2:1 3:1 4:125 6:1 8:1 15:9 16:2 17:5 18:4 19:4 20:4 21:4 22:4 23:4 24:4 25:3 26:4 27:4 28:4 29:5 30:4 31:4 32:4 33:4 
1 0.43398159025072569 0 0.31507977667682302 0 0 3:2 4:150 5:1 12:1 15:9 16:3 17:4 18:4 19:3 20:3 21:3 22:4 23:5 24:5 25:4 26:5 27:4 28:4 29:4 30:5 31:3 32:3 33:4 
0.2551625381478444 0.91934307747327171 0.16637485531744092 0.49047329498568831 0.009997911434684455 0.005992976561506734 3:2 4:150 5:1 8:1 15:6 16:4 17:4 18:4 19:5 20:4 21:4 22:4 23:4 24:4 25:4 26:4 27:4 28:4 29:4 30:4 31:5 32:4 33:4 
1 0.17691840159324873 0.35917556315033256 0 0.15053612095558594 0.088563796997430014 2:1 3:5 4:150 5:1 8:1 15:10 16:5 17:4 18:5 19:5 20:5 21:4 22:4 23:5 24:5 25:4 26:5 27:4 28:5 29:4 30:4 31:5 32:4 33:5 
1 1 1 0 0 0.10358519494618022 3:4 4:250 5:1 8:1 15:8 16:3 17:4 18:4 19:4 20:4 21:4 22:3 23:4 24:4 25:4 26:4 27:3 28:4 29:4 30:4 31:3 32:2 33:4 
1 0.34640152234944072 0.32149967727900614 0.0038132886450194152 0.073429338534457045 0.042870758472600988 2:1 3:3 4:150 5:1 10:1 15:8 16:4 17:5 18:5 19:5 20:4 21:4 22:4 23:2 24:4 25:3 26:4 27:4 28:4 29:2 30:2 31:4 32:4 33:5 
0 0 0.63616456143376976 0 0 0 3:3 4:150 5:1 10:1 15:9 16:3 17:4 18:4 19:4 20:4 21:3 22:5 23:5 24:4 25:4 26:4 27:3 28:4 29:3 30:3 31:2 32:4 33:5 
1 1 1 0.2155081188670579 0.97458536339166046 0.32154529959040618 3:3 4:250 6:1 14:1 15:9 16:3 17:4 18:5 19:5 20:5 21:4 22:4 23:5 24:5 25:4 26:5 27:4 28:4 29:4 30:4 31:1 32:4 33:5 
0.76279802490136639 0.68389166117686073 0 0.50581237452740568 0.17221035385786787 0.10060622334885547 4:150 5:1 11:1 15:8 16:4 17:4 18:5 19:5 20:4 21:4 22:5 23:5 24:5 25:3 26:4 27:3 28:4 29:5 30:4 31:1 32:4 33:5 
-1 0.39904971052418781 0.28923894005527223 0.046554527294703614 0.038931009892424845 0.023172483686390084 3:3 4:150 5:1 9:1 15:10 16:4 17:4 18:5 19:3 20:4 21:4 22:4 23:4 24:5 25:2 26:3 27:5 28:5 29:5 30:5 31:4 32:5 33:5 
-1 0.2805796228891872 0.32601480483596751 1 1 0.98761368977730024 3:1 4:125 5:1 9:1 15:8 16:4 17:4 18:4 19:4 20:3 21:2 22:4 23:5 24:4 25:2 26:2 27:4 28:4 29:3 30:2 31:2 32:3 33:4 
-0.8916196657805433 1 0.77087070461269358 0.13390986586456666 0.13767454915359953 0 3:4 4:250 5:1 11:1 15:9 16:5 17:3 18:4 19:3 20:4 21:4 22:4 23:5 24:4 25:4 26:3 27:3 28:4 29:4 30:4 31:5 32:5 33:5 
-1 1 0.84302019062149103 0.073222887100586775 0.22065494475261169 0.13690818875080568 2:1 3:2 4:150 5:1 12:1 15:9 16:2 17:4 18:5 19:4 20:4 21:4 22:5 23:1 24:4 25:1 26:3 27:3 28:3 29:3 30:3 31:3 32:3 33:5 
-1 0.22551875939884705 0.15681137653048738 0.77413598745240086 1 0.34851618551369729 2:1 3:2 4:125 5:1 12:1 15:10 16:5 17:4 18:4 19:4 20:5 21:5 22:4 23:3 24:4 25:1 26:3 27:3 28:3 29:3 30:3 31:2 32:3 33:5 
-1 0.48196693158445275 0.33689710572094772 0 0.086150906079937944 0.054318311131382024 3:4 4:150 5:1 9:1 15:10 16:2 17:5 18:5 19:5 20:4 21:2 22:4 23:5 24:5 25:2 26:4 27:4 28:3 29:5 30:5 31:4 32:3 33:5 
-0.45493710539565385 0.56965931712316897 0.50300471378828726 0.17739547846624498 0.26429710521465954 0.21858012004513777 2:1 3:2 4:250 5:1 10:1 15:10 16:2 17:3 18:3 19:3 20:5 21:4 22:2 23:4 24:3 25:1 26:2 27:3 28:3 29:3 30:3 31:2 32:4 33:5 
-1 0.73840746599214335 0.99676539859940028 0.10657114223459502 0.22979951551059982 0.14279631009927407 3:5 4:150 5:1 9:1 15:9 16:4 17:5 18:3 19:1 20:5 21:5 22:4 23:4 24:4 25:3 26:3 27:3 28:3 29:4 30:4 31:2 32:3 33:4 
-1 0.3814017400019275 0.28913661817800168 0 0.26035149841061311 0.1189834765611924 3:4 4:125 5:1 9:1 15:8 16:4 17:3 18:4 19:4 20:4 21:3 22:4 23:4 24:4 25:3 26:4 27:4 28:4 29:3 30:3 31:4 32:4 33:4 
-0.65103021524183102 0 0.19337904633974226 0.015186910256290109 0.14567774098620964 0.10323380956418948 3:2 4:250 6:1 8:1 15:10 16:3 17:4 18:5 19:2 20:5 21:5 22:3 23:4 24:5 25:2 26:5 27:3 28:2 29:4 30:2 31:2 32:2 33:4 
-0.7543592928556796 0.6366084186593709 0.17932808244285942 0.63515446779762841 0.67434815187660224 0.47870415350807721 3:1 4:250 6:1 9:1 15:8 16:2 17:4 18:4 19:2 20:4 21:3 22:4 23:4 24:5 25:3 26:4 27:3 28:4 29:4 30:3 31:2 32:2 33:4 
-1 0.71322549102023336 0.079951738402538192 0.080906744290936902 0.19562860532765367 0.12149551142379589 3:4 4:150 6:1 10:1 15:9 16:1 17:5 18:5 19:5 20:5 21:4 22:5 23:5 24:5 25:1 26:5 27:2 28:5 29:5 30:5 31:3 32:5 33:5 
-0.92674561720026971 0.53388926407161108 0.024649810483895813 0.1535680321884024 1 0.27612636022030868 3:3 4:125 6:1 11:1 15:10 16:5 17:5 18:5 19:5 20:5 21:4 22:5 23:5 24:5 25:4 26:5 27:5 28:5 29:4 30:4 31:5 32:5 33:5 
-1 0.083627334977592616 0.13662124456330246 0.76726363426705058 1 0.40807144854062949 2:1 3:3 4:125 6:1 12:1 15:8 16:4 17:5 18:5 19:5 20:5 21:4 22:5 23:4 24:4 25:3 26:4 27:4 28:3 29:3 30:3 31:4 32:4 33:4 
-1 1 1 0.5626473133675487 0 0 3:3 4:150 6:1 10:1 15:8 16:4 17:4 18:4 19:5 20:4 21:3 22:4 23:4 24:5 25:4 26:4 27:4 28:4 29:4 30:4 31:4 32:4 33:4 
-0.88729199497276456 1 0.82426825807515136 0 0.1612812600646433 0 3:3 4:250 5:1 9:1 15:8 16:3 17:4 18:4 19:4 20:5 21:4 22:3 23:4 24:4 25:3 26:3 27:3 28:3 29:4 30:3 31:3 32:4 33:4 
-1 1 0.35830262539351981 0.77932472500721073 0.20503593802343095 0.12710552401536518 4:150 5:1 10:1 15:8 16:3 17:4 18:4 19:5 20:5 21:4 22:4 23:4 24:3 25:4 26:3 27:4 28:4 29:5 30:5 31:4 32:3 33:4 
-1 1 0.90239081316891145 0.012052882340229609 0.024472907373835145 0.097627392297131438 3:5 4:250 5:1 12:1 15:8 16:4 17:4 18:5 19:5 20:5 21:5 22:4 23:5 24:5 25:5 26:4 27:4 28:4 29:5 30:5 31:5 32:5 33:5 
-0.87991990878212567 0.21507347469644875 0.3294474127243236 0 0 0 3:5 4:125 6:1 10:1 15:8 16:4 17:5 18:5 19:5 20:5 21:5 22:5 23:5 24:5 25:4 26:4 27:3 28:3 29:4 30:4 31:3 32:4 33:5 
-1 0.41758520837973095 0.64315955794411406 0.39434452016107785 0.0248421129103885 0.015270331157429354 3:1 4:150 5:1 12:1 15:9 16:4 17:5 18:5 19:5 20:5 21:5 22:4 23:5 24:5 25:3 26:3 27:3 28:4 29:4 30:4 31:4 32:4 33:4 
-0.75967491507071272 0.31538796520180223 0.28322725430125101 0.17233534885349272 0.16288696732260791 0.064327934010417948 3:3 4:250 6:1 8:1 15:10 16:5 17:5 18:4 19:3 20:5 21:4 22:4 23:5 24:5 25:1 26:5 27:5 28:2 29:5 30:5 31:3 32:4 33:5 
-0.0055040840093907358 1 0.47417948200389143 0 0 0 3:3 4:250 6:1 8:1 15:10 16:5 17:4 18:4 19:3 20:5 21:4 22:4 23:5 24:5 25:2 26:5 27:5 28:3 29:5 30:4 31:3 32:4 33:5 
-0.59392001251963533 0.94564270902914105 0.36083897994003888 0 0 0.29314141870705823 3:3 4:250 5:1 8:1 15:8 16:2 17:4 18:3 19:3 20:4 21:4 22:3 23:4 24:4 25:3 26:4 27:4 28:3 29:3 30:4 31:2 32:3 33:4 
-1 0.10566824472496451 0.015683848438777168 0.32640517008676811 0.51780971500154904 0.26631725478791785 3:3 4:125 6:1 11:1 15:7 16:5 17:5 18:5 19:4 20:5 21:4 22:5 23:5 24:5 25:4 26:5 27:4 28:5 29:5 30:5 31:2 32:3 33:4 
-0.75051946773344524 1 0.43756157592713585 0.12101375188523535 0.080338023369633887 0.19857249222405274 3:3 4:250 7:1 10:1 15:8 16:1 17:5 18:4 19:4 20:4 21:4 22:4 23:4 24:4 25:4 26:4 27:5 28:4 29:4 30:4 31:5 32:4 33:4 
-0.096701311716158617 1 0.63516954671921422 0 0 0 3:5 4:250 7:1 9:1 15:8 16:4 17:4 18:4 19:4 20:4 21:2 22:4 23:4 24:4 25:4 26:4 27:4 28:4 29:4 30:4 31:4 32:4 33:5 
-1 0.40306754269443584 0 0.41477121265260158 0.6510709835339441 0.19083714446909505 3:3 4:125 5:1 10:1 15:8 16:5 17:5 18:5 19:5 20:5 21:5 22:5 23:5 24:4 25:4 26:4 27:5 28:4 29:5 30:5 31:4 32:4 33:5 
-1 0 0.24768010458090275 0.097585464083707316 0.17003892634043136 0.10619944150106661 3:5 4:150 5:1 10:1 15:10 16:3 17:5 18:5 19:4 20:5 21:5 22:5 23:4 24:5 25:5 26:5 27:5 28:5 29:5 30:5 31:4 32:4 33:5 
-1 1 1 0.15564993434872176 0.95548433113954834 0.11875233144691816 3:3 4:250 6:1 14:1 15:9 16:4 17:5 18:5 19:4 20:5 21:4 22:5 23:5 24:5 25:5 26:5 27:5 28:5 29:5 30:5 31:3 32:4 33:5 
-0.51507833967191397 0.55364079903075403 0.36240076560788187 0 0.0018070006227526728 0.10332868656136726 3:2 4:250 5:1 9:1 15:9 16:1 17:5 18:5 19:2 20:4 21:3 22:3 23:3 24:3 25:1 26:4 27:3 28:4 29:4 30:4 31:5 32:3 33:5 
-0.97658868044863945 -1 0.40402686569271878 0.18113066412104928 0.1607456401779514 0.14046395659847391 3:3 4:250 5:1 9:1 15:9 16:3 17:3 18:4 19:4 20:4 21:2 22:3 23:4 24:5 25:3 26:4 27:4 28:4 29:5 30:5 31:5 32:5 33:5 
-1 -1 1 0.21656099189078604 0.30868684454173922 0.37280513831158191 3:4 4:250 6:1 9:1 15:10 16:1 17:4 18:4 19:4 20:5 21:5 22:5 23:5 24:5 25:4 26:4 27:3 28:5 29:5 30:5 31:4 32:4 33:5 
-1 -1 1 0.075642970139086302 0.32736802703837398 0.25112875071747898 3:2 4:150 5:1 12:1 15:7 16:3 17:2 18:2 19:4 20:4 21:4 22:3 23:3 24:3 25:1 26:2 27:3 28:3 29:3 30:3 31:3 32:3 33:4 
-1 -1 0.55231374557411372 0.74294086760615752 1 0.8303860426932721 3:3 4:125 6:1 8:1 15:7 16:1 17:3 18:5 19:1 20:4 21:3 22:1 23:3 24:5 25:1 26:5 27:3 28:3 29:1 30:1 31:3 32:3 33:4 
-1 -1 1 0.74504807294273157 0 0 3:2 4:150 6:1 10:1 15:8 16:3 17:3 18:3 19:4 20:4 21:4 22:5 23:5 24:4 25:3 26:3 27:3 28:4 29:4 30:4 31:3 32:4 33:5 
-1 -1 0.69404411347806916 0.18475707752069559 0.072267529699509142 0.19101804331565428 3:4 4:250 5:1 12:1 15:8 16:3 17:4 18:2 19:3 20:3 21:3 22:2 23:4 24:4 25:3 26:4 27:2 28:2 29:3 30:3 31:3 32:4 33:3 
-1 -1 0.57296834094677029 0.41049927747011455 0.41266771980981132 0.5128652717239256 3:2 4:250 5:1 9:1 15:9 16:2 17:4 18:3 19:3 20:4 21:3 22:2 23:3 24:3 25:2 26:2 27:1 28:2 29:3 30:2 31:3 32:2 33:3 
-1 -1 0.39156642393529112 0.34145059266857153 0.48020077526254501 0.42805415547663583 3:2 4:250 5:1 10:1 15:7 16:3 17:4 18:3 19:5 20:4 21:4 22:3 23:5 24:4 25:4 26:4 27:5 28:4 29:3 30:4 31:3 32:4 33:4 
-0 -1 0.4707893710232432 0.074334037073236936 0 0 3:3 4:250 5:1 9:1 15:9 16:4 17:4 18:4 19:4 20:5 21:3 22:4 23:5 24:5 25:3 26:4 27:5 28:4 29:5 30:4 31:5 32:5 33:5 
-0.99754210285832001 -1 0.63659951938508463 0.050647538120931146 0.11471248116270799 0.039082405588655875 3:4 4:250 5:1 9:1 15:9 16:4 17:5 18:5 19:5 20:5 21:4 22:5 23:5 24:5 25:4 26:5 27:5 28:4 29:5 30:5 31:5 32:5 33:5 
-0.4830661244251237 -1 1 0 0.022884733219024928 0 3:3 4:250 5:1 9:1 15:10 16:3 17:4 18:4 19:3 20:5 21:4 22:4 23:5 24:5 25:4 26:4 27:4 28:5 29:5 30:5 31:4 32:5 33:5 
-1 -1 1 0.83709178370591586 0.29374404841675589 0.22589701282116989 3:3 4:150 5:1 9:1 15:6 16:4 17:4 18:5 19:5 20:5 21:4 22:4 23:4 24:3 25:4 26:5 27:4 28:4 29:4 30:4 31:4 32:3 33:4 
-1 -1 0.75807402967789228 0.11628722558786257 0.44597862954107592 0.02053246377311034 3:3 4:250 6:1 9:1 15:9 16:4 17:5 18:5 19:4 20:4 21:4 22:3 23:5 24:5 25:4 26:5 27:5 28:5 29:4 30:4 31:3 32:4 33:5 
-1 -1 1 0.26239883228566713 0.22781152690671413 0.17518368354753286 3:3 4:150 5:1 13:1 15:8 16:1 17:4 18:5 19:4 20:4 21:3 22:4 23:3 24:4 25:3 26:3 27:4 28:4 29:5 30:4 31:5 32:5 33:5 
-1 -1 1 0.31379466220030799 0.75478650519205992 0.34454510368099911 3:2 4:250 5:1 12:1 15:9 16:4 17:5 18:4 19:4 20:5 21:5 22:4 23:5 24:4 25:4 26:4 27:4 28:4 29:4 30:4 31:2 32:2 33:5 
-1 -1 0.31761519861555787 0.17884686831204741 0.19948478323038193 0.15289462341651303 3:2 4:150 6:1 8:1 15:8 16:1 17:5 18:4 19:3 20:3 21:3 22:4 23:4 24:4 25:1 26:3 27:3 28:3 29:5 30:3 31:4 32:4 33:4 
-1 -1 0.65740055515920226 1 1 1 3:3 4:125 5:1 9:1 15:8 16:4 17:5 18:5 19:5 20:5 21:5 22:5 23:4 24:5 25:5 26:5 27:5 28:4 29:4 30:4 31:5 32:5 33:5 
-1 -1 0.54460183651205663 0.63243263099839719 0.41118174373988892 0.31514334833499624 2:1 4:150 6:1 13:1 15:8 16:4 17:4 18:5 19:3 20:5 21:1 22:4 23:5 24:5 25:2 26:5 27:3 28:5 29:3 30:3 31:1 32:3 33:5 
-1 -1 -1 0.33786740009688682 0.42663122305398543 0.37400793134635169 3:4 4:250 5:1 9:1 15:9 16:3 17:4 18:4 19:5 20:5 21:3 22:5 23:5 24:5 25:3 26:4 27:3 28:3 29:5 30:5 31:3 32:3 33:5 
-1 -1 -1 0 0 0 3:4 4:150 5:1 12:1 15:8 16:4 17:3 18:3 19:4 20:4 21:4 22:3 23:3 24:4 25:3 26:3 27:3 28:4 29:3 30:3 31:3 32:4 33:5 
-1 -1 -1 0.45240208012889827 0.50628425320940229 0.3947759433652403 3:4 4:250 6:1 12:1 15:10 16:4 17:4 18:4 19:3 20:5 21:5 22:4 23:4 24:3 25:2 26:1 27:2 28:4 29:4 30:4 31:3 32:4 33:5 
-1 -1 -1 0 0 0 3:4 4:250 5:1 12:1 15:9 16:3 17:4 18:4 19:2 20:5 21:4 22:4 23:5 24:5 25:3 26:4 27:4 28:5 29:5 30:5 31:3 32:4 33:4 
-1 -1 -1 0.51098665509735608 0.37283619822843111 0.35576986258538473 3:2 4:150 5:1 12:1 15:9 16:4 17:4 18:2 19:4 20:5 21:2 22:3 23:3 24:3 25:3 26:2 27:2 28:3 29:3 30:3 31:3 32:4 33:5 
-1 -1 -1 0.098258327069513637 0.049084029514104607 0.25667315781624905 3:5 4:250 5:1 12:1 15:10 16:3 17:5 18:4 19:3 20:5 21:4 22:4 23:3 24:3 25:3 26:3 27:3 28:3 29:3 30:4 31:3 32:4 33:5 
-1 -1 -1 0.4077664837291648 0.38493956547200281 0.36819596225737239 3:4 4:150 5:1 11:1 15:8 16:2 17:4 18:4 19:4 20:4 21:3 22:5 23:4 24:4 25:2 26:2 27:2 28:2 29:3 30:3 31:2 32:4 33:5 
-1 -1 -1 0.40538372854477778 0.79649831245381664 0.46305148609517155 3:3 4:250 6:1 9:1 15:8 16:2 17:4 18:4 19:5 20:5 21:4 22:3 23:5 24:5 25:5 26:4 27:5 28:5 29:5 30:5 31:4 32:5 33:5 
-1 -1 -1 0.65825253803694694 0.33401985451443872 0.31874495264323194 3:4 4:150 5:1 9:1 15:10 16:3 17:4 18:4 19:4 20:5 21:4 22:4 23:5 24:5 25:5 26:4 27:4 28:3 29:4 30:4 31:4 32:5 33:5 
-1 -1 -1 1 0.39640391775081996 0.3794445305916751 3:2 4:150 5:1 9:1 15:7 16:5 17:4 18:4 19:5 20:4 21:4 22:4 23:4 24:5 25:4 26:4 27:4 28:4 29:4 30:5 31:4 32:5 33:4 
-1 -1 -1 0.27339432447282785 0.32248528393961245 0.20491961335770301 3:5 4:250 6:1 14:1 15:8 16:5 17:4 18:5 19:4 20:5 21:4 22:4 23:5 24:4 25:4 26:4 27:4 28:5 29:4 30:4 31:5 32:4 33:4 
-1 -1 -1 0.75288462834378578 1 0.73129924951064129 3:1 4:250 5:1 8:1 15:10 16:2 17:5 18:5 19:3 20:5 21:5 22:5 23:5 24:5 25:2 26:5 27:5 28:5 29:3 30:3 31:2 32:4 33:5 
-1 -1 -1 1 1 1 3:4 4:125 6:1 13:1 15:8 16:4 17:4 18:4 19:5 20:5 21:2 22:4 23:5 24:3 25:3 26:2 27:2 28:3 29:3 30:3 31:3 32:4 33:5 
-1 -1 -0.86730012092648645 -0.85013692471957014 1 0.45610064202925293 3:2 4:125 5:1 10:1 15:8 16:2 17:5 18:4 19:5 20:4 21:2 22:4 23:5 24:5 25:1 26:4 27:3 28:3 29:5 30:5 31:3 32:3 33:5 
-1 -1 -0.83939563040563769 -0.83528695806795616 1 1 2:1 4:125 6:1 12:1 15:9 16:4 17:4 18:5 19:4 20:4 21:4 22:4 23:3 24:3 25:2 26:3 27:3 28:3 29:3 30:3 31:2 32:3 33:4 
-1 -1 -1 -0.69538893393730461 1 0.94662292207900856 2:1 4:125 6:1 10:1 15:9 16:5 17:5 18:4 19:5 20:4 21:3 22:5 23:4 24:4 25:4 26:4 27:4 28:4 29:4 30:4 31:4 32:4 33:5 
-1 -1 -1 -1 0.7817447769109378 0.36265800516778007 4:150 6:1 9:1 15:7 16:4 17:4 18:4 19:4 20:4 21:4 22:5 23:4 24:4 25:4 26:4 27:4 28:4 29:4 30:4 31:4 32:4 33:4 
-1 -1 -1 -1 0.7817447752857215 0.36399822535841253 4:150 6:1 13:1 15:8 16:4 17:5 18:5 19:4 20:5 21:4 22:5 23:5 24:5 25:5 26:5 27:4 28:4 29:5 30:5 31:3 32:4 33:5 
-1 -1 -0.65716834131143431 -0.51638334879532688 1 0.87062020536554607 4:125 5:1 8:1 15:7 16:2 17:5 18:4 19:5 20:4 21:4 22:4 23:5 24:4 25:2 26:3 27:2 28:4 29:5 30:4 31:4 32:4 33:4 
-1 -1 -1 -1 1 1 4:250 6:1 14:1 15:8 16:3 17:4 18:4 19:3 20:3 21:3 22:5 23:5 24:5 25:3 26:3 27:4 28:3 29:4 30:3 31:2 32:4 33:4 
-0.89396324673946237 -1 -0.37951422723247641 -0.50218794256991206 -0.70381147962468849 0.26531314670411954 4:125 6:1 9:1 15:10 16:4 17:5 18:4 19:3 20:5 21:5 22:4 23:4 24:4 25:2 26:3 27:3 28:3 29:4 30:4 31:2 32:4 33:5 
-0.50704597825777331 -0.44509639263365453 -0.0340552727096744 -0 -0.70717244449479977 0.70988939585300415 4:125 6:1 12:1 15:8 16:2 17:4 18:4 19:3 20:4 21:4 22:4 23:5 24:4 25:2 26:3 27:3 28:3 29:3 30:3 31:2 32:3 33:4 
-1 -1 -1 -1 -0.57483600955555703 0.57992451142926116 4:125 6:1 11:1 15:6 16:1 17:2 18:3 19:4 20:4 21:2 22:3 23:3 24:4 25:2 26:2 27:2 28:3 29:1 30:1 31:2 32:2 33:2 
-0.87536830653022002 -0.77529046059440554 -0.32222810436745775 -0.24048422697195421 -0.20326588564249035 0.055629000940386183 2:1 4:125 6:1 8:1 15:9 16:3 17:5 18:5 19:5 20:5 21:4 22:5 23:5 24:4 25:4 26:5 27:5 28:5 29:4 30:3 31:3 32:4 33:4 
-0 -0.43029229758151638 -0 -0 -0.28048396003358306 0 2:1 4:125 6:1 8:1 15:9 16:4 17:5 18:5 19:5 20:5 21:5 22:5 23:5 24:4 25:4 26:4 27:4 28:4 29:4 30:4 31:4 32:4 33:5 
-0.95626232112102105 -0.022273342126067672 -0.49619376589586345 -0.29294537956131383 -0 0.56926437794027951 4:125 6:1 9:1 15:10 16:2 17:5 18:4 19:3 20:5 21:4 22:4 23:5 24:4 25:4 26:5 27:4 28:4 29:4 30:4 31:4 32:5 33:5 
-0.91416418421056755 -0.98396217096645111 -0.61891953530986155 -0.61804487261992491 -0.6409906083046486 0.36108112413294302 2:1 4:125 6:1 12:1 15:8 16:3 17:4 18:5 19:3 20:4 21:4 22:5 23:4 24:2 25:2 26:3 27:2 28:3 29:2 30:3 31:2 32:3 33:3 
-1 -0.89501426471844514 -0.21960846219048205 -0.35802852923434991 -1 0.44715248709138344 4:125 6:1 8:1 15:9 16:4 17:4 18:5 19:5 20:4 21:3 22:4 23:4 24:4 25:3 26:5 27:3 28:4 29:4 30:4 31:4 32:4 33:5 
-0.70836261041726034 -0.65665326428713677 -0.35259607439102092 -0.1616300931918622 -0.087423668701155088 0.17884034625221973 4:125 5:1 8:1 15:10 16:4 17:5 18:5 19:4 20:4 21:5 22:5 23:5 24:4 25:4 26:4 27:4 28:5 29:4 30:4 31:4 32:5 33:4 
-1 -1 -0.80940554584170321 -0.41586159398729688 -0.79882740720834911 0.64332125173523247 2:1 4:125 5:1 9:1 15:9 16:4 17:4 18:4 19:5 20:5 21:4 22:5 23:4 24:4 25:4 26:4 27:5 28:4 29:4 30:4 31:5 32:4 33:4 
-1 -1 -1 -1 -0.94984723606013555 0.77837200554891339 4:250 6:1 14:1 15:8 16:3 17:4 18:5 19:4 20:5 21:4 22:4 23:5 24:5 25:4 26:4 27:5 28:4 29:4 30:4 31:1 32:4 33:5 
-1 -1 -1 -1 -0.61683085257125214 0.41121235237225739 4:250 6:1 14:1 15:8 16:4 17:5 18:5 19:4 20:5 21:4 22:5 23:5 24:5 25:5 26:4 27:2 28:4 29:4 30:4 31:2 32:5 33:5 
-1 -1 -1 -1 -1 -1 4:125 6:1 12:1 15:8 16:3 17:3 18:4 19:5 20:3 21:2 22:1 23:4 24:3 25:2 26:2 27:1 28:3 29:3 30:4 31:3 32:2 33:4 
-1 -1 -1 -1 -1 -1 4:125 6:1 10:1 15:8 16:3 17:3 18:5 19:2 20:5 21:3 22:4 23:5 24:5 25:2 26:1 27:5 28:1 29:5 30:4 31:4 32:5 33:4 
-1 -1 -1 -1 -1 -1 2:1 4:125 6:1 12:1 15:10 16:2 17:5 18:5 19:2 20:5 21:3 22:4 23:5 24:3 25:5 26:5 27:2 28:4 29:2 30:1 31:3 32:4 33:4 
-1 -1 -1 -1 -1 -1 3:1 4:250 6:1 14:1 15:8 16:1 17:4 18:4 19:4 20:4 21:4 22:4 23:4 24:4 25:3 26:4 27:3 28:3 29:3 30:4 31:2 32:3 33:4 
-1 -1 -1 -0.84688268956902091 -1 -1 4:125 5:1 9:1 15:8 16:4 17:5 18:4 19:4 20:5 21:4 22:4 23:4 24:5 25:4 26:4 27:4 28:5 29:4 30:4 31:4 32:4 33:4 
