svm_type c_svc
kernel_type rbf
gamma 0.5
nr_class 3
total_sv 166
rho 0.2019377684580666 -0.31656101194817055 -0.62779929012548175
label 2 1 0
nr_sv 60 81 25
SV
1 0.0016829910444303379 1:-1.4554967 2:1.13882 
1 0 1:-1.7228083 2:0.1600877 
0.84245972424146209 0.73082352254851157 1:-0.0167183 2:-1.3344555 
1 0 1:-1.7725416 2:-0.2332117 
1 0 1:-1.7266458 2:-0.177698 
1 0 1:-1.3939262 2:-0.3541972 
1 0 1:-1.5736374 2:0.1263886 
1 0 1:-1.3111988 2:-0.3309189 
1 0 1:-1.5311776 2:0.0390835 
1 0 1:-0.7802531 2:-0.0459607 
1 0.0043727052552303856 1:-1.8262973 2:1.5052807 
1 0 1:-1.742209 2:0.1625859 
0.55773777660245194 0.23834461205079593 1:0.2859941 2:-3.2051914 
1 0 1:-1.3251333 2:0.0330868 
1 1 1:1.5737504 2:0.8176377 
1 0 1:-1.7844298 2:-0.0346383 
1 0 1:-0.9357415 2:-0.1009872 
0.58769588645634063 0 1:-1.3065168 2:-0.3812627 
1 0 1:-1.5440451 2:0.9804611 
1 0.50132018314455917 1:-2.4214748 2:1.6969535 
1 0 1:-1.2993327 2:-0.2980204 
1 0 1:-1.7873544 2:-0.4854951 
1 0 1:-1.3450237 2:0.7357885 
1 0 1:-1.4702595 2:-0.3186213 
1 0 1:-2.1151581 2:1.6346954 
1 0 1:-1.8346198 2:-0.4382208 
1 0 1:-1.1686551 2:-0.1136663 
1 0 1:-1.6498794 2:-0.2540043 
1 0.42916649930467349 1:-2.3974862 2:0.1066429 
1 0.062944156208087215 1:-1.867588 2:-0.7873339 
1 0 1:-1.65185 2:0.9353096 
1 0 1:-0.60659 2:-0.3590568 
1 0 1:-1.8122168 2:-0.2912014 
1 0 1:-1.9209413 2:0.7031654 
1 0 1:-1.2274629 2:0.1625362 
1 1 1:-0.6842981 2:-0.0463421 
1 0 1:-2.1226735 2:0.8359182 
1 0 1:-2.240406 2:0.75221 
1 0.68103234581502237 1:-0.8801561 2:0.3463403 
1 0 1:-1.7630071 2:0.876723 
1 0 1:-1.3471607 2:0.1923565 
1 0 1:-1.7643972 2:-0.7296443 
1 0 1:-1.459321 2:-0.3916993 
1 0 1:-1.6801841 2:0.3308677 
1 0 1:-1.0667785 2:-0.1671414 
1 0 1:-1.2204797 2:0.7415648 
1 0.46083323299108464 1:-1.787454 2:-2.0064699 
1 0 1:-1.6048133 2:0.3323231 
1 0 1:-2.1919447 2:0.4092924 
1 0 1:-2.2612135 2:0.1764061 
1 0 1:-1.8804914 2:-0.4096216 
1 0 1:-1.1792181 2:-0.1488922 
1 0 1:-1.4704283 2:0.619043 
1 0 1:-1.5922035 2:-0.6319593 
1 0 1:-0.8852785 2:-0.250473 
1 0.30495861576171485 1:-1.0570364 2:0.6371808 
1 0 1:-1.4499123 2:-0.0537701 
0.53601872521273797 0.34825235312192904 1:-0.1844756 2:-3.4228913 
1 0 1:-1.1616908 2:0.3905097 
0.65348254393789329 0 1:-1.6034513 2:-0.8886777 
-1 0 1:-1.3163215 2:0.1153228 
-1 0 1:-0.972077 2:0.475286 
-0.18835457398161234 1 1:1.2216246 2:1.7846404 
-0 1 1:-0.0757782 2:1.0098742 
-0 1 1:0.0674799 2:0.9417363 
-1 0 1:-2.3798444 2:-0.3976491 
-1 0 1:-2.1607597 2:-0.5530478 
-1 0 1:-1.4812658 2:0.4756657 
-0.86484224805193977 0 1:-0.233964 2:0.3117463 
-1 0.16689393756630688 1:-2.5619664 2:1.3294971 
-0 1 1:0.0497354 2:0.4877944 
-0 1 1:0.1439435 2:1.6903936 
-1 0 1:-1.7149118 2:-0.1886269 
-0 1 1:0.2709516 2:1.5183668 
-1 0 1:-1.7668733 2:0.3265132 
-1 0 1:-2.1879369 2:-0.0343338 
-1 0 1:-1.7329165 2:-0.2925239 
-1 0 1:-1.789253 2:-0.7128154 
-0 0.039923962505900482 1:-2.6993689 2:-0.2955962 
-1 0 1:-1.218977 2:-0.282161 
-1 0 1:-1.9304797 2:-0.3636472 
-0 1 1:0.1041336 2:0.6026138 
-1 0 1:-1.6139486 2:0.8651075 
-1 0 1:-2.1760887 2:-0.6579833 
-1 0 1:-1.4304437 2:-0.4085696 
-0 1 1:0.3011396 2:2.9324801 
-0 1 1:0.0461214 2:2.023412 
-1 0 1:-1.5119824 2:0.666623 
-1 0 1:-1.6461732 2:-0.1452507 
-0.16364317718426669 0 1:-1.6058572 2:1.1545471 
-1 0 1:-1.7203209 2:0.8664666 
-0 1 1:0.4225602 2:1.9750053 
-1 0 1:-1.4504037 2:0.7312354 
-0 1 1:0.1693374 2:1.8566444 
-1 0 1:-1.8854106 2:-0.0660817 
-1 0 1:-1.3665294 2:0.3307099 
-0 1 1:0.0706818 2:1.7261168 
-1 0 1:-1.3215166 2:0.3546888 
-1 0 1:-0.9607664 2:0.0043833 
-1 0 1:-0.9840508 2:0.0113447 
-1 0 1:-2.1124895 2:0.0164571 
-0 1 1:0.3447529 2:1.4182158 
-1 0.33152052204150445 1:-2.3822224 2:-0.0136138 
-0 1 1:-0.0122705 2:1.3719879 
-1 0 1:-1.2052236 2:0.0485241 
-0.4048746542387846 0 1:-1.4982058 2:1.789363 
-1 0 1:-1.5100794 2:0.8420888 
-1 0 1:-1.481995 2:0.1067127 
-1 0 1:-1.6215316 2:1.2018138 
-1 0 1:-1.5808902 2:0.9615092 
-1 0 1:-0.682242 2:0.2567346 
-1 1 1:1.3229715 2:1.3767095 
-1 0 1:-0.6350946 2:0.2802443 
-0 1 1:0.3279163 2:0.504939 
-1 0 1:-0.6406203 2:-0.1016065 
-1 0 1:-1.8009296 2:2.4580653 
-0 0.45063813832044369 1:-0.11845 2:0.504582 
-1 0 1:-1.9947149 2:0.9624782 
-0 1 1:0.2180234 2:2.0251473 
-1 0 1:-1.3037958 2:-0.2409555 
-1 0 1:-1.7582268 2:1.0134567 
-0 1 1:0.1569775 2:2.1259935 
-1 0 1:-2.0851556 2:-0.7696538 
-1 0 1:-1.5981286 2:0.4337956 
-1 0 1:-1.3909606 2:0.0235892 
-1 0 1:-1.3103463 2:0.444532 
-0 1 1:0.1705639 2:1.7304945 
-0.55568000299428266 0 1:0.1188024 2:3.2304203 
-1 0 1:-0.9395994 2:0.2728522 
-1 0 1:-1.4954866 2:0.2315511 
-1 0.11359052233117967 1:-0.4793131 2:-0.5833893 
-1 0 1:-1.6660658 2:-0.7882864 
-1 0 1:-0.7582351 2:-0.7278851 
-1 0 1:-1.3896529 2:-0.0934724 
-1 0 1:-1.5838755 2:-0.1667297 
-1 0 1:-2.0675213 2:-0.5166202 
-0 1 1:0.240717 2:1.8560648 
-1 0.52491768391141036 1:-1.6302957 2:-0.9287482 
-1 0 1:-1.4378163 2:0.7430271 
-1 0 1:-2.370194 2:0.3990421 
-1 0 1:-1.5601067 2:0.0783225 
-0 -1 1:0.5792203 2:1.5468084 
-0 -1 1:0.3777456 2:1.676577 
-0 -1 1:0.3169076 2:1.0446347 
-0 -1 1:0.505587 2:1.4104955 
-0.58578901972870501 -0 1:1.7719601 2:0.8920534 
-1 -1 1:-1.2327856 2:-0.0345667 
-0 -1 1:0.5532433 2:1.8640916 
-0 -1 1:0.6242818 2:2.376012 
-0.76018401601448427 -1 1:0.4653139 2:2.4666912 
-0.31204694812365219 -1 1:0.1002349 2:1.7148919 
-0 -1 1:0.5461534 2:1.4587286 
-0 -1 1:0.2936686 2:2.0614651 
-0.73949360046048251 -1 1:0.3257143 2:0.9934145 
-0 -1 1:0.3498858 2:1.3256842 
-0 -0.97977419717018122 1:0.638723 2:1.6766365 
-0.26023406026040269 -0.46082298538973038 1:1.2800493 2:-0.2285101 
-0 -0.83157799332451332 1:0.5463423 2:0.9150737 
-1 -1 1:0.7104742 2:-0.1056528 
-0.41455704466427334 -0.35530959079232066 1:1.6335088 2:-0.0463906 
-0 -1 1:0.54235 2:0.9404066 
-0 -1 1:0.4418068 2:1.8782709 
-0 -1 1:0.3623181 2:1.8078523 
-0 -1 1:0.2514189 2:1.4622604 
-0 -1 1:0.4503638 2:1.1096512 
-0.69142652799403914 -0 1:1.6774517 2:1.320421 
