svm_type c_svc
kernel_type rbf
gamma 0.5
nr_class 3
total_sv 942
rho 0.46464426625759064 0.25470865179589441 0.19336610492953529
label 0 1 2
nr_sv 109 448 385
SV
1 0 1:0.2614415 2:1.6875955 
1 0 1:0.1709769 2:1.4440099 
1 0 1:-0.0407562 2:1.8675959 
1 0 1:0.535898 2:2.4154978 
1 0 1:0.3114237 2:1.2018342 
1 0 1:0.282296 2:1.548547 
0.87415421015614081 0 1:0.6657041 2:2.2163331 
1 0 1:0.3228769 2:1.6410175 
1 0 1:0.7946413 2:2.4165875 
1 0 1:0.1000969 2:1.2121361 
0 0.094032364814115477 1:1.6269037 2:1.1721531 
1 0 1:0.1335033 2:1.2413755 
0 1 1:2.0791974 2:0.9902237 
0.80850060064812457 0.83500048623478129 1:2.2727687 2:0.0136076 
0 0.096600494186131161 1:1.452346 2:1.5055492 
1 0.18113357436416225 1:0.1824734 2:0.7545566 
1 1 1:-0.1443368 2:1.5435035 
0 0.072357078053752161 1:1.3695076 2:1.6257737 
1 0 1:0.1494165 2:1.9965931 
1 1 1:0.1308012 2:3.3004233 
1 0 1:0.2041856 2:1.3976877 
1 0 1:0.2149392 2:1.4054683 
1 1 1:0.3678318 2:0.4664128 
0 1 1:0.731881 2:0.0585043 
0 0.85257046351166366 1:0.9660712 2:-0.0697856 
0.442391815450148 0 1:0.5065947 2:0.4604049 
1 0.23605033646472415 1:-0.0223358 2:2.4364308 
1 1 1:-1.0098511 2:-2.2125808 
1 0 1:0.1725616 2:1.7281511 
1 0 1:0.1213659 2:1.6314972 
1 0 1:0.3800497 2:2.182375 
1 0 1:0.0828409 2:1.7483661 
1 1 1:0.2162446 2:0.3975195 
1 0 1:0.1402716 2:1.5434728 
1 0 1:0.2969475 2:2.2449042 
1 0 1:0.1527819 2:1.5839014 
1 1 1:-1.7880094 2:0.4054523 
1 0 1:0.1643968 2:1.5622753 
0 0.21522711791489807 1:1.3409167 2:1.6663371 
0 1 1:1.7666751 2:0.9477429 
0 0.79746972235697189 1:1.2706128 2:1.7817369 
1 0 1:0.3771726 2:2.2707602 
1 0 1:0.3541266 2:1.8175163 
1 0 1:0.257328 2:1.3382525 
1 0 1:0.1532898 2:1.6951968 
1 1 1:-1.2067675 2:-0.8362488 
1 0 1:0.0708284 2:1.9534367 
1 0 1:0.2313138 2:2.2921827 
1 0 1:0.302505 2:1.1636945 
1 0 1:0.3368994 2:0.8014853 
1 0 1:0.320679 2:1.7417486 
1 0 1:0.312818 2:1.8137582 
1 0 1:0.637433 2:2.2383563 
1 1 1:0.2131201 2:0.6894274 
1 1 1:-0.257907 2:2.124164 
1 0 1:0.2859554 2:1.4971142 
1 0 1:0.4470978 2:0.5531293 
1 0 1:0.1802075 2:2.1078771 
1 0 1:0.1624335 2:0.938346 
0 0.072724473801935557 1:1.6667679 2:1.2700496 
1 0 1:0.2262113 2:1.9143233 
1 1 1:0.6878616 2:-0.1112263 
1 0 1:0.497664 2:2.1610665 
1 0.56539496487519691 1:1.4966878 2:2.4200889 
1 1 1:-0.9212315 2:1.4562789 
1 0.27175173431122612 1:-0.0505853 2:1.8971235 
1 0 1:0.2298447 2:1.3328747 
1 0 1:0.2272914 2:1.2704845 
1 0 1:0.7940392 2:2.5067785 
1 1 1:-0.0435131 2:0.7713334 
1 0 1:0.3307375 2:1.7223669 
0 0.67680577041513046 1:1.2295969 2:1.8528612 
1 0 1:0.1708327 2:2.212426 
1 0 1:0.1274338 2:2.3724827 
1 1 1:-0.341231 2:1.2906413 
1 0 1:0.2395541 2:1.4340331 
1 0 1:0.2423116 2:1.5418304 
1 0 1:0.1968248 2:2.5450641 
1 0 1:0.2283791 2:1.6128173 
1 0 1:0.3264536 2:1.7163755 
1 0 1:0.0404787 2:1.2468751 
0.36817070650156869 0 1:0.3195563 2:1.4042541 
1 0 1:0.171089 2:2.054167 
1 0 1:0.3283699 2:1.0521383 
1 0 1:0.2680083 2:1.9687518 
1 0 1:0.3924143 2:2.0512615 
1 0 1:0.1980092 2:1.3303721 
1 0 1:0.3206666 2:1.50991 
1 0 1:0.453761 2:1.9856551 
1 1 1:-1.7379458 2:-0.213656 
1 0 1:0.0746189 2:1.5106732 
0.86775711840001313 1 1:1.6626123 2:-0.92956 
1 1 1:-1.4610587 2:0.4136678 
1 1 1:-0.9297922 2:-0.6593367 
1 1 1:-0.755935 2:-0.2562452 
1 0 1:0.1548394 2:1.0513095 
0 1 1:0.9561149 2:-0.1576973 
1 0 1:0.4461899 2:2.2430453 
1 1 1:-0.6120148 2:-0.8119509 
1 0 1:0.1230656 2:1.8284983 
1 0 1:0.3871483 2:0.6667227 
0 0.62075585992768745 1:0.731114 2:0.1287233 
1 0 1:0.2654544 2:1.9245427 
1 0 1:0.0807236 2:1.9392617 
0 1 1:1.6692316 2:1.1932631 
1 0 1:0.3638513 2:1.939053 
1 0 1:0.4827062 2:2.2682219 
1 0 1:0.2771818 2:1.6974658 
1 1 1:-0.239355 2:1.6806255 
-0 1 1:-1.6459886 2:0.402694 
-0 1 1:-1.2620744 2:0.1214268 
-0 1 1:-1.6311225 2:-0.4415354 
-0 1 1:-1.4805825 2:0.2671295 
-0 1 1:-2.0377775 2:0.4354657 
-0 1 1:-1.3124807 2:0.3896645 
-0 1 1:-1.4389438 2:-0.3743999 
-1 0 1:-0.0547556 2:0.8829166 
-1 0 1:-0.0455863 2:1.9741591 
-0 1 1:-1.6863388 2:1.200173 
-1 0 1:0.1811744 2:1.5622663 
-0 1 1:-1.9873154 2:1.1291562 
-0 1 1:-1.549557 2:0.0487494 
-0 1 1:-0.8279032 2:-0.0235269 
-0 1 1:-1.8833031 2:0.1916387 
-0 1 1:-0.7848925 2:0.3139232 
-0 1 1:-1.3513064 2:0.096545 
-0 1 1:-1.1167651 2:0.3651874 
-0 1 1:-1.7967092 2:0.2097214 
-0 1 1:-1.6530771 2:-0.8901492 
-0 1 1:-1.4863331 2:-0.3191256 
-0 0.1783047958146875 1:-2.3527992 2:-0.6602424 
-0 1 1:-1.8782687 2:0.3567849 
-0 1 1:-1.7774025 2:0.1114406 
-0 1 1:-1.1317196 2:-0.2940417 
-0 1 1:-0.9568122 2:0.1239697 
-0 1 1:-1.9484891 2:0.3284777 
-0 1 1:-1.1325919 2:-0.5090288 
-0 1 1:-1.7356308 2:-0.0497551 
-0.12070476613834825 1 1:-2.7546608 2:1.0861788 
-1 0 1:0.164686 2:1.3266876 
-0 1 1:-1.9687835 2:0.9159171 
-0 1 1:-1.4106845 2:0.3386069 
-0 1 1:-1.5109418 2:0.266388 
-1 0 1:-0.0159762 2:2.1508792 
-0 1 1:-1.5509182 2:-1.3289811 
-1 0 1:0.0196172 2:1.8829528 
-0 1 1:-1.711132 2:-0.7103061 
-0 1 1:-1.9846096 2:0.2358821 
-0 1 1:-1.485196 2:-1.1787801 
-0 1 1:-2.3809261 2:0.8351916 
-1 0 1:0.3508987 2:2.0661756 
-0 1 1:-1.8621124 2:0.5806929 
-1 0 1:0.1144078 2:0.9924669 
-0 1 1:-1.5355531 2:0.2602232 
-0 1 1:-1.4161997 2:0.3869464 
-0 1 1:-1.8335313 2:0.6290242 
-0 1 1:-0.4481513 2:0.1991994 
-0 1 1:-1.1074184 2:-0.0751885 
-0 1 1:-2.3169507 2:0.1519707 
-0 1 1:-1.4343503 2:-0.0446766 
-0 1 1:-1.5627279 2:0.868856 
-0 1 1:-1.4192135 2:-0.2087529 
-0 1 1:-1.3028951 2:0.3833534 
-0 1 1:-1.6149488 2:-0.2466211 
-0 1 1:-1.6047439 2:0.061779 
-0 1 1:-2.1785566 2:-0.5758435 
-0 1 1:-1.5775465 2:0.516545 
-0 1 1:-1.3819738 2:-1.0911032 
-1 1 1:0.7087123 2:1.8164597 
-0 1 1:-1.855441 2:0.4704763 
-0 1 1:-1.1870755 2:-0.2751284 
-0 1 1:-1.4019773 2:0.1640195 
-0 1 1:-1.1967586 2:0.3963971 
-0 1 1:-0.7544334 2:0.1869986 
-0 1 1:-1.8292138 2:0.7212015 
-0 1 1:-1.2847742 2:-0.3088729 
-0 1 1:-1.6442427 2:0.9938824 
-0 1 1:-1.6071351 2:-0.1843163 
-0.53155445267199108 1 1:-1.1516915 2:-0.9158737 
-0 1 1:-1.3036705 2:0.4669445 
-0 1 1:-1.8348702 2:0.7494504 
-0 1 1:-1.1529937 2:-0.0024307 
-1 0 1:-0.0815033 2:1.9073729 
-0 1 1:-1.7197221 2:0.8060383 
-0 1 1:-1.8608855 2:0.7058751 
-1 0.056818438767444086 1:0.3875046 2:1.8863914 
-0 1 1:-1.7597057 2:1.4638833 
-1 0 1:0.059579 2:1.4691663 
-0 1 1:-0.5092045 2:-0.4993619 
-1 0 1:0.0533654 2:0.9397284 
-1 0 1:-0.1362735 2:1.3869755 
-0 1 1:-1.3315726 2:-0.2750431 
-0 1 1:-1.9784649 2:-0.4750496 
-0 1 1:-1.9178875 2:0.3089421 
-1 1 1:1.5521245 2:0.723081 
-0 1 1:-1.8532753 2:0.1422151 
-0 1 1:-0.4725334 2:0.124066 
-0 1 1:-2.1735018 2:0.0698713 
-0 1 1:-1.7211741 2:1.8085568 
-0 1 1:-1.1927554 2:-0.1012341 
-0 1 1:-1.2340576 2:0.163978 
-0 1 1:-1.8374771 2:0.3793642 
-0 1 1:-1.6290283 2:0.3796305 
-1 0 1:-0.0013318 2:1.3234266 
-0 1 1:-1.5395025 2:0.5909248 
-0 1 1:-2.0010396 2:0.4994056 
-0 1 1:-2.067493 2:-0.4033073 
-1 0 1:0.3752354 2:1.3564126 
-0 1 1:-1.5361417 2:0.0341039 
-0 1 1:-2.5287338 2:0.4449511 
-0 1 1:-1.009903 2:0.3734213 
-0 1 1:-1.842185 2:1.0316533 
-0 1 1:-1.2882439 2:-0.4255235 
-0 1 1:-1.6712723 2:1.0174408 
-0 1 1:-1.8090889 2:0.4209792 
-0 1 1:-1.1694824 2:-0.5104212 
-1 1 1:0.7821394 2:2.1577347 
-1 0 1:-0.0054201 2:1.1540263 
-0 1 1:-0.3776667 2:-0.446516 
-0 1 1:-2.1010315 2:0.5003069 
-0 1 1:-1.896247 2:0.091086 
-0 1 1:-1.4369882 2:0.2750684 
-0 1 1:-1.3133789 2:0.1457961 
-0 1 1:-0.7557485 2:0.0181185 
-0 1 1:-1.9854541 2:-0.3002431 
-1 0 1:0.4377467 2:2.0479827 
-0 1 1:-2.1855286 2:-0.1735756 
-0 1 1:-1.1039172 2:0.2511781 
-0 1 1:-1.0502526 2:0.0854642 
-0 1 1:-1.7093604 2:-0.8473972 
-1 0 1:0.0791965 2:1.7262237 
-0 1 1:-1.4344724 2:0.51651 
-0 1 1:-1.7882748 2:2.0580852 
-0 1 1:-1.7523121 2:0.2341041 
-1 0 1:0.7644753 2:2.5539128 
-0 1 1:-2.3272979 2:-0.5248014 
-0 1 1:-2.2605834 2:-0.4986928 
-0 1 1:-0.8420762 2:0.2599009 
-0 1 1:-1.8190554 2:-0.4976538 
-1 0 1:0.4386315 2:2.7035837 
-0 1 1:-1.206818 2:-0.2224986 
-0 1 1:-1.9938451 2:-0.1824174 
-0 1 1:-1.655342 2:-0.1658454 
-1 0 1:-0.0060287 2:1.9081368 
-0 1 1:-1.8988865 2:0.5772311 
-0 1 1:-2.3453517 2:0.7954112 
-0 1 1:-2.2155298 2:-0.08983 
-0 1 1:-1.9173844 2:0.2238346 
-0 1 1:-1.6164375 2:-0.6423296 
-0 1 1:-1.2690809 2:0.3652293 
-0 1 1:-1.6449169 2:0.5123042 
-0 1 1:-2.8078153 2:0.0503754 
-1 0 1:-0.0666916 2:2.0782469 
-1 0 1:0.0559328 2:1.9203189 
-1 0 1:-0.1278094 2:1.6131885 
-0 1 1:-0.5716316 2:-0.4761722 
-1 0 1:0.1337114 2:2.2901233 
-0 1 1:-0.9126522 2:0.0135538 
-1 0 1:-0.034637 2:1.7497644 
-1 0 1:0.3397155 2:1.1336934 
-1 0 1:0.4811359 2:2.1839329 
-0 1 1:-2.2891226 2:0.1831865 
-0 1 1:-1.6790519 2:1.1719038 
-0 1 1:-1.3597477 2:-0.1260048 
-0 1 1:-1.3020664 2:-0.0463674 
-0 1 1:-0.9498642 2:0.1446782 
-1 0 1:0.0526276 2:1.3245455 
-0 1 1:-0.9627704 2:0.1633897 
-0 1 1:-1.8648176 2:-0.4482387 
-0 1 1:-1.746296 2:-1.6580406 
-0 1 1:-2.0155324 2:1.1140784 
-0 1 1:-1.7097455 2:0.2183995 
-0 1 1:-2.1009969 2:1.3408051 
-0 1 1:-2.1297696 2:1.5623274 
-1 0 1:0.2881055 2:1.8767603 
-0 1 1:-1.6954631 2:0.9594488 
-0 1 1:-1.7485004 2:1.2557436 
-1 1 1:0.5772685 2:1.7711517 
-0 1 1:-1.585371 2:-0.1586914 
-0 1 1:-1.6589572 2:0.5518916 
-0 1 1:-1.6795766 2:0.0059525 
-0 1 1:-1.9129214 2:0.7740365 
-0 1 1:-1.8237398 2:0.2120117 
-0 1 1:-1.7834689 2:-0.3280032 
-0 1 1:-1.5956676 2:0.1536502 
-0 1 1:-1.527704 2:0.536512 
-0 1 1:-1.6024008 2:-0.037275 
-0 1 1:-1.6244451 2:1.3868246 
-0 1 1:-2.0656422 2:-0.919179 
-1 0 1:0.5265542 2:2.7774878 
-1 0 1:-0.0469266 2:2.1491426 
-0 1 1:-1.2070544 2:0.0490564 
-1 0 1:-0.0993659 2:1.5320377 
-0 1 1:-2.2332773 2:1.4240421 
-0 1 1:-2.1739618 2:0.995671 
-0 1 1:-1.5566901 2:0.4685438 
-0 1 1:-1.9504412 2:0.8888736 
-1 1 1:-1.4904296 2:-0.5396315 
-0 1 1:-1.4964942 2:0.4783303 
-0 1 1:-2.0594115 2:-0.2258067 
-0 1 1:-1.5697942 2:0.5808223 
-0 1 1:-2.0033057 2:0.6421099 
-0 1 1:-1.1826498 2:0.0690773 
-0 1 1:-0.4573002 2:0.2230035 
-0 1 1:-1.6222413 2:0.7399617 
-1 0 1:-0.1045856 2:0.8272809 
-0 1 1:-1.5716188 2:0.7968436 
-1 0 1:-0.0880317 2:1.4616917 
-1 0 1:0.0098085 2:0.9389049 
-0 1 1:-1.4662932 2:0.0732036 
-0 1 1:-1.6206165 2:1.2706732 
-0 1 1:-1.5302522 2:0.2553338 
-0 1 1:-1.9237595 2:1.9586538 
-1 0 1:0.0940742 2:1.1991713 
-0 1 1:-1.5803734 2:0.948732 
-0 1 1:-1.8570301 2:-0.0836058 
-0 1 1:-1.0902797 2:0.0972145 
-0 1 1:-2.0644643 2:0.3970318 
-0 1 1:-1.3984075 2:-0.053425 
-0 1 1:-1.955477 2:0.4729656 
-0 1 1:-1.8444742 2:1.3383043 
-0 1 1:-1.3271917 2:0.1799354 
-0 1 1:-1.2015908 2:-1.3671949 
-0 1 1:-1.37631 2:-0.0649709 
-0 1 1:-1.6074936 2:-0.6839672 
-1 0.13294737377029328 1:0.9460665 2:2.5236699 
-1 0 1:0.0600653 2:0.9045778 
-1 0 1:-0.0603101 2:1.8928648 
-0 1 1:-2.0191169 2:0.7153542 
-0 1 1:-1.4592396 2:0.4491829 
-1 0 1:0.0036409 2:1.9916054 
-0 1 1:-1.5922303 2:-0.1691886 
-0 1 1:-1.4513751 2:-0.4330759 
-0 1 1:-1.8028369 2:0.0573675 
-0 1 1:-2.4139935 2:-0.8940444 
-0 1 1:-1.3277047 2:-0.5408978 
-0 1 1:-1.1897759 2:0.1882048 
-0 1 1:-1.196807 2:0.2039964 
-0 1 1:-2.0833945 2:0.7992915 
-0 1 1:-1.0892719 2:0.1070444 
-0 1 1:-1.4539772 2:0.204119 
-0 1 1:-1.2073144 2:-0.0686279 
-0 1 1:-1.0591858 2:-1.0123164 
-1 1 1:0.5804482 2:2.0100367 
-0 1 1:-1.478704 2:0.452629 
-0 1 1:-1.398674 2:0.3506864 
-0 0.48520762791393207 1:-1.2041926 2:0.4476645 
-0 1 1:-1.336929 2:0.4200189 
-0 1 1:-1.7859884 2:1.1013139 
-0 1 1:-1.2811643 2:-0.1316482 
-0 1 1:-1.6807489 2:0.3295099 
-1 0 1:0.1712106 2:2.2848462 
-1 0 1:0.1478639 2:1.3415803 
-0 1 1:-1.3364878 2:0.0272397 
-1 1 1:-2.0684778 2:0.2688463 
-0 1 1:-1.8409825 2:-0.1482438 
-1 1 1:-0.103301 2:-0.1920005 
-0 1 1:-1.5932086 2:0.6526415 
-0 1 1:-1.7175868 2:0.7855019 
-0 1 1:-1.697718 2:0.6725708 
-1 0 1:-0.0946479 2:1.1030385 
-0 1 1:-1.2883948 2:-0.1298311 
-1 0 1:-0.1140717 2:1.1678841 
-0.00080018896435248357 1 1:-1.9959357 2:0.0698887 
-1 0 1:0.0469008 2:0.8327402 
-0 1 1:-1.7415327 2:1.1058395 
-0 1 1:-1.6279477 2:0.4052976 
-0 1 1:-1.6969212 2:0.8619485 
-1 0 1:0.0640599 2:0.9576882 
-0 1 1:-0.9368874 2:0.2617136 
-0 1 1:-2.1438344 2:-0.3423422 
-1 0 1:0.6131629 2:2.6424266 
-1 0 1:0.144099 2:0.9965207 
-0 1 1:-1.7719609 2:0.9875256 
-0 1 1:-1.8997554 2:-0.139418 
-0 1 1:-1.8817949 2:0.2928823 
-0.19919711639098095 1 1:-1.5519618 2:-0.4156123 
-0.1377398678493793 1 1:-1.3634164 2:-1.6394064 
-0 1 1:-1.9409694 2:-0.0676882 
-0 1 1:-1.831442 2:-0.8424988 
-0 1 1:-1.668792 2:0.8709328 
-0 1 1:-1.3815445 2:0.1184176 
-0 1 1:-2.005671 2:-0.0656903 
-0 1 1:-1.7587158 2:0.7312444 
-0 1 1:-1.8817758 2:1.2595421 
-1 1 1:0.2690562 2:-0.1442713 
-0 1 1:-2.0725435 2:0.0207468 
-0 1 1:-1.5019601 2:0.6239599 
-0 1 1:-0.6971954 2:-0.026246 
-0 1 1:-1.8600482 2:0.4284095 
-0 1 1:-1.6955634 2:0.0929953 
-0 1 1:-1.6467973 2:0.5326993 
-0 1 1:-1.8172162 2:0.7029073 
-0 1 1:-1.7451844 2:0.2858552 
-0 1 1:-1.1395099 2:0.3700121 
-0 1 1:-1.4757805 2:0.463596 
-0 1 1:-0.4911219 2:0.1196514 
-0 1 1:-1.4693266 2:-0.2889646 
-0 1 1:-0.632538 2:-0.6057961 
-0 1 1:-1.8494009 2:0.3989849 
-0 1 1:-1.8134384 2:1.5214905 
-0 1 1:-1.1631276 2:0.3232284 
-0 1 1:-0.9378668 2:0.3060073 
-0 1 1:-1.3713309 2:0.2385147 
-1 0 1:0.0273851 2:1.2355522 
-0 1 1:-1.6821227 2:-0.7059014 
-1 0 1:0.1285891 2:2.2854332 
-1 0 1:0.0440951 2:2.2290238 
-0 1 1:-2.2237968 2:0.2164968 
-0 1 1:-1.8977169 2:1.4325997 
-0.69989653336367075 0 1:0.023737 2:2.3587266 
-0 1 1:-0.5874121 2:0.1477722 
-0 1 1:-1.6792667 2:0.5042552 
-1 0 1:0.4175694 2:2.7075895 
-0.3601441259352276 1 1:-2.4952945 2:1.5321725 
-0.32758927026832491 0 1:-3.2181439 2:-1.5468894 
-0 1 1:-1.6568982 2:-0.1650053 
-0 1 1:-2.1604451 2:-1.3163489 
-0 1 1:-0.9046823 2:0.1949317 
-1 0 1:0.1413156 2:1.6809256 
-0 1 1:-2.237312 2:-0.2909272 
-0 1 1:-1.9628532 2:1.0978718 
-1 0 1:0.3665359 2:1.4121059 
-0 1 1:-0.6050097 2:0.1532445 
-1 0 1:0.3389715 2:2.6794545 
-0 1 1:-1.122305 2:0.329781 
-0 1 1:-1.4885764 2:0.0772203 
-0 1 1:-1.0249793 2:0.339013 
-0 1 1:-1.8048096 2:1.4999464 
-0 1 1:-1.7759757 2:1.649805 
-0 1 1:-1.7765147 2:0.8167143 
-0 1 1:-1.0226638 2:0.1934624 
-1 0 1:0.137074 2:1.8461429 
-1 0 1:0.1431183 2:1.4433473 
-0 1 1:-1.7612192 2:0.2473997 
-0 1 1:-1.7022176 2:0.258266 
-1 1 1:-0.9324379 2:-1.9881069 
-0 1 1:-1.3397215 2:0.2054308 
-0 1 1:-0.8785876 2:0.1830847 
-0 1 1:-0.7884873 2:-0.0704363 
-0 0.83647412416078837 1:0.0465723 2:3.7194418 
-1 1 1:-1.376566 2:-0.6079753 
-0 1 1:-0.5027538 2:0.1998442 
-0 1 1:-1.8501574 2:-0.1432953 
-0 1 1:-1.9012374 2:1.0036233 
-0 1 1:-1.0735447 2:0.0197059 
-0 1 1:-2.343717 2:-0.1444075 
-0 1 1:-0.4142413 2:0.1249375 
-0 1 1:-1.7826333 2:-0.2354032 
-1 0 1:0.1197895 2:1.477703 
-0 1 1:-1.4035555 2:-0.176256 
-0 1 1:-2.2851629 2:0.1182991 
-0.85779626299804979 1 1:-0.3531554 2:-1.4245676 
-0 1 1:-1.2157849 2:0.0562899 
-0 1 1:-1.2167711 2:0.0279129 
-0 1 1:-1.3132268 2:-0.3941324 
-0 1 1:-1.1374704 2:-0.3482505 
-0 1 1:-0.7688515 2:-0.0593974 
-1 0 1:-0.1378094 2:1.3230588 
-0 1 1:-1.5707118 2:0.6379564 
-1 1 1:0.5109762 2:1.3707435 
-0 1 1:-2.125431 2:-0.0162204 
-0 1 1:-1.7181876 2:0.7885219 
-0 1 1:-1.4884951 2:0.2287397 
-1 0 1:0.0390833 2:2.0803482 
-0 1 1:-0.5388795 2:0.1366809 
-0 1 1:-1.2844126 2:0.2086053 
-0 1 1:-1.2632867 2:0.2089761 
-0 1 1:-2.1494484 2:0.488098 
-0 1 1:-1.7980721 2:1.6775565 
-0 1 1:-1.5244621 2:0.0226462 
-1 0 1:0.6185557 2:2.5696448 
-0 1 1:-2.0659523 2:-0.6360984 
-0 1 1:-1.6981155 2:1.7919701 
-1 0 1:0.3127898 2:2.3295701 
-1 0 1:0.3353688 2:1.6329351 
-0 1 1:-1.6528811 2:-0.3488568 
-0 1 1:-2.262414 2:-1.6091071 
-0 1 1:-1.7845476 2:0.1742065 
-0 1 1:-1.3120342 2:-0.1186929 
-0 1 1:-1.9855088 2:-0.7226484 
-0 1 1:-1.035386 2:0.2419061 
-0 1 1:-1.3653043 2:0.221595 
-0 1 1:-1.6935659 2:0.1870772 
-0 1 1:-1.8528739 2:-0.2246039 
-0 1 1:-1.0882517 2:-0.396891 
-1 0 1:0.3700684 2:1.927415 
-1 0 1:0.3500857 2:2.2284983 
-0 1 1:-1.7395439 2:0.51268 
-1 0 1:0.0058633 2:0.3387503 
-0 1 1:-2.1084275 2:1.1103222 
-0 1 1:-1.517688 2:0.0759667 
-1 0 1:-0.1446695 2:1.4822988 
-0 0.13419069749757373 1:-1.5774833 2:1.0989514 
-0 1 1:-1.6140504 2:-0.8128448 
-0 1 1:-0.7226039 2:-0.4045279 
-0 1 1:-1.3348712 2:-0.1756417 
-0 1 1:-1.7602156 2:-0.5395107 
-0 1 1:-1.5385287 2:0.0290699 
-0 1 1:-1.538058 2:0.5174218 
-0.028769967606713052 1 1:-2.4597766 2:-1.849179 
-0 1 1:-0.5140746 2:0.2465873 
-0 1 1:-2.0951549 2:-0.0917069 
-0 1 1:-1.5704412 2:0.761508 
-0 1 1:-0.4528294 2:0.1185522 
-1 0 1:-0.0555831 2:1.9208626 
-0.47230586174329614 1 1:-1.5331066 2:-0.4275323 
-0 1 1:-1.2549669 2:-0.332952 
-0 1 1:-1.7555287 2:1.4523889 
-0 1 1:-1.1365632 2:0.1090262 
-1 0 1:-0.0827501 2:1.3170721 
-0 1 1:-1.7124292 2:-0.4023442 
-0 1 1:-1.6291511 2:1.2848526 
-0 1 1:-1.4625588 2:-0.9466255 
-0 1 1:-2.4005851 2:0.6667776 
-0 0.0962706758544601 1:-2.4937528 2:-0.0262398 
-1 0 1:-0.0454081 2:0.9698723 
-0 1 1:-1.5193401 2:0.1216215 
-0 1 1:-0.9961535 2:0.2535657 
-0 1 1:-0.9026012 2:0.2047415 
-0 1 1:-1.6754816 2:0.5493555 
-0 1 1:-1.1421501 2:0.3664225 
-0 1 1:-1.8120326 2:0.0792229 
-0 1 1:-1.7326771 2:-0.1836729 
-0 1 1:-1.5848659 2:0.859983 
-0 1 1:-1.0902566 2:0.121591 
-0 1 1:-2.2160876 2:0.0405325 
-1 0 1:0.1318038 2:1.2103533 
-0 1 1:-1.6188192 2:1.1108881 
-0 1 1:-1.3309694 2:0.3237884 
-0 1 1:-1.8122933 2:-0.3362993 
-0 1 1:-1.6455391 2:0.2178139 
-1 1 1:0.0017125 2:-0.3098997 
-1 0 1:0.0583636 2:2.2925732 
-0 1 1:-1.1933685 2:-1.0438166 
-0 1 1:-1.4008179 2:0.0868554 
-1 0 1:0.270303 2:1.6544388 
-0 1 1:-1.1758151 2:0.1671621 
-0 0.58955740316616745 1:-1.679345 2:1.8808874 
-0 1 1:-0.6694835 2:-0.0454405 
-0 1 1:-1.6875262 2:1.3097793 
-0.52722273917294848 1 1:-2.1425534 2:0.2890127 
-0 1 1:-1.3883873 2:3.0458762 
-1 1 1:0.4577831 2:1.3549892 
-0 1 1:-1.5236529 2:-1.0750432 
-0 1 1:-1.7806952 2:1.5489913 
-0 1 1:-1.3774984 2:-0.3945766 
-0 1 1:-0.9806141 2:0.1707939 
-1 0 1:0.0651533 2:2.2130197 
-0.09725329805271235 1 1:-1.5969451 2:-0.3753485 
-0 1 1:-1.3944454 2:0.233315 
-0 1 1:-1.1489324 2:0.3218105 
-0 1 1:-1.6609904 2:1.1726949 
-0 1 1:-0.6158845 2:-1.0854304 
-0 1 1:-2.2429305 2:-0.3292638 
-0 1 1:-1.9241545 2:-0.2260239 
-0 1 1:-2.492892 2:0.0755476 
-0 -1 1:-1.0317652 2:0.225731 
-0 -1 1:-1.9547627 2:1.6397876 
-0 -1 1:-1.4327524 2:-0.087762 
-0 -1 1:-1.621095 2:0.2913157 
-0 -1 1:-1.4973196 2:0.4833904 
-0 -1 1:-0.673505 2:-0.3463897 
-0 -1 1:-1.7076322 2:0.5188894 
-0 -1 1:-1.6922808 2:0.5832415 
-0 -1 1:-2.0767121 2:1.0531182 
-0 -0.34005979006660542 1:-1.6605452 2:-0.8289167 
-0 -1 1:-1.5379405 2:-0.1706145 
-0 -1 1:-1.560179 2:1.2064954 
-0 -1 1:-1.2553945 2:0.7503793 
-0 -1 1:-1.4727774 2:0.8187706 
-1 -0 1:1.821855 2:0.6347225 
-1 -1 1:-1.017368 2:0.8725034 
-0 -1 1:-2.0647641 2:1.2500944 
-0 -1 1:-1.8579604 2:0.5208557 
-0 -1 1:-1.2215783 2:-0.1772609 
-0 -1 1:-1.7836696 2:0.0261601 
-0 -1 1:-1.500875 2:-0.3677597 
-0 -1 1:-1.989962 2:0.7389925 
-0 -1 1:-2.2236191 2:1.2141248 
-0 -1 1:-1.3584522 2:0.654204 
-0 -1 1:-1.5526077 2:0.3560234 
-0 -1 1:-0.8502846 2:-0.1561259 
-0 -1 1:-1.0507298 2:0.2698159 
-0 -1 1:-1.5432266 2:-0.4851252 
-0.53517087742721137 -1 1:-2.3592168 2:-0.0749407 
-0 -1 1:-1.9316852 2:0.8435852 
-0 -1 1:-2.0221941 2:0.0327669 
-1 -1 1:1.1935223 2:0.5802018 
-0 -1 1:-1.8127428 2:0.626071 
-1 -1 1:-0.8862913 2:0.4818542 
-0 -1 1:-1.1599551 2:-0.066887 
-0 -1 1:-1.3660005 2:0.6221284 
-0 -1 1:-1.4627585 2:0.0647803 
-0 -1 1:-1.6440593 2:0.2311927 
-0 -1 1:-1.5230344 2:0.7540745 
-0 -1 1:-1.0242125 2:0.1171714 
-0.4298497206697714 -1 1:-1.6478687 2:-0.714895 
-0 -1 1:-1.7859117 2:0.3368611 
-0 -1 1:-1.9284283 2:-0.261137 
-0 -1 1:-1.8879329 2:0.4316111 
-0 -1 1:-0.7741808 2:0.0184219 
-0 -1 1:-1.4200491 2:-1.7793895 
-0.52287879199959886 -0 1:-1.0646796 2:-2.0969458 
-0 -1 1:-2.1474679 2:1.0006939 
-0.27796386691984382 -0.17652070071692699 1:-0.3894403 2:-3.8622253 
-0 -1 1:-1.7539524 2:-0.3521361 
-0 -1 1:-1.4754279 2:0.1593044 
-0 -0.02302325587917619 1:-2.2705769 2:1.3116922 
-0 -1 1:-1.8298735 2:1.3067786 
-0 -1 1:-1.9409733 2:-0.04004 
-0 -1 1:-2.1401528 2:0.5929209 
-0 -1 1:-1.1294165 2:0.3695805 
-0 -1 1:-0.6362199 2:-0.3761097 
-0 -1 1:-1.6774492 2:0.1315105 
-0 -1 1:-1.1797547 2:-0.309172 
-0 -1 1:-0.9992114 2:-0.2955135 
-0 -1 1:-2.2647608 2:1.2913645 
-0 -1 1:-1.9669929 2:0.9498044 
-0 -1 1:-1.8899038 2:0.2436476 
-0 -1 1:-1.9629689 2:0.949468 
-0 -1 1:-2.3264039 2:1.0168045 
-0 -1 1:-1.7947842 2:-0.4956724 
-0 -1 1:-1.0280298 2:-0.2785316 
-0 -1 1:-1.7160482 2:0.3815441 
-0 -1 1:-1.8481443 2:0.0975353 
-0 -1 1:-1.1113986 2:0.2560599 
-0 -1 1:-1.6145807 2:0.2594913 
-0 -1 1:-1.4382092 2:0.7204985 
-0 -0.72988420408690813 1:-1.331658 2:-1.8849288 
-1 -1 1:1.0534275 2:1.6129105 
-0 -1 1:-1.1498491 2:0.4830667 
-1 -0 1:-1.5860979 2:-0.7811349 
-1 -1 1:-0.415133 2:0.0560879 
-0.26944006045570518 -1 1:-0.7854731 2:0.1863324 
-1 -1 1:0.5406135 2:1.6343265 
-0 -1 1:-2.2178691 2:0.6073481 
-0 -1 1:-2.2018179 2:-0.9966405 
-0 -1 1:-1.7418238 2:1.3401411 
-0 -1 1:-1.3416129 2:-0.1845372 
-0 -1 1:-1.8072117 2:0.3638408 
-0 -1 1:-1.7430074 2:1.0613449 
-0 -1 1:-1.711491 2:0.1790422 
-0 -1 1:-1.8203304 2:-0.419647 
-0 -1 1:-1.7185968 2:-0.3239505 
-0 -1 1:-0.9552996 2:-0.1320994 
-0 -1 1:-1.2648704 2:0.0969089 
-0.083575284671717945 -0 1:-1.0873585 2:-1.9966989 
-0 -1 1:-1.3920399 2:-0.294999 
-0 -1 1:-1.7593444 2:-0.2474109 
-0 -1 1:-0.2910074 2:-0.4827885 
-0 -1 1:-2.2642336 2:0.6290851 
-0 -1 1:-2.1251374 2:0.5086999 
-0.45966457688161494 -0 1:-1.5927951 2:-0.7911061 
-0 -1 1:-1.2796108 2:0.8564744 
-0 -1 1:-1.3641224 2:0.165858 
-0 -1 1:-1.2541913 2:-0.2283916 
-0 -1 1:-2.0140822 2:-0.1654144 
-0 -1 1:-1.5412542 2:0.7296504 
-0 -1 1:-0.8346352 2:-0.2692217 
-0 -1 1:-0.9942093 2:0.1741029 
-0 -1 1:-2.0903442 2:-0.1102986 
-0 -1 1:-1.258147 2:-0.195725 
-0 -1 1:-2.0396175 2:-0.3905503 
-0 -1 1:-0.9752817 2:0.1517851 
-0 -1 1:-0.9766913 2:0.0458801 
-0 -1 1:-1.4416088 2:0.7846337 
-0 -1 1:-1.0531682 2:0.4793668 
-0 -1 1:-2.148265 2:1.1101932 
-0 -1 1:-2.2032765 2:1.5155077 
-0 -1 1:-1.5527962 2:-0.3102794 
-0 -1 1:-1.5930133 2:-0.0908141 
-1 -1 1:0.8486145 2:1.5448546 
-0 -1 1:-1.1415401 2:-0.1658945 
-0 -1 1:-1.4421545 2:-0.2259921 
-0 -1 1:-1.9963053 2:0.5361232 
-0 -1 1:-1.9612042 2:0.5267829 
-0 -1 1:-0.8349115 2:0.1650723 
-0 -1 1:-1.43508 2:-0.3056874 
-0 -1 1:-1.4330585 2:-0.2947253 
-0 -1 1:-1.8646289 2:0.4339992 
-0 -1 1:-1.4524074 2:0.3349729 
-0 -1 1:-1.4770348 2:0.654332 
-0 -1 1:-1.7225183 2:1.006989 
-0 -1 1:-1.4700458 2:0.0490372 
-0 -1 1:-1.3432791 2:-0.3181608 
-0 -1 1:-1.7325142 2:-0.4987304 
-0 -1 1:-2.4224998 2:0.6767226 
-0 -1 1:-1.8496482 2:1.0249133 
-0 -1 1:-2.0790086 2:1.0133667 
-0 -1 1:-1.7934224 2:-0.589719 
-0 -1 1:-1.1969896 2:0.4635108 
-0 -1 1:-1.4913556 2:0.4055176 
-0 -1 1:-1.6265334 2:-0.261203 
-0 -1 1:-1.7638562 2:-0.0628637 
-1 -1 1:0.9565486 2:0.6474784 
-0 -1 1:-1.9650569 2:-1.5959072 
-0 -1 1:-0.8709067 2:0.033997 
-0 -1 1:-0.3496521 2:-0.3471655 
-0 -1 1:-1.5934862 2:0.8061639 
-0 -1 1:-1.7666343 2:0.8489234 
-0 -1 1:-1.5452022 2:0.9799548 
-0 -1 1:-1.5647552 2:-0.4220486 
-1 -1 1:-0.0311143 2:-0.0559606 
-0 -1 1:-1.9018212 2:0.2165187 
-0 -1 1:-1.3610498 2:0.0997699 
-0 -1 1:-1.2308914 2:0.1372169 
-0 -1 1:-1.8858507 2:-0.7050196 
-0 -1 1:-1.7953434 2:1.0534758 
-0 -1 1:-1.9729352 2:-0.8117165 
-0 -1 1:-1.4096668 2:-0.2435413 
-0 -1 1:-1.5507046 2:0.6700873 
-1 -0.11671553314290262 1:1.4176784 2:-0.1122726 
-0 -1 1:-1.5256995 2:0.692452 
-0 -1 1:-1.7500633 2:-0.4215478 
-0 -1 1:-1.5600761 2:-0.4735058 
-0 -1 1:-0.9542672 2:0.4782125 
-0 -1 1:-1.7187785 2:-0.2571573 
-0 -1 1:-2.3465411 2:0.8585944 
-0 -1 1:-2.0603439 2:-0.9149138 
-0 -1 1:-2.0137045 2:7.17e-05 
-0 -1 1:-2.3541352 2:0.522412 
-0 -1 1:-1.8786309 2:0.4054205 
-0 -1 1:-1.4771075 2:-0.217003 
-0 -1 1:-1.9699234 2:0.5605476 
-0 -1 1:-1.2052219 2:0.0052807 
-0 -1 1:-1.372374 2:0.0707705 
-0 -1 1:-1.5262091 2:0.1928859 
-0 -1 1:-1.7693322 2:0.8795069 
-0 -1 1:-1.3552202 2:-0.104255 
-0 -1 1:-0.6880894 2:-0.2140802 
-0 -1 1:-1.5706031 2:0.3500101 
-0 -1 1:-0.9246614 2:-0.0150038 
-0.1384557400512027 -0 1:-2.6523442 2:1.0986119 
-0 -1 1:-2.5242717 2:0.6272898 
-0.88682309577499518 -1 1:-0.0316513 2:-0.601294 
-0 -1 1:-0.990287 2:-0.1492589 
-1 -1 1:-0.3858674 2:2.0679195 
-0 -1 1:-2.3279833 2:0.7428858 
-0 -1 1:-1.1276283 2:-0.1473913 
-0 -1 1:-1.8196351 2:1.9756626 
-0 -1 1:-1.7000572 2:0.6515535 
-0 -1 1:-2.0982042 2:0.6759984 
-0 -1 1:-1.8690502 2:-1.1815234 
-0 -1 1:-1.3408003 2:1.2549839 
-0 -1 1:-1.8720163 2:0.7275083 
-0 -1 1:-2.0991593 2:0.6551965 
-0 -1 1:-0.880735 2:0.2725209 
-0 -1 1:-1.0412699 2:-0.2350527 
-0 -1 1:-1.4674504 2:-0.374245 
-0 -1 1:-1.8838054 2:0.8301447 
-0 -1 1:-1.4020176 2:-0.2933486 
-0 -0.80234272266837059 1:-0.484865 2:-1.9985555 
-0 -1 1:-1.1307383 2:0.0824626 
-0 -1 1:-1.72883 2:0.4785013 
-0 -1 1:-1.0605285 2:-0.2898212 
-0 -1 1:-1.5358951 2:-0.5182646 
-0 -1 1:-1.3689896 2:-0.3109248 
-0 -1 1:-1.5370159 2:0.1379294 
-0 -1 1:-1.5067923 2:0.550331 
-1 -1 1:-0.3448793 2:0.1074883 
-0 -1 1:-1.8336153 2:-0.0916432 
-0 -1 1:-1.647884 2:-1.5740987 
-0 -0.18699847971818548 1:-1.274572 2:-2.0669137 
-0.097718692826203934 -1 1:-0.6424486 2:-0.0241134 
-0 -1 1:-1.587807 2:0.9459388 
-0 -1 1:-1.1507167 2:0.2629744 
-0 -1 1:-1.9374895 2:-0.3769818 
-0 -1 1:-1.5989626 2:0.0804741 
-0 -1 1:-2.0058516 2:0.1534684 
-0 -1 1:-2.3903748 2:0.2910317 
-0 -1 1:-1.637994 2:-0.1182167 
-0 -0.95726523540512287 1:-0.3461667 2:-1.9803826 
-0 -1 1:-1.2541535 2:0.7707335 
-0 -1 1:-1.2131292 2:0.4635316 
-0 -1 1:-1.9132407 2:0.0024026 
-0 -1 1:-1.0626081 2:-0.2939354 
-0 -1 1:-1.2289354 2:-0.1516204 
-0 -1 1:-1.0176628 2:-0.1350406 
-0 -1 1:-1.3527931 2:-0.2787226 
-0 -1 1:-2.2330536 2:1.0014244 
-0 -1 1:-1.9718764 2:0.7917273 
-0 -1 1:-1.5511194 2:0.1025405 
-0 -1 1:-0.9613968 2:0.2717695 
-0.68553683912732133 -0 1:-1.5193493 2:-0.8507336 
-0 -1 1:-1.7160946 2:-0.9013506 
-0 -1 1:-1.9313166 2:-0.2405833 
-0 -1 1:-1.3404722 2:0.4486119 
-0 -1 1:-1.5208046 2:0.4907322 
-0 -1 1:-1.7119077 2:-1.8020411 
-0 -1 1:-2.0027583 2:1.6063386 
-0 -1 1:-1.604638 2:0.1853612 
-0 -1 1:-1.6475609 2:0.0621988 
-0 -1 1:-2.2101274 2:2.0645292 
-0.49216183377055261 -0.62961576690742871 1:0.8018294 2:-4.3153277 
-0 -1 1:-1.6916988 2:-0.0729451 
-0 -1 1:-2.1113106 2:-0.1413924 
-0 -1 1:-1.1542476 2:-0.0794024 
-0 -1 1:-1.7677144 2:-0.127409 
-0 -1 1:-1.7741456 2:0.6597393 
-0 -1 1:-1.8313543 2:-0.701987 
-0 -1 1:-1.5856505 2:0.7371727 
-0 -1 1:-1.5800239 2:0.0120588 
-0 -1 1:-1.1278252 2:-0.3000109 
-0 -1 1:-1.4256092 2:0.1305738 
-1 -1 1:0.0825832 2:2.2149305 
-0 -1 1:-1.7629091 2:-0.0834377 
-1 -1 1:-0.9599937 2:0.9780467 
-0 -1 1:-1.5606783 2:0.0161532 
-0 -1 1:-1.4130036 2:-0.3747661 
-0.3682354227154131 -0 1:-1.0643277 2:-2.1219558 
-0 -1 1:-1.3644602 2:0.2458439 
-0 -1 1:-2.0574435 2:1.0786084 
-1 -1 1:0.2784824 2:-0.6362038 
-1 -0 1:0.3128139 2:-0.8214061 
-0 -1 1:-1.9982417 2:-0.3463516 
-0 -1 1:-0.9109041 2:-0.247306 
-0 -1 1:-1.3366452 2:-0.3485841 
-0 -1 1:-1.5212578 2:-0.3834989 
-0.44354182935002945 -0.19003850515759291 1:0.7441322 2:-2.7208932 
-0 -1 1:-1.9090897 2:1.5239314 
-0 -1 1:-1.3084048 2:0.3376411 
-0 -1 1:-1.2555734 2:0.0834736 
-1 -1 1:-0.9613941 2:1.1375291 
-0 -1 1:-1.7531078 2:-0.5495434 
-0 -1 1:-1.91123 2:1.2297025 
-0 -1 1:-1.9298122 2:-0.2107653 
-1 -1 1:1.5027161 2:1.2069489 
-0 -1 1:-1.5675907 2:-0.2442022 
-0 -1 1:-1.6896648 2:0.3375678 
-0 -1 1:-1.8057136 2:0.4742526 
-0 -1 1:-1.7870813 2:-0.0587392 
-0 -1 1:-2.0208066 2:1.0356818 
-0 -1 1:-2.1138975 2:-0.4106493 
-0 -1 1:-1.0084213 2:-0.2243529 
-0 -1 1:-1.7254 2:1.30707 
-0 -1 1:-0.9394142 2:-0.1504288 
-1 -1 1:0.0327774 2:-0.4758082 
-0 -1 1:-1.0189615 2:0.2246515 
-0 -1 1:-1.7914873 2:0.4905349 
-0 -1 1:-1.1712144 2:0.046563 
-0 -1 1:-1.8424508 2:-0.8590782 
-0 -1 1:-2.0199207 2:0.8124823 
-0 -1 1:-1.6508024 2:1.1182214 
-0 -1 1:-2.0340689 2:0.791931 
-0 -1 1:-1.6951358 2:-0.0219397 
-0 -1 1:-1.834075 2:0.6024357 
-0 -1 1:-1.003099 2:-0.1846426 
-0 -1 1:-1.0136777 2:-0.2447968 
-0 -1 1:-1.1010928 2:-0.262453 
-0 -1 1:-1.5627637 2:0.4409926 
-0 -1 1:-0.9712402 2:-0.1209063 
-0.66081050174319511 -1 1:-2.4064756 2:0.2821036 
-0 -1 1:-1.5668473 2:-0.4147991 
-0 -1 1:-1.9827501 2:1.2461995 
-0 -1 1:-2.471515 2:-0.6012893 
-0 -1 1:-0.9136842 2:-0.2787426 
-0 -1 1:-1.8166126 2:-0.3435215 
-0 -1 1:-2.1868159 2:2.4544519 
-0 -1 1:-1.4263787 2:0.3603365 
-0 -1 1:-1.1427825 2:-0.1187467 
-0 -1 1:-1.5020438 2:-0.3731511 
-0 -1 1:-1.7819134 2:-0.2489986 
-0 -1 1:-2.484089 2:0.7466142 
-0 -1 1:-1.2686164 2:0.3761268 
-0 -1 1:-1.6078299 2:0.2327075 
-0 -1 1:-1.7139987 2:0.4417989 
-0 -1 1:-1.3593544 2:0.3597081 
-0 -1 1:-1.503936 2:0.5569018 
-0 -1 1:-1.0711759 2:-0.1898193 
-0 -1 1:-1.8595266 2:0.2093427 
-0 -1 1:-1.4733988 2:0.5823865 
-0 -1 1:-1.7804301 2:-1.6063333 
-0 -1 1:-1.754669 2:-0.162243 
-0 -1 1:-1.2230753 2:-0.057471 
-0 -1 1:-1.2777122 2:-0.0027194 
-0 -1 1:-1.7339446 2:-0.6401247 
-0 -1 1:-1.4874507 2:0.9350412 
-0 -1 1:-2.140944 2:0.9362432 
-0 -1 1:-1.9240535 2:0.4833187 
-0 -1 1:-1.8205782 2:-1.1437094 
-0 -1 1:-1.973857 2:-0.8415198 
-0 -1 1:-2.1271593 2:-0.3526407 
-0 -1 1:-2.0061308 2:0.6747034 
-0 -1 1:-1.7289972 2:0.7831562 
-0 -1 1:-0.9993677 2:-0.1929771 
-0 -1 1:-1.4160322 2:-0.0973419 
-0 -1 1:-1.407259 2:0.132312 
-0 -1 1:-0.7021325 2:-0.349186 
-0 -1 1:-1.4621212 2:-0.411129 
-0 -1 1:-1.3560234 2:0.9545219 
-0 -1 1:-1.8295581 2:0.4720526 
-0 -1 1:-1.4732001 2:0.3081967 
-0 -0.35730694319612671 1:-0.4250597 2:-0.4597126 
-0 -1 1:-1.2526816 2:-0.1113275 
-0 -1 1:-2.3612085 2:0.5651963 
-0 -1 1:-1.820511 2:-0.4369227 
-0 -1 1:-0.7538856 2:-0.0603018 
-0 -1 1:-0.6239 2:-0.3248962 
-0 -1 1:-1.8124417 2:-0.6030374 
-0 -1 1:-2.1533956 2:0.8742382 
-0 -1 1:-1.9352472 2:-0.0670252 
-1 -1 1:-0.8888704 2:1.3602106 
-0 -1 1:-2.0845118 2:2.1505263 
-0 -1 1:-1.0116012 2:0.1307498 
-1 -0 1:1.5795396 2:0.5878236 
-0 -1 1:-1.9067459 2:-0.2869405 
-0 -1 1:-1.5803041 2:0.6754536 
-0 -1 1:-2.3379277 2:0.202028 
-0 -1 1:-1.4799987 2:0.8703332 
-0 -1 1:-2.1195698 2:0.6073936 
-0 -1 1:-1.0828869 2:0.6397092 
-0.64751072057363612 -1 1:-2.392342 2:2.6714732 
-0 -1 1:-1.4166918 2:-2.1633914 
-0 -1 1:-0.9233838 2:-0.2648902 
-0 -1 1:-1.3601602 2:-0.352547 
-0 -1 1:-1.9301944 2:-0.3646486 
-0 -1 1:-1.8892142 2:0.3993822 
-0 -1 1:-1.078941 2:-0.0007243 
-0 -1 1:-2.0504583 2:-0.6481577 
-0 -1 1:-1.9108139 2:1.068723 
-0 -1 1:-2.2337682 2:1.1076483 
-0 -1 1:-1.9181079 2:0.286106 
-0 -1 1:-1.4966661 2:-0.407058 
-0 -1 1:-1.2805745 2:-0.2410101 
-0 -1 1:-1.3393742 2:0.243596 
-0 -1 1:-1.6188619 2:-0.4661169 
-0 -1 1:-1.1632988 2:0.5536341 
-0 -1 1:-1.14506 2:0.5985341 
-0 -1 1:-0.8926827 2:-0.2284936 
-0 -1 1:-1.8573091 2:0.321733 
-0 -1 1:-1.4195642 2:0.3349775 
-0 -1 1:-1.6984342 2:0.4849444 
-0 -1 1:-1.5244523 2:-0.263209 
-0 -1 1:-1.1808634 2:0.764669 
-0 -1 1:-1.8230851 2:0.1396935 
-0 -1 1:-1.8132467 2:0.3165479 
-0.58853658627436378 -0 1:-1.5355772 2:-2.7779673 
-0 -1 1:-1.499751 2:-0.2982972 
-0 -1 1:-2.0830332 2:0.6648333 
-0 -1 1:-1.078673 2:0.1412338 
-0 -1 1:-2.1599203 2:1.1241685 
