svm_type c_svc
kernel_type rbf
gamma 0.5
nr_class 3
total_sv 493
rho 0.071725151097382783 0.077544601933805427 0.011717146605075042
label 2 1 0
nr_sv 156 165 172
SV
1 1 1:-2.6474646 2:-290.87085 
1 1 1:-1.1965607 2:-202.22962 
1 1 1:-0.4207323 2:-194.88874 
1 1 1:-1.7062032 2:-62.20096 
1 1 1:-0.5457183 2:-120.96896 
1 1 1:-0.5710118 2:-373.00786 
1 1 1:-1.1699148 2:-507.32463 
1 1 1:-2.0034271 2:-244.89381 
0.60768032536223804 0.6107599830124103 1:-0.9641792 2:-601.83961 
1 1 1:-1.4383395 2:-698.65766 
1 1 1:-2.216826 2:550.64497 
0.4126878006371078 0.41460824330190904 1:-0.4262432 2:-694.41008 
0.81418835572190484 0.81791850578966763 1:-0.1733542 2:-328.92143 
1 1 1:-1.1285372 2:-375.46354 
1 1 1:-1.2296148 2:-331.75102 
1 1 1:-0.2255983 2:-594.82926 
1 1 1:-1.1409486 2:-1016.0741 
1 1 1:-0.3153871 2:46.143483 
1 1 1:-1.2164269 2:-885.01103 
0.88159933786273148 0.88647747706935287 1:-1.1514436 2:-533.6803 
1 1 1:-0.7094916 2:-1068.4895 
0.97335436509287698 0.97867309837763328 1:0.1343466 2:-563.20828 
0.87918267087592816 0.88419805421162534 1:-2.1402172 2:-612.67414 
1 1 1:-2.9178163 2:276.43834 
0.83982657532721106 0.84382966618832445 1:-1.2077669 2:-781.50066 
1 1 1:-1.3904463 2:-837.78854 
1 1 1:-1.2882436 2:-435.74865 
0.57103291509695764 0.5747014223820206 1:-0.6392661 2:-725.61769 
1 1 1:-0.243916 2:-1253.1038 
0.74542648230994912 0.74936131241024084 1:-1.060706 2:-344.4517 
1 1 1:-0.7499711 2:-989.35189 
1 1 1:-2.3320413 2:-96.973848 
0.75502298978523785 0.75944224542509464 1:-0.9860124 2:-604.31401 
1 1 1:-0.0330914 2:-930.79507 
1 1 1:-2.2264238 2:-303.78336 
0.028950837386504634 0.029232590733053791 1:-0.1455909 2:-564.3705 
0.50866549934460947 0.51194530139875793 1:-1.4308601 2:-145.97123 
0.51139175187433661 0.51394048956017513 1:-1.030075 2:-370.31213 
1 1 1:0.1253856 2:-589.47719 
1 1 1:-0.2778838 2:-917.99349 
1 1 1:-0.2247332 2:-1587.6088 
1 1 1:-1.3947787 2:-224.91924 
1 1 1:-1.0502852 2:-163.04652 
1 1 1:-1.8967322 2:-78.271063 
0.94514930569855227 0.95025505536930255 1:-0.4298277 2:-788.08295 
1 1 1:-0.2343694 2:-894.90471 
0.87114128203518559 0.88635704066470811 1:-0.6842278 2:-248.0137 
0.96912004190003043 0.97463108778594976 1:-1.5890609 2:-696.05596 
0.75982250806903529 0.76363473384966785 1:-1.3108748 2:-487.10591 
1 1 1:-0.6633094 2:-1083.8796 
1 1 1:-0.2372132 2:-1091.9322 
1 1 1:-1.6388675 2:-421.49663 
1 1 1:-0.5229593 2:-398.88662 
1 1 1:-1.8559711 2:-75.299649 
0.87499949349458117 0.87826498890384408 1:-0.7142098 2:-249.73918 
1 1 1:-0.7051492 2:-24.116163 
1 1 1:0.0445789 2:-1075.9728 
1 1 1:-1.0776531 2:-922.19519 
1 1 1:-1.7111644 2:-131.20663 
1 1 1:-1.1416112 2:-390.71022 
1 1 1:-1.0590534 2:-184.46722 
0.94014533795935273 0.94508577431952501 1:-0.8003815 2:-611.12198 
1 1 1:-0.770885 2:-756.68685 
1 1 1:-1.7119643 2:-125.5076 
0.9707141177513835 0.97567871639664339 1:-0.66134 2:-565.27153 
0.94135251588741153 0.94622834863642757 1:-1.3998381 2:-786.32989 
0.61846984317770082 0.62157829217769223 1:-1.3101746 2:-145.39885 
1 1 1:-1.448879 2:-237.06952 
0.63512663092615074 0.63941372234683191 1:-1.3157955 2:-369.80465 
1 1 1:-1.5730893 2:-69.150792 
0.98677497234120126 0.99241979771814115 1:-0.8759753 2:-653.11652 
1 1 1:-1.2230804 2:-71.944544 
1 1 1:-0.982115 2:-773.06966 
1 1 1:-2.3903368 2:-153.53662 
0.88424171230405313 0.88895039770239304 1:-0.7091226 2:-615.29294 
1 1 1:-2.0053192 2:-186.74185 
0.76435569555298877 0.76902388139335287 1:-1.2472625 2:-799.54562 
1 1 1:-1.7154463 2:-484.12005 
0.70048506128894672 0.70468815024234477 1:-0.6595266 2:-974.42878 
1 1 1:-3.0324853 2:-433.83582 
0.76474661033148794 0.76871841983869027 1:-0.6648532 2:-798.32652 
0.75586453483555904 0.76066685954124225 1:-0.2092222 2:-343.45503 
1 1 1:-1.5117277 2:-707.48223 
1 1 1:-0.9345394 2:117.01368 
0.82170443084618405 0.82697487166700367 1:-1.6653053 2:-328.50419 
0.73518950712074238 0.59724307393490439 1:-1.7642575 2:-574.72009 
1 1 1:-0.6549717 2:-720.86549 
0.70130905343788719 0.70516465303501241 1:-0.2782809 2:-973.36602 
1 1 1:0.9479356 2:-1305.6545 
1 1 1:-1.2938178 2:430.75438 
1 1 1:-2.3421109 2:247.16408 
1 1 1:-1.0997242 2:579.48383 
1 1 1:-0.6197867 2:-544.82179 
0.5705398581755311 0.57177639762498877 1:-1.259242 2:-158.41325 
1 1 1:-1.037117 2:-382.35538 
1 1 1:-1.3002802 2:-266.00919 
1 1 1:-1.4885629 2:-272.56895 
1 1 1:-2.056916 2:-347.50394 
1 1 1:-0.0607835 2:-269.34724 
1 1 1:0.1888065 2:-440.19783 
1 1 1:-0.6191918 2:-841.28083 
1 1 1:0.0636498 2:-817.65991 
1 1 1:-2.0905819 2:14.91445 
1 1 1:-0.5149598 2:-525.21908 
1 1 1:-1.5437986 2:-428.25381 
1 1 1:-0.0052531 2:-1027.2696 
0.82988757286530945 0.83438683214172604 1:-0.083796 2:-807.8008 
1 1 1:-1.6870736 2:-48.246487 
0.5749680665554936 0.57860904719444328 1:-2.0528882 2:-486.24404 
1 1 1:-1.5855799 2:-258.82379 
1 1 1:-1.0156618 2:-475.99583 
1 1 1:-1.3789424 2:-656.39331 
0.71004272762290499 0.714025002086771 1:-1.6610934 2:-554.53855 
1 1 1:0.0735801 2:-1057.3841 
0.82930861333335049 0.83383846477369694 1:-1.2817011 2:-806.78726 
1 1 1:-1.6712283 2:-148.50731 
0.71104410056884304 0.71454548823244812 1:-0.7067048 2:-555.2032 
1 1 1:-0.9019024 2:-659.94289 
0.83510890777817204 0.84058969691909058 1:-1.7104309 2:-783.02266 
0.91395067607430891 0.91921001350854847 1:-1.8321113 2:-775.93923 
0.88160240816223767 0.88673371973815862 1:-0.4288492 2:-535.27614 
1 1 1:-2.3630787 2:345.2709 
1 1 1:-0.9977949 2:-633.07552 
1 1 1:-0.8821964 2:-456.54563 
0.38865358823891405 0.59807312845150373 1:-0.6839636 2:-299.5418 
1 1 1:-1.4760194 2:-517.46152 
0.56918160037938503 0.57409375877586222 1:-0.755348 2:-158.43927 
1 1 1:-0.3083869 2:-1065.0132 
1 1 1:-0.8573024 2:-142.58283 
1 1 1:-2.0093679 2:-138.05663 
1 1 1:-0.5002621 2:-549.64886 
1 1 1:-1.1110159 2:-877.71291 
1 1 1:0.2368838 2:-665.05384 
0.92672034025550332 0.93146616825548267 1:-1.1451365 2:-777.73394 
1 1 1:-1.1131511 2:-198.67688 
1 1 1:-1.7522723 2:-767.27621 
1 1 1:-1.0910346 2:-1011.4786 
1 1 1:0.1790833 2:-477.98057 
1 1 1:-0.512136 2:30.162111 
1 1 1:-1.0025238 2:-214.76913 
0.58615922998087699 0.58933673219160509 1:0.0108715 2:-748.85374 
0.76630716904104024 0.77109582321507997 1:-0.2952426 2:-693.56505 
0.57251742982590814 0.57479089680113848 1:-0.4017123 2:-726.07873 
1 1 1:-1.4504519 2:-912.09037 
1 0.59415163259328752 1:-1.1642358 2:-299.98686 
0.61697345914224277 0.62140877826829466 1:-0.1174156 2:-601.96118 
0.83490861109728165 0.83947994201237475 1:-1.1624838 2:-605.82796 
1 1 1:-0.6816354 2:-744.91509 
0.9954399971839607 1 1:0.1253381 2:-679.29868 
0.51521364383398949 0.59724307393490439 1:-1.1497876 2:-574.47551 
0.75642640983638876 0.76029368050034674 1:-0.1810242 2:-613.67402 
0.99589025517664453 1 1:-0.3328487 2:-677.07892 
1 1 1:0.1546612 2:-1005.7084 
1 1 1:0.1957076 2:-662.06596 
0.58769360728592157 0.59104921627433371 1:-0.606494 2:-748.91103 
0.99118343767388883 0.99643900193790025 1:-1.3233092 2:-650.92246 
-0.92838167431008156 1 1:-1.4499227 2:306.51723 
-0.74097063813748332 0.87745203687617546 1:-1.6035796 2:108.02734 
-0.91729315347199436 0.99995175923332758 1:-1.6040356 2:287.8574 
-0.83368881786837468 1 1:-0.502053 2:868.73544 
-1 1 1:-2.2550263 2:-132.61247 
-0.92840761111805659 1 1:-1.3850742 2:57.83974 
-1 1 1:-3.3782311 2:-573.13793 
-0.92797489564185676 1 1:-0.5396276 2:891.85325 
-0.92784622147850404 1 1:-0.7809125 2:559.64377 
-0.90697490472558273 0.98846577057058505 1:0.1435136 2:1076.8389 
-0.92812046894045097 1 1:-1.9858616 2:-4.8911932 
-0.92573699056061631 1 1:-0.9999582 2:507.33614 
-0.92579215278020888 1 1:-1.1144238 2:416.93878 
-0.92831191316225392 1 1:0.4146327 2:1332.1246 
-0.47278706714218399 0.52258952067869469 1:-0.8891388 2:584.41603 
-0.92847794875378886 1 1:-0.7379567 2:612.57763 
-0.78964349595639416 0.86292375863774273 1:-2.8899054 2:-471.87058 
-0.92337234124849621 1 1:-0.8911259 2:761.44153 
-0.91101445338115261 1 1:-0.7597306 2:702.99238 
-0.92792237340928241 1 1:-1.3738372 2:448.56848 
-0.92796972571814595 1 1:-2.0358758 2:-17.812112 
-0.66561538564577116 0.72504213662773964 1:-1.3007002 2:393.5888 
-0.92715882706077368 1 1:-0.7427168 2:711.29402 
-0.52622752418022167 0.57370972818851396 1:-1.4578552 2:128.19704 
-0.92716704586549337 1 1:-1.0577562 2:378.65926 
-0.92814080254785136 1 1:-0.13266 2:826.29508 
-0.78927653330183278 0.85357518148428257 1:-1.2490602 2:422.19066 
-0.90119867484946981 0.98267046783875667 1:-1.8899561 2:337.54844 
-0.85276542253480692 0.92868063017412072 1:-1.6363754 2:251.7206 
-0.92827059712966098 1 1:-0.974431 2:461.87737 
-0.93821750476525967 1 1:-2.7451315 2:-440.96665 
-0.9282591325021845 1 1:0.2545403 2:1126.5096 
-0.98399434662537855 1 1:-2.241635 2:-288.5022 
-0.92722230062431543 1 1:-0.1129765 2:904.4371 
-0.90406952294629939 0.98659220354113575 1:-0.6865872 2:603.78492 
-0.92825913249006575 1 1:-0.7579145 2:484.50959 
-0.92433403888112586 1 1:-0.9961758 2:435.73091 
-0.78745785049650452 0.89808394192207508 1:-1.029498 2:420.33602 
-0.92826109541896851 1 1:-1.6664122 2:66.961422 
-0.52622752418022201 0.57654287700514251 1:-1.5783967 2:128.91984 
-0.91770374790016296 1 1:-0.9226559 2:670.57495 
-1 1 1:-2.002063 2:-150.19892 
-0.92797331552242956 1 1:-1.3312967 2:241.44999 
-0.92264746599211045 1 1:-1.2206339 2:281.56684 
-0.90593667856323579 0.98972013499078915 1:-2.3188072 2:103.96222 
-0.86213490100136636 0.89594481083397293 1:-2.2567148 2:47.780422 
-0.34158070967784138 0.36247109919863518 1:-1.0823595 2:511.71127 
-0.92714212554197362 1 1:-0.2113448 2:900.68759 
-1 1 1:-2.1572014 2:-242.99255 
-0.92810604102193162 1 1:-1.7090084 2:331.24616 
-0.72020677618320028 0.78451102161834918 1:-1.5949486 2:375.05299 
-0.21189582639943558 0.82585204038862436 1:-1.2356694 2:275.44687 
-0.9279485961755044 1 1:-1.2721475 2:298.25077 
-0.83714785313671458 0.91257640565376585 1:-0.2067096 2:835.25999 
-0.53358756438110366 0.57915393429246098 1:-0.742688 2:575.59106 
-0.54636409895389293 1 1:0.0992114 2:977.75607 
-1 1 1:-1.0832259 2:343.8698 
-0.92848386278643413 1 1:-2.573223 2:-359.14891 
-0.92839415460345276 1 1:-1.2978941 2:499.58073 
-0.56744072929226341 0.61835673832192839 1:-1.2432949 2:394.83114 
-0.92800908419504247 1 1:-0.6673721 2:570.79169 
-0.92814080259852294 1 1:0.1295773 2:1297.4284 
-0.9281204689410707 1 1:-1.4621429 2:186.06633 
-0.51421036437889367 0.55950993646358205 1:-1.5784473 2:284.61458 
-0.76833647495306256 0.8489362328621296 1:-2.179505 2:-189.81796 
-0.9270576053835613 1 1:-1.2010652 2:439.34731 
-0.52991857273628928 0.57952079960140457 1:-0.9990054 2:574.87049 
-1 1 1:-2.2099116 2:15.861229 
-0.9277610743211947 1 1:-1.3728889 2:157.07943 
-0.92840120334793041 1 1:-1.0516914 2:476.67412 
-0.65820577647364786 1 1:-0.9780929 2:618.98815 
-0.91113439117233852 0.99309359435447142 1:-1.0585237 2:700.19087 
-0.92839764931621638 1 1:0.1541096 2:1049.1022 
-0.92812794297436862 1 1:-0.3351317 2:1199.8901 
-0.76097838286468877 1 1:-0.4986548 2:491.55682 
-0.76212394568198771 1 1:-0.3140329 2:692.73399 
-0.88599739915632603 0.96597271970530407 1:-1.5308318 2:144.33188 
-0.90167857344272362 0.98314652378250011 1:-1.9198846 2:-86.011723 
-0.92789445603549092 1 1:-2.7749594 2:-583.35465 
-0.92830204436846941 1 1:-0.8662094 2:754.28182 
-0.47634981255322012 0.51220515202945538 1:-0.9228578 2:584.71412 
-0.92834780040115628 1 1:0.0004258 2:949.8552 
-1 1 1:-1.7378878 2:-47.626371 
-0.92838736371950303 1 1:-1.7753941 2:217.16972 
-0.92816041030747909 1 1:-0.4931181 2:1000.3401 
-0.92839380510874614 1 1:-0.6035384 2:315.0372 
-0.72971824761351833 0.75388381829858253 1:-0.3462312 2:871.88356 
-0.74212141385251829 0.82972392881004675 1:-2.2680793 2:109.54916 
-0.89208037564150056 0.96561703638288099 1:-2.2402017 2:-192.23084 
-0.92838666638366685 1 1:0.2193795 2:1044.108 
-0.92793181636785271 1 1:-1.4725911 2:177.17179 
-0.92784916843584453 1 1:0.1711635 2:1037.031 
-1 1 1:-1.0494212 2:432.26922 
-0.92793155965259344 1 1:-2.230409 2:-13.507927 
-0.92822724313247407 1 1:0.1199402 2:1166.2149 
-0.92829959663192063 1 1:-1.8895388 2:2.596001 
-0.43994169015357398 0.48003635168829634 1:-1.5896637 2:285.04416 
-0.92821482011007939 1 1:0.7280201 2:1629.7088 
-0.92837655697924071 1 1:-1.0369808 2:405.87278 
-0.92735086845714187 1 1:-1.2889995 2:261.03122 
-1 1 1:-2.2819902 2:-266.62118 
-0.92814393671017914 1 1:-1.7730977 2:353.90653 
-0.92829959663253592 1 1:-0.8164216 2:534.06802 
-0.92817926913546145 1 1:-1.6221245 2:74.5575 
-1 1 1:-2.0081406 2:-397.80693 
-0.92027948813447447 1 1:-0.9889141 2:272.63135 
-0.71161600191932251 0.79052717364443892 1:-0.974031 2:358.92596 
-0.92847935454096542 1 1:-1.0408619 2:34.427711 
-0.92837511159748387 1 1:-0.9044497 2:628.67944 
-0.48172215115471423 0.70367285906376253 1:-0.1734762 2:870.5404 
-0.9274742088916017 1 1:-1.8039934 2:-174.59109 
-0.92827341037565037 1 1:-0.3040736 2:722.8101 
-0.92810522194832645 1 1:0.3321027 2:1209.2678 
-0.88606994671267558 0.96583192329341983 1:-1.5345655 2:146.79997 
-0.92683719634263095 1 1:-0.7648431 2:425.74507 
-0.92817237792116569 1 1:0.327531 2:1150.9012 
-0.92803926206848142 1 1:-0.892883 2:803.89084 
-0.90593800039676009 0.98770708971933063 1:-2.0250246 2:101.25606 
-0.71127941669220074 0.77124343422054065 1:-1.0529265 2:360.46496 
-0.92823708051674148 1 1:-0.9635848 2:401.61557 
-0.9272136697699318 1 1:-0.732888 2:714.97931 
-0.92784987853649503 1 1:-0.8160532 2:678.90932 
-0.9282610954196362 1 1:-2.395318 2:-499.86641 
-0.92347227399261078 1 1:-0.4235558 2:764.65618 
-0.92848741539381019 1 1:-0.1449793 2:845.29484 
-0.92807240171392125 1 1:-2.4361436 2:-230.34538 
-0.90411042256322305 0.98513020818904184 1:-1.1449674 2:606.43718 
-0.81750148937173506 0.89527970093756071 1:-1.7337705 2:49.733863 
-0.92833755438204213 1 1:-0.4349449 2:941.33351 
-0.84924626429243788 0.94355745680966985 1:-1.02894 2:513.52144 
-0.92837406789877808 1 1:-2.3113424 2:-30.926562 
-0.91756234496653188 1 1:-0.8779579 2:667.58967 
-0.89293943304030898 0.97327816310140092 1:-1.2720843 2:397.20123 
-0.92823340306683078 1 1:-0.8078614 2:639.9196 
-0.92807797313962437 1 1:-0.9514911 2:542.16732 
-1 0.91708227063217085 1:-2.5683718 2:-187.79654 
-0.65710404900964448 0.88202615430844777 1:-1.0214404 2:617.6566 
-0.80331466424326115 0.86251661713570904 1:-2.9740548 2:-473.74263 
-0.93052707981254745 1 1:-1.9945922 2:-100.42549 
-0.92826099131114326 1 1:-1.0986529 2:453.13688 
-0.70504782699404889 0.78094961076405056 1:-1.130037 2:510.69944 
-0.90212166249506609 0.98333977661085326 1:-2.0619639 2:-83.357554 
-0.90034076255835338 0.98181992407693763 1:-1.1530937 2:340.09441 
-0.92414323423511091 1 1:-1.3703189 2:257.23134 
-0.92809524450415837 1 1:-0.5935516 2:563.95111 
-0.92802797588498187 1 1:0.4345838 2:1183.8493 
-1 0.33889557693343647 1:-1.5990421 2:275.8912 
-0.75805537765738451 1 1:-0.5368662 2:493.92293 
-0.85743657222986103 0.91034343407506157 1:-2.577943 2:-297.45601 
-0.5458584302120687 0.86979102110149487 1:-0.7029537 2:977.49182 
-1 1 1:-2.1177358 2:-25.680227 
-0.92814042407610498 1 1:-1.5317986 2:152.79092 
-0.72142136808099833 0.78807692601992985 1:-1.615522 2:373.47283 
-0.83673757435663154 0.91247288077719402 1:-0.2224493 2:833.15414 
-0.90694723261435484 0.98832957167178392 1:-0.1285626 2:1079.5668 
-0.76221575787094531 1 1:-0.7270455 2:694.42989 
-0.92742269699957092 1 1:-2.1149177 2:-170.74338 
-0.92836982940325574 1 1:-1.6332885 2:366.40686 
-0.92782811929150466 1 1:-0.8305093 2:746.21079 
-0.92816063695234685 1 1:-0.2071687 2:988.672 
-0.84807658238037598 0.93680874074375375 1:-1.473728 2:253.9133 
-0.92828723461295704 1 1:-1.7600816 2:-36.98877 
-1 1 1:-2.3678854 2:-300.81403 
-0.293484105702492 0.38168530598580569 1:-1.1040496 2:492.73925 
-0.83638813416764457 0.91427225455773387 1:-2.5949723 2:-295.34201 
-0.92259829809160809 -1 1:0.126059 2:560.98727 
-0.90500854135305919 -0.969858192456591 1:2.540747 2:86.01151 
-0.92256721806425268 -0.98842279373553421 1:0.2281878 2:1322.2677 
-0.92255170695745181 -1 1:1.6938521 2:357.71368 
-0.8193886983763371 -0.90717144728880705 1:-1.7724823 2:631.19632 
-0.92236717113608635 -0.98810930753620263 1:1.1094844 2:6.0110228 
-0.88207316239896105 -1 1:-0.4891012 2:259.25759 
-0.92230604179873898 -0.98847560706453019 1:2.630696 2:1434.7134 
-0.92273436791230412 -0.98852292366779837 1:2.4634142 2:-427.44229 
-0.70719415270215813 -0.75618148062990709 1:0.8481837 2:517.42347 
-0.71084636345063612 -0.79289717740474086 1:1.3563522 2:274.94264 
-0.92254541045486782 -0.9880171086739461 1:-0.0890841 2:1384.5707 
-0.9226875749448139 -1 1:-1.0167351 2:801.31108 
-0.92203705248129064 -0.98790946312254646 1:0.3909442 2:1025.0729 
-0.69951326571729555 -1 1:0.2497187 2:978.10337 
-0.52684744386495663 -0.5647219423466866 1:1.2551788 2:792.36548 
-0.63632088283771804 -0.86381439972317386 1:-0.0711147 2:665.88249 
-0.9220447661213278 -0.98805916160867457 1:1.7590333 2:37.490681 
-0.86261431613320982 -0.93383686653915943 1:1.0848507 2:463.90639 
-0.92269425485224899 -0.99536059861319626 1:-0.2874277 2:985.51192 
-1 -0.9956690614916609 1:0.0651938 2:-186.12948 
-0.57981112819968617 -0.62112474068396795 1:0.8345988 2:134.11827 
-0.92230981008394597 -0.98805183298531651 1:2.445749 2:65.35699 
-0.91674955507262357 -0.98250532733519091 1:-0.882947 2:40.445605 
-0.92270827001340616 -0.98807661150574499 1:2.2258552 2:198.74477 
-0.92240002202172067 -0.98814938199288382 1:-0.1498545 2:1136.7438 
-0.92271574443714932 -1 1:0.9451184 2:704.58432 
-0.92228062281434975 -0.98808763340011285 1:1.1917046 2:-470.04126 
-0.92269058160167061 -0.98848214310905569 1:-0.4159637 2:-106.14769 
-0.92223058860931539 -1 1:0.6959132 2:242.63563 
-0.92272872748981793 -0.99142478835747472 1:-0.5492742 2:757.82447 
-0.54087279894363349 -0.57978762913603377 1:1.7302952 2:350.61835 
-0.77476225339195381 -0.82910991718122529 1:3.0381774 2:130.49516 
-0.92230384705413626 -0.98845880242456841 1:-0.5989337 2:21.420563 
-0.92240902979049622 -1 1:2.3269595 2:891.09261 
-0.64868993209558823 -0.89482896324527628 1:0.7367059 2:434.9544 
-0.92028447974542271 -0.98610023627952081 1:-1.194105 2:1055.9048 
-0.92207385727105962 -0.9892470676030688 1:0.2250568 2:370.25225 
-0.92239969387275433 -1 1:-0.1524761 2:417.94352 
-0.54836453605073798 -0.58835043425985545 1:-0.0242412 2:655.85754 
-0.42883131656275181 -0.46271513922056484 1:0.8038442 2:516.20796 
-0.7724996215694645 -1 1:0.1297486 2:710.55279 
-0.76790569717710211 -0.81571010617165973 1:2.973249 2:275.60127 
-0.88666788319714762 -1 1:-0.5358196 2:273.397 
-0.9204992713608402 -0.98564292545542131 1:3.2375104 2:582.10468 
-0.92068204992307956 -0.98641762008081457 1:3.2195428 2:633.31395 
-0.92279456287008543 -0.98862197795621043 1:0.6063169 2:771.37712 
-0.92220246931937366 -0.98775703245489455 1:2.0207131 2:98.952923 
-0.83301572637886123 -0.90684059056975885 1:1.6468168 2:514.58308 
-0.82421982391169368 -1 1:-0.3962147 2:619.12538 
-0.92264181068282158 -0.98847753610683675 1:1.0901485 2:-539.28426 
-0.86375639774553337 -1 1:0.0578091 2:1038.8271 
-0.80558311415024852 -0.82797554398889417 1:1.5159386 2:712.69534 
-0.92196104828044079 -0.98806210800833061 1:3.6443288 2:191.67758 
-0.90992114021297421 -0.98659066793157535 1:1.6005993 2:509.09954 
-0.88009090644355414 -1 1:-1.1192806 2:490.53369 
-0.77097593736842196 -0.82621012968834384 1:1.8833534 2:788.53047 
-0.92292421007024827 -0.9883259670324358 1:0.3982796 2:931.85551 
-0.84620194700008478 -0.92625274246358347 1:1.7708356 2:761.86912 
-1 -0.98627692849267579 1:1.1125563 2:579.33302 
-0.69907357494932421 -0.86909769071196552 1:1.0684636 2:979.37466 
-0.92264820636346323 -1 1:0.8656571 2:874.32917 
-0.93488205502861166 -0.98847519960165042 1:2.8115344 2:-268.61093 
-0.56633001462517629 -0.60647443979713045 1:3.0526963 2:374.12242 
-0.90942022562713132 -1 1:-0.4797363 2:507.05397 
-0.93155664218708678 -0.98838487129590702 1:0.4012775 2:-118.04763 
-0.89380488381703094 -0.95316599369419752 1:0.711007 2:663.3392 
-0.026921813254091653 -0 1:1.5856959 2:454.20166 
-0.9223997076876328 -0.98801782405431227 1:0.0986541 2:1249.9377 
-0.55048241135944764 -0.58976231701052906 1:0.9839872 2:351.05998 
-0.56711453265481993 -0.60837676879525293 1:2.0952188 2:374.0032 
-0.80761775503466915 -1 1:1.0149373 2:491.6985 
-0.86364847062668404 -0.92299632104626461 1:2.1114608 2:1039.9042 
-0.92235324424861831 -0.98894909628323768 1:2.2522353 2:615.4453 
-0.84418339271229226 -0.91117104124342185 1:-0.0183312 2:625.61177 
-0.67143520263369139 -0.7706408718650114 1:-0.2870302 2:111.00286 
-0.5680814425999916 -0.66413298468195192 1:0.0927506 2:404.09524 
-0.92235171045343178 -0.98817025109691181 1:2.8094275 2:270.22469 
-0.92280082515287154 -0.98842709424565423 1:3.5942909 2:140.69468 
-0.65599657140781076 -0.66892257146759138 1:1.257034 2:666.17522 
-0.92222210974277252 -0.9890472866934048 1:1.3456427 2:689.34332 
-0.92230981008394597 -1 1:-1.4403519 2:332.07094 
-0.54952075371588083 -0.58765599007519898 1:-0.1598698 2:654.99089 
-0.92239969387275433 -1 1:1.3256662 2:478.31998 
-0.92246714190847867 -0.98865611232648265 1:-0.7442721 2:1190.4978 
-0.92049227761480434 -0.98580071772965083 1:1.0534952 2:347.34999 
-0.70082934083197967 -0.75072906769285219 1:1.4639423 2:790.2311 
-0.65164433534482602 -0.62431247445297655 1:2.0641757 2:435.13632 
-0.84058784775056394 -0.9014183258721119 1:-0.5676203 2:599.96529 
-0.92516290346086383 -0.98821401404103026 1:0.8542681 2:248.3295 
-0.76809084654360393 -1 1:0.4418062 2:453.82175 
-0.83000595008592559 -0.95228007796759107 1:-0.3406754 2:823.94659 
-0.92244777017057666 -0.98846577057058505 1:-0.1006152 2:386.43807 
-0.84623699863498547 -1 1:0.2162209 2:763.41789 
-0.36954164250857496 -1 1:0.1060022 2:494.87631 
-0.92244513684396823 -0.98803039759347366 1:3.3286514 2:503.17788 
-0.88224826583591165 -1 1:-0.5964129 2:256.77797 
-0.77823663189199621 -0.83862373205638308 1:1.7043129 2:129.23521 
-0.92250634874202808 -0.98788062899311568 1:1.1869143 2:1414.3175 
-0.54344962256952534 -0.58269107543491994 1:-0.1069278 2:647.35978 
-0.92292421007024672 -0.98852309487215706 1:2.8897599 2:-32.972238 
-0.56211006701049171 -0.60299952372108956 1:1.5343402 2:852.69358 
-0.92255048973412346 -0.98815145102033952 1:-0.217543 2:1239.5026 
-0.87287774514016492 -0.93536860786826459 1:2.9273903 2:602.3351 
-0.92228263686128931 -0.98816016792966765 1:1.5884922 2:545.64226 
-0.92229320191505393 -0.98802345761583432 1:0.3979186 2:1409.9923 
-0.56540249160866396 -0.6050790496806091 1:0.8504766 2:852.03128 
-0.922402846330035 -0.98828429695465436 1:0.2577907 2:916.65486 
-0.73318150122478132 -0.78579992302429957 1:2.5844506 2:624.01563 
-0.56074141010725542 -0.60073813924498254 1:4.5754143 2:535.35749 
-0.95302159604100212 -0.98879849432772193 1:-3.0597987 2:581.25216 
-0.92244768201607552 -1 1:2.8689042 2:1208.6093 
-0.56875757257172987 -0.73743663068026322 1:0.2422842 2:403.13393 
-0.92230337407926255 -1 1:0.9132842 2:902.96778 
-0.90958899010489014 -0.97434859660052453 1:2.3046012 2:1094.7232 
-0.90950064272718845 -0.97463091970907478 1:0.6934706 2:1097.1582 
-0.81728399698274057 -0.87296160193345218 1:-0.1753165 2:632.46052 
-0.92499317912264911 -1 1:-0.1140361 2:-99.553394 
-0.8215184269637098 -0.90111123026474926 1:1.1409448 2:620.49958 
-0.92273458399507446 -0.98847941954886742 1:1.2520622 2:-43.44143 
-0.92221880628941766 -0.99579874478211627 1:1.0967338 2:681.37072 
-0.94904283593659955 -0.98804950521796042 1:-0.2361478 2:552.46968 
-0.92273445670195475 -0.98836493235283474 1:1.1476281 2:213.40716 
-0.70595352917390075 -0.7564521422218895 1:1.2308161 2:963.83199 
-0.92279495128489586 -0.98811546882360957 1:-0.4283807 2:-253.75549 
-0.92268757494480491 -0.98842280061918109 1:1.0750836 2:955.89121 
-0.90545177984221081 -0.96997281689788684 1:1.1625261 2:88.464366 
-0.76087717571294666 -0.80524198889422072 1:1.8204266 2:455.03283 
-0.92223225077768201 -0.98792484313371021 1:1.5365666 2:94.679979 
-0.56856337857938843 -0.61014454368755211 1:1.2005931 2:133.1803 
-0.92280872014954018 -0.98808292183337143 1:2.535772 2:175.03967 
-0.54474748286377539 -0.5833955098533512 1:-0.9310739 2:647.14275 
-0.86223432502638231 -1 1:-1.1259649 2:463.24285 
-0.91890112509161481 -0.98252031172248366 1:1.1856819 2:42.908896 
-0.97812883997440792 -0.976742139816553 1:0.3484481 2:-245.1698 
-0.85454091266654342 -0.91558756030718258 1:2.3505882 2:857.79191 
-0.92219498235496999 -1 1:0.0694419 2:106.44983 
-0.92236150328046196 -0.98817306088718837 1:-0.8300127 2:-9.7509226 
-0.90710910187203009 -0.97323717668694443 1:3.1834623 2:-244.62955 
-0.8301649990447757 -0.8825663048718807 1:0.3960301 2:821.98463 
-0.92262632304860415 -0.98832957167178392 1:1.1024847 2:-350.43918 
-0.92253478112595011 -0.98849930411955333 1:0.8485622 2:1173.03 
-0.56146186914504914 -0.601454663044935 1:4.3063893 2:536.25611 
-0.91931440620549643 -0.98540218786512557 1:2.9941719 2:113.62222 
-0.92236057021707885 -1 1:-1.6598945 2:998.08341 
-0.58970498509333269 -0.64090200126816865 1:1.3144136 2:494.53833 
-0.92239970768763302 -0.98828952483653076 1:2.061628 2:54.311219 
-0.23574283052275183 -0.42816251129929905 1:0.9200517 2:711.41159 
-0.92256114833909353 -1 1:0.8286929 2:677.41535 
-0.59732096407523316 -0.63829421628701877 1:1.0474829 2:623.84606 
-0.92248098766165065 -0.98808154428200934 1:0.8549799 2:237.5825 
-0.92202931785769815 -0.98801116836757297 1:2.1366002 2:1403.8311 
-0.91730003950455463 -1 1:1.6710563 2:432.02725 
-0.92233939486295613 -0.988328794240936 1:3.6422569 2:283.01438 
-0.92349195444672771 -0.98843644289751675 1:1.6590886 2:-49.770994 
-0.77978052451853064 -0.83532531627579709 1:1.4972078 2:600.47068 
-0.66100208482603329 -0.70754222899054386 1:1.1838718 2:793.55471 
-0.92233054763164612 -0.98799789505076918 1:1.9217219 2:522.02013 
-0.92213902278236048 -0.98785768155555631 1:1.2580422 2:1029.1365 
-0.92257613230101476 -1 1:0.4471788 2:868.79174 
-0.85428535058626764 -0.91528785354722764 1:0.6443557 2:856.3243 
-0.9222824221567022 -0.98803236322206789 1:0.8540597 2:1390.0188 
-0.9222801777654156 -1 1:0.7478901 2:693.69077 
-0.32042338655692731 -0.065431337905422812 1:0.3650451 2:495.31898 
-0.70625653703230462 -0.75654058951450209 1:0.2868967 2:965.04614 
-0.92241963760412504 -0.98834296644478004 1:1.9706954 2:-900.53758 
-0.92230809690866078 -0.98828314220543856 1:2.0628087 2:-83.670944 
-0.97432255138785828 -0.98829568290855996 1:0.1276452 2:-509.38052 
-0.92021088107231841 -0.98567274267536575 1:1.0866389 2:1058.5309 
-0.86942408798142623 -0.92402765001911924 1:2.9760305 2:490.43112 
-0.92201857954491584 -0.98826426141580104 1:2.4844099 2:253.03093 
-0.66525886117951838 -0.69470828149591224 1:1.1064552 2:110.91635 
